<?xml version="1.0"?>
<opencv_storage>
<stage9>
  <maxWeakCount>100</maxWeakCount>
  <stageThreshold>-1.2341458797454834e+00</stageThreshold>
  <weakClassifiers>
    <_>
      <internalNodes>
        0 -1 59743 -3.5879883915185928e-02</internalNodes>
      <leafValues>
        2.0359066128730774e-01 -2.5213193893432617e-01</leafValues></_>
    <_>
      <internalNodes>
        0 -1 228296 2.6206355541944504e-02</internalNodes>
      <leafValues>
        -1.4104193449020386e-01 1.9527730345726013e-01</leafValues></_>
    <_>
      <internalNodes>
        0 -1 83065 3.8091450929641724e-02</internalNodes>
      <leafValues>
        -7.8233838081359863e-02 2.5030463933944702e-01</leafValues></_>
    <_>
      <internalNodes>
        0 -1 166486 -6.9646015763282776e-03</internalNodes>
      <leafValues>
        1.4042559266090393e-01 -1.1729511618614197e-01</leafValues></_>
    <_>
      <internalNodes>
        0 -1 259329 1.7704870551824570e-02</internalNodes>
      <leafValues>
        -7.1867242455482483e-02 1.8666103482246399e-01</leafValues></_>
    <_>
      <internalNodes>
        0 -1 151991 -3.1174444593489170e-03</internalNodes>
      <leafValues>
        1.7509685456752777e-01 -9.2932634055614471e-02</leafValues></_>
    <_>
      <internalNodes>
        0 -1 192947 1.9210362806916237e-02</internalNodes>
      <leafValues>
        -5.0552908331155777e-02 2.4837224185466766e-01</leafValues></_>
    <_>
      <internalNodes>
        0 -1 11090 8.1780269742012024e-02</internalNodes>
      <leafValues>
        -2.4880798533558846e-02 3.4974828362464905e-01</leafValues></_>
    <_>
      <internalNodes>
        0 -1 243656 -8.0628385767340660e-03</internalNodes>
      <leafValues>
        2.0199221372604370e-01 -8.3463102579116821e-02</leafValues></_>
    <_>
      <internalNodes>
        0 -1 186432 -9.5427725464105606e-03</internalNodes>
      <leafValues>
        2.0940920710563660e-01 -7.3901474475860596e-02</leafValues></_>
    <_>
      <internalNodes>
        0 -1 168549 -2.7620308101177216e-03</internalNodes>
      <leafValues>
        2.1228168904781342e-01 -5.2001014351844788e-02</leafValues></_>
    <_>
      <internalNodes>
        0 -1 185493 -2.6513682678341866e-03</internalNodes>
      <leafValues>
        2.4210695922374725e-01 -6.4735502004623413e-02</leafValues></_>
    <_>
      <internalNodes>
        0 -1 260017 -4.3021575547754765e-03</internalNodes>
      <leafValues>
        4.0514233708381653e-01 -2.7680497616529465e-02</leafValues></_>
    <_>
      <internalNodes>
        0 -1 260692 -1.0306771844625473e-02</internalNodes>
      <leafValues>
        4.7818660736083984e-01 -2.8299409896135330e-02</leafValues></_>
    <_>
      <internalNodes>
        0 -1 186371 -2.4144784547388554e-03</internalNodes>
      <leafValues>
        2.2359314560890198e-01 -5.7579003274440765e-02</leafValues></_>
    <_>
      <internalNodes>
        0 -1 261283 6.5854727290570736e-04</internalNodes>
      <leafValues>
        6.3803270459175110e-02 -2.1223759651184082e-01</leafValues></_>
    <_>
      <internalNodes>
        0 -1 24805 -5.0115678459405899e-03</internalNodes>
      <leafValues>
        1.6392028331756592e-01 -8.1461645662784576e-02</leafValues></_>
    <_>
      <internalNodes>
        0 -1 4147 1.1291618458926678e-02</internalNodes>
      <leafValues>
        -5.2794329822063446e-02 2.7793753147125244e-01</leafValues></_>
    <_>
      <internalNodes>
        0 -1 98178 4.1926018893718719e-03</internalNodes>
      <leafValues>
        -4.2038246989250183e-02 3.3927592635154724e-01</leafValues></_>
    <_>
      <internalNodes>
        0 -1 127968 -1.3651410117745399e-03</internalNodes>
      <leafValues>
        -2.1267354488372803e-01 5.6680653244256973e-02</leafValues></_>
    <_>
      <internalNodes>
        0 -1 82846 -3.4394520334899426e-03</internalNodes>
      <leafValues>
        1.3702085614204407e-01 -8.5621833801269531e-02</leafValues></_>
    <_>
      <internalNodes>
        0 -1 97859 3.0424483120441437e-03</internalNodes>
      <leafValues>
        5.7489346712827682e-02 -2.1309156715869904e-01</leafValues></_>
    <_>
      <internalNodes>
        0 -1 142415 -5.7364208623766899e-03</internalNodes>
      <leafValues>
        2.2315499186515808e-01 -4.9761191010475159e-02</leafValues></_>
    <_>
      <internalNodes>
        0 -1 113264 -2.1393876522779465e-02</internalNodes>
      <leafValues>
        2.1292932331562042e-01 -6.0842558741569519e-02</leafValues></_>
    <_>
      <internalNodes>
        0 -1 1029 3.0942745506763458e-02</internalNodes>
      <leafValues>
        -5.0102591514587402e-02 2.3600266873836517e-01</leafValues></_>
    <_>
      <internalNodes>
        0 -1 183252 -1.7295338213443756e-02</internalNodes>
      <leafValues>
        2.2758840024471283e-01 -6.1008330434560776e-02</leafValues></_>
    <_>
      <internalNodes>
        0 -1 3934 -1.2740280479192734e-02</internalNodes>
      <leafValues>
        1.0132040828466415e-01 -1.2954567372798920e-01</leafValues></_>
    <_>
      <internalNodes>
        0 -1 27508 1.6524591483175755e-03</internalNodes>
      <leafValues>
        4.8518858850002289e-02 -2.5370201468467712e-01</leafValues></_>
    <_>
      <internalNodes>
        0 -1 6592 3.7703798152506351e-03</internalNodes>
      <leafValues>
        -7.5595565140247345e-02 2.0768246054649353e-01</leafValues></_>
    <_>
      <internalNodes>
        0 -1 127258 6.6317198798060417e-03</internalNodes>
      <leafValues>
        -6.0575861483812332e-02 2.0593583583831787e-01</leafValues></_>
    <_>
      <internalNodes>
        0 -1 260956 9.3296738341450691e-03</internalNodes>
      <leafValues>
        2.0248560234904289e-02 -6.3691383600234985e-01</leafValues></_>
    <_>
      <internalNodes>
        0 -1 26859 8.3672955632209778e-02</internalNodes>
      <leafValues>
        -4.1854787617921829e-02 3.0200949311256409e-01</leafValues></_>
    <_>
      <internalNodes>
        0 -1 256903 -2.7065636590123177e-02</internalNodes>
      <leafValues>
        2.9439997673034668e-01 -3.7377521395683289e-02</leafValues></_>
    <_>
      <internalNodes>
        0 -1 52530 1.3855546712875366e-01</internalNodes>
      <leafValues>
        2.8019741177558899e-02 -4.6575230360031128e-01</leafValues></_>
    <_>
      <internalNodes>
        0 -1 93431 7.8888693824410439e-03</internalNodes>
      <leafValues>
        -7.5660541653633118e-02 1.7317579686641693e-01</leafValues></_>
    <_>
      <internalNodes>
        0 -1 242746 4.1012562811374664e-02</internalNodes>
      <leafValues>
        -3.7064209580421448e-02 3.5005754232406616e-01</leafValues></_>
    <_>
      <internalNodes>
        0 -1 127349 1.1497521772980690e-03</internalNodes>
      <leafValues>
        -9.4468981027603149e-02 1.2509757280349731e-01</leafValues></_>
    <_>
      <internalNodes>
        0 -1 67597 1.4450326561927795e-02</internalNodes>
      <leafValues>
        -4.4633828103542328e-02 2.6332277059555054e-01</leafValues></_>
    <_>
      <internalNodes>
        0 -1 8777 -7.7951629646122456e-03</internalNodes>
      <leafValues>
        2.6567664742469788e-01 -4.6676259487867355e-02</leafValues></_>
    <_>
      <internalNodes>
        0 -1 28028 3.3235996961593628e-02</internalNodes>
      <leafValues>
        2.5303244590759277e-02 -4.7763055562973022e-01</leafValues></_>
    <_>
      <internalNodes>
        0 -1 42169 -4.8899762332439423e-03</internalNodes>
      <leafValues>
        -3.5325130820274353e-01 3.4490894526243210e-02</leafValues></_>
    <_>
      <internalNodes>
        0 -1 175066 1.3333071023225784e-02</internalNodes>
      <leafValues>
        -5.7863291352987289e-02 2.0024201273918152e-01</leafValues></_>
    <_>
      <internalNodes>
        0 -1 36617 -1.6911696642637253e-02</internalNodes>
      <leafValues>
        -3.3741798996925354e-01 3.3423252403736115e-02</leafValues></_>
    <_>
      <internalNodes>
        0 -1 8736 -2.7714176103472710e-03</internalNodes>
      <leafValues>
        2.7375462651252747e-01 -4.1223723441362381e-02</leafValues></_>
    <_>
      <internalNodes>
        0 -1 258186 -5.6049921549856663e-03</internalNodes>
      <leafValues>
        -4.6553173661231995e-01 2.4870697408914566e-02</leafValues></_>
    <_>
      <internalNodes>
        0 -1 249699 -2.3149703629314899e-03</internalNodes>
      <leafValues>
        3.1198489665985107e-01 -3.8498837500810623e-02</leafValues></_>
    <_>
      <internalNodes>
        0 -1 258362 -9.6478061750531197e-03</internalNodes>
      <leafValues>
        -4.3341678380966187e-01 2.8255080804228783e-02</leafValues></_>
    <_>
      <internalNodes>
        0 -1 256211 -7.9064141027629375e-04</internalNodes>
      <leafValues>
        -2.3153428733348846e-01 4.5874055474996567e-02</leafValues></_>
    <_>
      <internalNodes>
        0 -1 234301 2.7435435913503170e-03</internalNodes>
      <leafValues>
        -4.7110021114349365e-02 2.4373517930507660e-01</leafValues></_>
    <_>
      <internalNodes>
        0 -1 233749 -1.4172643423080444e-03</internalNodes>
      <leafValues>
        -2.0010760426521301e-01 6.0149051249027252e-02</leafValues></_>
    <_>
      <internalNodes>
        0 -1 261037 -4.9276575446128845e-03</internalNodes>
      <leafValues>
        1.3577625155448914e-01 -9.0865351259708405e-02</leafValues></_>
    <_>
      <internalNodes>
        0 -1 247308 -3.2237720006378368e-05</internalNodes>
      <leafValues>
        1.1173891276121140e-01 -1.1305026710033417e-01</leafValues></_>
    <_>
      <internalNodes>
        0 -1 37188 2.1910801529884338e-02</internalNodes>
      <leafValues>
        -4.0195535868406296e-02 2.8477135300636292e-01</leafValues></_>
    <_>
      <internalNodes>
        0 -1 159461 2.4221730418503284e-03</internalNodes>
      <leafValues>
        -1.0162861645221710e-01 1.1655457317829132e-01</leafValues></_>
    <_>
      <internalNodes>
        0 -1 231840 3.5194933880120516e-03</internalNodes>
      <leafValues>
        -7.6925851404666901e-02 1.4866481721401215e-01</leafValues></_>
    <_>
      <internalNodes>
        0 -1 223016 5.0517963245511055e-03</internalNodes>
      <leafValues>
        -3.7144858390092850e-02 2.8943541646003723e-01</leafValues></_>
    <_>
      <internalNodes>
        0 -1 97615 -6.1658071354031563e-03</internalNodes>
      <leafValues>
        -3.4039652347564697e-01 3.5295858979225159e-02</leafValues></_>
    <_>
      <internalNodes>
        0 -1 62902 2.2170358896255493e-01</internalNodes>
      <leafValues>
        -2.0307717844843864e-02 5.9767633676528931e-01</leafValues></_>
    <_>
      <internalNodes>
        0 -1 96241 -1.0335836559534073e-02</internalNodes>
      <leafValues>
        -1.9901521503925323e-01 5.7306617498397827e-02</leafValues></_>
    <_>
      <internalNodes>
        0 -1 44170 -1.6463096835650504e-04</internalNodes>
      <leafValues>
        9.8694153130054474e-02 -1.2851443886756897e-01</leafValues></_>
    <_>
      <internalNodes>
        0 -1 180735 2.3290812969207764e-02</internalNodes>
      <leafValues>
        -6.6643908619880676e-02 1.7409536242485046e-01</leafValues></_>
    <_>
      <internalNodes>
        0 -1 49291 -2.2808188572525978e-02</internalNodes>
      <leafValues>
        2.5282043218612671e-01 -4.6828977763652802e-02</leafValues></_>
    <_>
      <internalNodes>
        0 -1 251201 1.0749928653240204e-02</internalNodes>
      <leafValues>
        2.9408095404505730e-02 -3.8132965564727783e-01</leafValues></_>
    <_>
      <internalNodes>
        0 -1 25679 -3.5517294891178608e-03</internalNodes>
      <leafValues>
        3.2828003168106079e-01 -3.4306395798921585e-02</leafValues></_>
    <_>
      <internalNodes>
        0 -1 8530 4.7479920089244843e-02</internalNodes>
      <leafValues>
        2.5673601776361465e-02 -4.4610938429832458e-01</leafValues></_>
    <_>
      <internalNodes>
        0 -1 74096 5.2692010998725891e-02</internalNodes>
      <leafValues>
        -3.9091609418392181e-02 2.8342336416244507e-01</leafValues></_>
    <_>
      <internalNodes>
        0 -1 250203 4.3139429762959480e-03</internalNodes>
      <leafValues>
        -6.7521646618843079e-02 1.6860114037990570e-01</leafValues></_>
    <_>
      <internalNodes>
        0 -1 253835 3.8348410744220018e-03</internalNodes>
      <leafValues>
        4.8833485692739487e-02 -2.3674051463603973e-01</leafValues></_>
    <_>
      <internalNodes>
        0 -1 253416 3.2942555844783783e-03</internalNodes>
      <leafValues>
        5.7405766099691391e-02 -1.9444912672042847e-01</leafValues></_>
    <_>
      <internalNodes>
        0 -1 259990 -1.9358621910214424e-02</internalNodes>
      <leafValues>
        3.7593653798103333e-01 -3.3534497022628784e-02</leafValues></_>
    <_>
      <internalNodes>
        0 -1 249294 -2.7582954615354538e-02</internalNodes>
      <leafValues>
        -3.2803621888160706e-01 3.4985616803169250e-02</leafValues></_>
    <_>
      <internalNodes>
        0 -1 249700 4.0965608786791563e-04</internalNodes>
      <leafValues>
        -1.0893151909112930e-01 9.7259499132633209e-02</leafValues></_>
    <_>
      <internalNodes>
        0 -1 190945 -8.9710518717765808e-02</internalNodes>
      <leafValues>
        -6.7945796251296997e-01 1.5144734643399715e-02</leafValues></_>
    <_>
      <internalNodes>
        0 -1 87259 -5.9274025261402130e-02</internalNodes>
      <leafValues>
        -3.0038976669311523e-01 3.2431680709123611e-02</leafValues></_>
    <_>
      <internalNodes>
        0 -1 11723 1.6382988542318344e-02</internalNodes>
      <leafValues>
        -5.8495718985795975e-02 1.7815487086772919e-01</leafValues></_>
    <_>
      <internalNodes>
        0 -1 63478 -1.4967162860557437e-04</internalNodes>
      <leafValues>
        9.2552497982978821e-02 -1.1544027179479599e-01</leafValues></_>
    <_>
      <internalNodes>
        0 -1 24783 1.0509136132895947e-02</internalNodes>
      <leafValues>
        4.7292217612266541e-02 -2.0819230377674103e-01</leafValues></_>
    <_>
      <internalNodes>
        0 -1 232219 -1.0650983080267906e-02</internalNodes>
      <leafValues>
        -4.5414787530899048e-01 2.1884441375732422e-02</leafValues></_>
    <_>
      <internalNodes>
        0 -1 4106 5.1014323253184557e-04</internalNodes>
      <leafValues>
        5.3737197071313858e-02 -1.7802250385284424e-01</leafValues></_>
    <_>
      <internalNodes>
        0 -1 50448 -7.2013195604085922e-03</internalNodes>
      <leafValues>
        2.4257342517375946e-01 -4.6010918915271759e-02</leafValues></_>
    <_>
      <internalNodes>
        0 -1 18873 4.6832393854856491e-04</internalNodes>
      <leafValues>
        5.1803618669509888e-02 -1.9001519680023193e-01</leafValues></_>
    <_>
      <internalNodes>
        0 -1 81174 1.1497072409838438e-03</internalNodes>
      <leafValues>
        -9.0078838169574738e-02 1.1642105132341385e-01</leafValues></_>
    <_>
      <internalNodes>
        0 -1 244966 2.5983704254031181e-03</internalNodes>
      <leafValues>
        -4.5481447130441666e-02 2.3017236590385437e-01</leafValues></_>
    <_>
      <internalNodes>
        0 -1 236207 1.0469784028828144e-02</internalNodes>
      <leafValues>
        -7.2559945285320282e-02 1.4148652553558350e-01</leafValues></_>
    <_>
      <internalNodes>
        0 -1 235653 4.6626210212707520e-02</internalNodes>
      <leafValues>
        3.6423373967409134e-02 -3.2839265465736389e-01</leafValues></_>
    <_>
      <internalNodes>
        0 -1 211158 1.0361928492784500e-02</internalNodes>
      <leafValues>
        -5.2603080868721008e-02 2.1690386533737183e-01</leafValues></_>
    <_>
      <internalNodes>
        0 -1 207926 8.5023464635014534e-03</internalNodes>
      <leafValues>
        -4.5505981892347336e-02 2.3658837378025055e-01</leafValues></_>
    <_>
      <internalNodes>
        0 -1 112894 1.7790314450394362e-04</internalNodes>
      <leafValues>
        9.1875292360782623e-02 -1.1397563666105270e-01</leafValues></_>
    <_>
      <internalNodes>
        0 -1 130710 -4.0897563099861145e-02</internalNodes>
      <leafValues>
        1.9652186334133148e-01 -5.7326413691043854e-02</leafValues></_>
    <_>
      <internalNodes>
        0 -1 258920 2.4440973065793514e-03</internalNodes>
      <leafValues>
        -3.2409455627202988e-02 3.2016384601593018e-01</leafValues></_>
    <_>
      <internalNodes>
        0 -1 212151 -7.7958449721336365e-02</internalNodes>
      <leafValues>
        3.0899587273597717e-01 -3.3421408385038376e-02</leafValues></_>
    <_>
      <internalNodes>
        0 -1 255266 3.5770782269537449e-03</internalNodes>
      <leafValues>
        4.2339216917753220e-02 -2.6760631799697876e-01</leafValues></_>
    <_>
      <internalNodes>
        0 -1 260677 2.5600590743124485e-03</internalNodes>
      <leafValues>
        4.2750138789415359e-02 -2.8389942646026611e-01</leafValues></_>
    <_>
      <internalNodes>
        0 -1 259696 5.9224916622042656e-03</internalNodes>
      <leafValues>
        -6.5677508711814880e-02 1.8513888120651245e-01</leafValues></_>
    <_>
      <internalNodes>
        0 -1 259950 -3.4597204066812992e-03</internalNodes>
      <leafValues>
        1.6767309606075287e-01 -7.9836226999759674e-02</leafValues></_>
    <_>
      <internalNodes>
        0 -1 31034 1.1530994670465589e-03</internalNodes>
      <leafValues>
        -9.3209780752658844e-02 1.1844069510698318e-01</leafValues></_>
    <_>
      <internalNodes>
        0 -1 255523 2.7414844225859269e-05</internalNodes>
      <leafValues>
        -1.0840597748756409e-01 9.2909388244152069e-02</leafValues></_>
    <_>
      <internalNodes>
        0 -1 260018 4.5697046443820000e-03</internalNodes>
      <leafValues>
        -1.6865318641066551e-02 6.1391240358352661e-01</leafValues></_>
    <_>
      <internalNodes>
        0 -1 27508 -1.5390334883704782e-03</internalNodes>
      <leafValues>
        -2.1245889365673065e-01 4.8161957412958145e-02</leafValues></_>
    <_>
      <internalNodes>
        0 -1 9727 9.1174244880676270e-04</internalNodes>
      <leafValues>
        -1.1096726357936859e-01 1.2252419441938400e-01</leafValues></_></weakClassifiers></stage9>
</opencv_storage>
