<?xml version="1.0"?>
<opencv_storage>
<stage4>
  <maxWeakCount>76</maxWeakCount>
  <stageThreshold>-1.3524513244628906e+00</stageThreshold>
  <weakClassifiers>
    <_>
      <internalNodes>
        0 -1 525 -4.5292481780052185e-02</internalNodes>
      <leafValues>
        3.2319390773773193e-01 -3.1684952974319458e-01</leafValues></_>
    <_>
      <internalNodes>
        0 -1 224532 3.9332091808319092e-02</internalNodes>
      <leafValues>
        -1.6873818635940552e-01 3.2849738001823425e-01</leafValues></_>
    <_>
      <internalNodes>
        0 -1 259728 -6.9923633709549904e-03</internalNodes>
      <leafValues>
        2.6419132947921753e-01 -1.2154153734445572e-01</leafValues></_>
    <_>
      <internalNodes>
        0 -1 260536 -5.3367303917184472e-04</internalNodes>
      <leafValues>
        -2.5926524400711060e-01 8.2251742482185364e-02</leafValues></_>
    <_>
      <internalNodes>
        0 -1 28394 1.9193524494767189e-03</internalNodes>
      <leafValues>
        9.9784225225448608e-02 -2.8506946563720703e-01</leafValues></_>
    <_>
      <internalNodes>
        0 -1 15778 2.9035359621047974e-02</internalNodes>
      <leafValues>
        -6.2954209744930267e-02 3.6719989776611328e-01</leafValues></_>
    <_>
      <internalNodes>
        0 -1 1407 3.6997567862272263e-02</internalNodes>
      <leafValues>
        -8.3616226911544800e-02 2.8336915373802185e-01</leafValues></_>
    <_>
      <internalNodes>
        0 -1 76865 2.2522330284118652e-02</internalNodes>
      <leafValues>
        -5.1156871020793915e-02 3.8773155212402344e-01</leafValues></_>
    <_>
      <internalNodes>
        0 -1 116798 -2.6936341077089310e-02</internalNodes>
      <leafValues>
        3.3795365691184998e-01 -5.0834137946367264e-02</leafValues></_>
    <_>
      <internalNodes>
        0 -1 7691 5.5030295625329018e-03</internalNodes>
      <leafValues>
        -7.5841203331947327e-02 3.4283602237701416e-01</leafValues></_>
    <_>
      <internalNodes>
        0 -1 186371 -3.0197126325219870e-03</internalNodes>
      <leafValues>
        3.2231017947196960e-01 -7.5325027108192444e-02</leafValues></_>
    <_>
      <internalNodes>
        0 -1 64522 1.0724212974309921e-02</internalNodes>
      <leafValues>
        5.0946079194545746e-02 -3.7861186265945435e-01</leafValues></_>
    <_>
      <internalNodes>
        0 -1 75112 -2.2309465333819389e-02</internalNodes>
      <leafValues>
        2.2532272338867188e-01 -9.4195604324340820e-02</leafValues></_>
    <_>
      <internalNodes>
        0 -1 126605 -4.8198990523815155e-02</internalNodes>
      <leafValues>
        3.8283014297485352e-01 -7.7506341040134430e-02</leafValues></_>
    <_>
      <internalNodes>
        0 -1 252589 -2.4506395682692528e-02</internalNodes>
      <leafValues>
        3.0590263009071350e-01 -6.7201890051364899e-02</leafValues></_>
    <_>
      <internalNodes>
        0 -1 181269 -1.5864644199609756e-02</internalNodes>
      <leafValues>
        -3.3845722675323486e-01 6.6123276948928833e-02</leafValues></_>
    <_>
      <internalNodes>
        0 -1 168938 -1.3999789021909237e-02</internalNodes>
      <leafValues>
        -4.4628936052322388e-01 4.6616423875093460e-02</leafValues></_>
    <_>
      <internalNodes>
        0 -1 166495 -8.1041101366281509e-03</internalNodes>
      <leafValues>
        3.1561169028282166e-01 -6.9114625453948975e-02</leafValues></_>
    <_>
      <internalNodes>
        0 -1 165360 9.9024064838886261e-03</internalNodes>
      <leafValues>
        -1.0280667990446091e-01 2.1597811579704285e-01</leafValues></_>
    <_>
      <internalNodes>
        0 -1 176554 -8.6412057280540466e-03</internalNodes>
      <leafValues>
        2.3793002963066101e-01 -8.4422588348388672e-02</leafValues></_>
    <_>
      <internalNodes>
        0 -1 169082 9.8801869899034500e-03</internalNodes>
      <leafValues>
        5.3189221769571304e-02 -4.1589173674583435e-01</leafValues></_>
    <_>
      <internalNodes>
        0 -1 254197 2.6650227606296539e-02</internalNodes>
      <leafValues>
        2.7898265048861504e-02 -6.1576467752456665e-01</leafValues></_>
    <_>
      <internalNodes>
        0 -1 10450 -5.5982973426580429e-02</internalNodes>
      <leafValues>
        -3.5432621836662292e-01 5.3896538913249969e-02</leafValues></_>
    <_>
      <internalNodes>
        0 -1 82871 4.9305800348520279e-04</internalNodes>
      <leafValues>
        7.7226251363754272e-02 -2.5537943840026855e-01</leafValues></_>
    <_>
      <internalNodes>
        0 -1 82873 -4.3999915942549706e-04</internalNodes>
      <leafValues>
        -2.3217783868312836e-01 9.6176266670227051e-02</leafValues></_>
    <_>
      <internalNodes>
        0 -1 186371 2.4232023861259222e-03</internalNodes>
      <leafValues>
        -7.8607663512229919e-02 2.8748294711112976e-01</leafValues></_>
    <_>
      <internalNodes>
        0 -1 142293 -1.6294673085212708e-02</internalNodes>
      <leafValues>
        2.6687902212142944e-01 -7.3626145720481873e-02</leafValues></_>
    <_>
      <internalNodes>
        0 -1 241800 -2.6175625622272491e-02</internalNodes>
      <leafValues>
        2.4056778848171234e-01 -8.4780544042587280e-02</leafValues></_>
    <_>
      <internalNodes>
        0 -1 259452 -1.1115765199065208e-02</internalNodes>
      <leafValues>
        5.3639787435531616e-01 -4.2685508728027344e-02</leafValues></_>
    <_>
      <internalNodes>
        0 -1 261470 -1.5961138997226954e-03</internalNodes>
      <leafValues>
        -3.0844363570213318e-01 6.7659065127372742e-02</leafValues></_>
    <_>
      <internalNodes>
        0 -1 154749 -8.0334246158599854e-03</internalNodes>
      <leafValues>
        3.2321754097938538e-01 -7.0570781826972961e-02</leafValues></_>
    <_>
      <internalNodes>
        0 -1 257925 -2.9275587294250727e-03</internalNodes>
      <leafValues>
        3.8202613592147827e-01 -5.3535226732492447e-02</leafValues></_>
    <_>
      <internalNodes>
        0 -1 713 -8.7353168055415154e-03</internalNodes>
      <leafValues>
        3.3021616935729980e-01 -5.3845211863517761e-02</leafValues></_>
    <_>
      <internalNodes>
        0 -1 247578 3.2884526997804642e-02</internalNodes>
      <leafValues>
        -4.6241283416748047e-02 3.8362422585487366e-01</leafValues></_>
    <_>
      <internalNodes>
        0 -1 10866 -1.8488651141524315e-02</internalNodes>
      <leafValues>
        2.6432603597640991e-01 -6.9082468748092651e-02</leafValues></_>
    <_>
      <internalNodes>
        0 -1 97508 2.5090718641877174e-02</internalNodes>
      <leafValues>
        -6.8827331066131592e-02 2.6967546343803406e-01</leafValues></_>
    <_>
      <internalNodes>
        0 -1 260026 -6.4730066806077957e-03</internalNodes>
      <leafValues>
        4.6707412600517273e-01 -3.7596557289361954e-02</leafValues></_>
    <_>
      <internalNodes>
        0 -1 143967 9.8413955420255661e-03</internalNodes>
      <leafValues>
        4.1525274515151978e-02 -4.3028607964515686e-01</leafValues></_>
    <_>
      <internalNodes>
        0 -1 255784 1.6297165304422379e-02</internalNodes>
      <leafValues>
        6.1133164912462234e-02 -2.9466304183006287e-01</leafValues></_>
    <_>
      <internalNodes>
        0 -1 251569 -3.6122521851211786e-04</internalNodes>
      <leafValues>
        -1.8927253782749176e-01 9.3604721128940582e-02</leafValues></_>
    <_>
      <internalNodes>
        0 -1 113106 1.1204525362700224e-03</internalNodes>
      <leafValues>
        -1.1712346971035004e-01 1.4553289115428925e-01</leafValues></_>
    <_>
      <internalNodes>
        0 -1 245238 -3.3669467084109783e-03</internalNodes>
      <leafValues>
        3.9441835880279541e-01 -4.5597139745950699e-02</leafValues></_>
    <_>
      <internalNodes>
        0 -1 259192 -3.6699371412396431e-04</internalNodes>
      <leafValues>
        -2.1307289600372314e-01 8.4173865616321564e-02</leafValues></_>
    <_>
      <internalNodes>
        0 -1 213880 -1.4574142172932625e-02</internalNodes>
      <leafValues>
        2.6129618287086487e-01 -6.7243024706840515e-02</leafValues></_>
    <_>
      <internalNodes>
        0 -1 120638 -5.4020151495933533e-02</internalNodes>
      <leafValues>
        -2.9940548539161682e-01 5.6061327457427979e-02</leafValues></_>
    <_>
      <internalNodes>
        0 -1 157526 3.4376088296994567e-04</internalNodes>
      <leafValues>
        9.2198714613914490e-02 -1.8292002379894257e-01</leafValues></_>
    <_>
      <internalNodes>
        0 -1 131618 2.8234138153493404e-03</internalNodes>
      <leafValues>
        -5.5447861552238464e-02 3.0884370207786560e-01</leafValues></_>
    <_>
      <internalNodes>
        0 -1 143981 -9.1967862099409103e-03</internalNodes>
      <leafValues>
        -3.5759091377258301e-01 5.2278593182563782e-02</leafValues></_>
    <_>
      <internalNodes>
        0 -1 258220 -8.5428319871425629e-03</internalNodes>
      <leafValues>
        -3.4123978018760681e-01 5.0011873245239258e-02</leafValues></_>
    <_>
      <internalNodes>
        0 -1 244679 -2.4948907084763050e-03</internalNodes>
      <leafValues>
        3.8709452748298645e-01 -4.6064056456089020e-02</leafValues></_>
    <_>
      <internalNodes>
        0 -1 29967 7.7717518433928490e-03</internalNodes>
      <leafValues>
        3.6903705447912216e-02 -4.7774896025657654e-01</leafValues></_>
    <_>
      <internalNodes>
        0 -1 29786 8.9813058730214834e-04</internalNodes>
      <leafValues>
        -1.2980110943317413e-01 1.5206679701805115e-01</leafValues></_>
    <_>
      <internalNodes>
        0 -1 23675 5.7060755789279938e-02</internalNodes>
      <leafValues>
        3.6676894873380661e-02 -4.5748481154441833e-01</leafValues></_>
    <_>
      <internalNodes>
        0 -1 11586 -9.7564011812210083e-03</internalNodes>
      <leafValues>
        3.2174345850944519e-01 -5.8311890810728073e-02</leafValues></_>
    <_>
      <internalNodes>
        0 -1 244680 4.3348064646124840e-03</internalNodes>
      <leafValues>
        -8.6337529122829437e-02 1.9993552565574646e-01</leafValues></_>
    <_>
      <internalNodes>
        0 -1 155784 1.7200838774442673e-02</internalNodes>
      <leafValues>
        -8.3320125937461853e-02 1.9693338871002197e-01</leafValues></_>
    <_>
      <internalNodes>
        0 -1 199931 2.3697316646575928e-03</internalNodes>
      <leafValues>
        -5.8397907763719559e-02 3.0001157522201538e-01</leafValues></_>
    <_>
      <internalNodes>
        0 -1 204713 4.0809353231452405e-04</internalNodes>
      <leafValues>
        9.8829232156276703e-02 -1.6899792850017548e-01</leafValues></_>
    <_>
      <internalNodes>
        0 -1 67356 6.3080564141273499e-03</internalNodes>
      <leafValues>
        -7.0278406143188477e-02 2.7803918719291687e-01</leafValues></_>
    <_>
      <internalNodes>
        0 -1 232575 -4.9461959861218929e-04</internalNodes>
      <leafValues>
        -2.3443885147571564e-01 7.6231680810451508e-02</leafValues></_>
    <_>
      <internalNodes>
        0 -1 260269 3.2984004355967045e-03</internalNodes>
      <leafValues>
        -7.5913809239864349e-02 2.3077908158302307e-01</leafValues></_>
    <_>
      <internalNodes>
        0 -1 259349 -8.9788564946502447e-04</internalNodes>
      <leafValues>
        -2.7418956160545349e-01 6.2079973518848419e-02</leafValues></_>
    <_>
      <internalNodes>
        0 -1 147947 -7.8524053096771240e-03</internalNodes>
      <leafValues>
        2.3107357323169708e-01 -7.3658488690853119e-02</leafValues></_>
    <_>
      <internalNodes>
        0 -1 259300 -5.1332626026123762e-04</internalNodes>
      <leafValues>
        -1.7641034722328186e-01 9.4039924442768097e-02</leafValues></_>
    <_>
      <internalNodes>
        0 -1 150491 2.8287877794355154e-03</internalNodes>
      <leafValues>
        -5.9251647442579269e-02 2.6228779554367065e-01</leafValues></_>
    <_>
      <internalNodes>
        0 -1 117507 6.8818563595414162e-03</internalNodes>
      <leafValues>
        -4.5604497194290161e-02 3.6052125692367554e-01</leafValues></_>
    <_>
      <internalNodes>
        0 -1 132337 -6.0484241694211960e-02</internalNodes>
      <leafValues>
        3.7851223349571228e-01 -4.0767110884189606e-02</leafValues></_>
    <_>
      <internalNodes>
        0 -1 79114 2.6931561529636383e-02</internalNodes>
      <leafValues>
        -5.5204235017299652e-02 3.3065360784530640e-01</leafValues></_>
    <_>
      <internalNodes>
        0 -1 85516 -3.5011149942874908e-02</internalNodes>
      <leafValues>
        4.3552348017692566e-01 -4.1678082197904587e-02</leafValues></_>
    <_>
      <internalNodes>
        0 -1 84558 3.0924133956432343e-02</internalNodes>
      <leafValues>
        3.0835814774036407e-02 -6.4515554904937744e-01</leafValues></_>
    <_>
      <internalNodes>
        0 -1 208858 -2.1770978346467018e-02</internalNodes>
      <leafValues>
        2.1086104214191437e-01 -8.0715112388134003e-02</leafValues></_>
    <_>
      <internalNodes>
        0 -1 222244 -2.1677907556295395e-02</internalNodes>
      <leafValues>
        2.0162451267242432e-01 -1.0335563123226166e-01</leafValues></_>
    <_>
      <internalNodes>
        0 -1 98004 -7.3957946151494980e-03</internalNodes>
      <leafValues>
        -3.0325016379356384e-01 5.4930616170167923e-02</leafValues></_>
    <_>
      <internalNodes>
        0 -1 8721 -1.0325863957405090e-01</internalNodes>
      <leafValues>
        -6.3957571983337402e-01 2.3803219199180603e-02</leafValues></_>
    <_>
      <internalNodes>
        0 -1 43104 1.6929648118093610e-03</internalNodes>
      <leafValues>
        6.8292953073978424e-02 -2.2704799473285675e-01</leafValues></_>
    <_>
      <internalNodes>
        0 -1 27583 -4.5641837641596794e-03</internalNodes>
      <leafValues>
        -3.7792992591857910e-01 4.9684032797813416e-02</leafValues></_></weakClassifiers></stage4>
</opencv_storage>
