<?xml version="1.0"?>
<opencv_storage>
<stage10>
  <maxWeakCount>100</maxWeakCount>
  <stageThreshold>-1.3065859079360962e+00</stageThreshold>
  <weakClassifiers>
    <_>
      <internalNodes>
        0 -1 11933 -9.5370024442672729e-02</internalNodes>
      <leafValues>
        1.5495550632476807e-01 -2.6214945316314697e-01</leafValues></_>
    <_>
      <internalNodes>
        0 -1 259240 1.6372298821806908e-02</internalNodes>
      <leafValues>
        -1.1370218545198441e-01 1.8396124243736267e-01</leafValues></_>
    <_>
      <internalNodes>
        0 -1 241800 -3.0345641076564789e-02</internalNodes>
      <leafValues>
        2.1308736503124237e-01 -8.0834485590457916e-02</leafValues></_>
    <_>
      <internalNodes>
        0 -1 2996 1.6553089022636414e-02</internalNodes>
      <leafValues>
        -1.2088874727487564e-01 1.3684427738189697e-01</leafValues></_>
    <_>
      <internalNodes>
        0 -1 189166 -9.8550105467438698e-03</internalNodes>
      <leafValues>
        2.3693975806236267e-01 -4.4260408729314804e-02</leafValues></_>
    <_>
      <internalNodes>
        0 -1 166811 1.1642359197139740e-01</internalNodes>
      <leafValues>
        2.3160165175795555e-02 -3.9273959398269653e-01</leafValues></_>
    <_>
      <internalNodes>
        0 -1 245627 -3.0904363840818405e-02</internalNodes>
      <leafValues>
        2.3845659196376801e-01 -4.5859627425670624e-02</leafValues></_>
    <_>
      <internalNodes>
        0 -1 188363 2.5733571499586105e-02</internalNodes>
      <leafValues>
        -5.4513376206159592e-02 1.9683317840099335e-01</leafValues></_>
    <_>
      <internalNodes>
        0 -1 177326 -3.5734320990741253e-03</internalNodes>
      <leafValues>
        1.9152586162090302e-01 -5.5263191461563110e-02</leafValues></_>
    <_>
      <internalNodes>
        0 -1 138670 -4.4914041063748300e-04</internalNodes>
      <leafValues>
        -2.1426387131214142e-01 4.9972474575042725e-02</leafValues></_>
    <_>
      <internalNodes>
        0 -1 261499 4.1865245439112186e-03</internalNodes>
      <leafValues>
        6.1291553080081940e-02 -2.0856776833534241e-01</leafValues></_>
    <_>
      <internalNodes>
        0 -1 138672 -2.0741843618452549e-03</internalNodes>
      <leafValues>
        2.3596310615539551e-01 -3.6538291722536087e-02</leafValues></_>
    <_>
      <internalNodes>
        0 -1 131618 -3.4142341464757919e-03</internalNodes>
      <leafValues>
        2.7562996745109558e-01 -5.5534947663545609e-02</leafValues></_>
    <_>
      <internalNodes>
        0 -1 128756 7.4521690607070923e-02</internalNodes>
      <leafValues>
        -2.0959381014108658e-02 4.5705389976501465e-01</leafValues></_>
    <_>
      <internalNodes>
        0 -1 184295 -1.7753122374415398e-02</internalNodes>
      <leafValues>
        1.9318881630897522e-01 -5.9909787029027939e-02</leafValues></_>
    <_>
      <internalNodes>
        0 -1 226410 -6.4670052379369736e-03</internalNodes>
      <leafValues>
        1.3590268790721893e-01 -8.6422368884086609e-02</leafValues></_>
    <_>
      <internalNodes>
        0 -1 39233 6.9811969995498657e-02</internalNodes>
      <leafValues>
        -5.4071467369794846e-02 2.8706681728363037e-01</leafValues></_>
    <_>
      <internalNodes>
        0 -1 57987 1.3291761279106140e-02</internalNodes>
      <leafValues>
        -1.0182366520166397e-01 1.1164627969264984e-01</leafValues></_>
    <_>
      <internalNodes>
        0 -1 260017 -5.1014497876167297e-03</internalNodes>
      <leafValues>
        4.3533769249916077e-01 -2.2723279893398285e-02</leafValues></_>
    <_>
      <internalNodes>
        0 -1 213666 3.7506345659494400e-02</internalNodes>
      <leafValues>
        -3.4338477998971939e-02 3.5902431607246399e-01</leafValues></_>
    <_>
      <internalNodes>
        0 -1 261161 -2.7009356766939163e-02</internalNodes>
      <leafValues>
        2.5231462717056274e-01 -4.0419451892375946e-02</leafValues></_>
    <_>
      <internalNodes>
        0 -1 155772 1.4531373977661133e-02</internalNodes>
      <leafValues>
        -7.9669937491416931e-02 1.4669595658779144e-01</leafValues></_>
    <_>
      <internalNodes>
        0 -1 258404 -6.3689425587654114e-04</internalNodes>
      <leafValues>
        -1.7751812934875488e-01 5.7206105440855026e-02</leafValues></_>
    <_>
      <internalNodes>
        0 -1 258523 -2.0761913037858903e-04</internalNodes>
      <leafValues>
        1.3731437921524048e-01 -8.9892715215682983e-02</leafValues></_>
    <_>
      <internalNodes>
        0 -1 258243 2.9082828405080363e-05</internalNodes>
      <leafValues>
        -1.2251738458871841e-01 1.0251252353191376e-01</leafValues></_>
    <_>
      <internalNodes>
        0 -1 247218 -4.1357170790433884e-02</internalNodes>
      <leafValues>
        4.2760431766510010e-01 -1.6665726900100708e-02</leafValues></_>
    <_>
      <internalNodes>
        0 -1 257562 -4.5166229829192162e-03</internalNodes>
      <leafValues>
        5.3188103437423706e-01 -2.2306146100163460e-02</leafValues></_>
    <_>
      <internalNodes>
        0 -1 247872 -4.2414688505232334e-03</internalNodes>
      <leafValues>
        -1.9813086092472076e-01 6.0165714472532272e-02</leafValues></_>
    <_>
      <internalNodes>
        0 -1 212182 -7.5813040137290955e-02</internalNodes>
      <leafValues>
        -4.9904835224151611e-01 2.1032378077507019e-02</leafValues></_>
    <_>
      <internalNodes>
        0 -1 142371 9.8047293722629547e-03</internalNodes>
      <leafValues>
        3.3025842159986496e-02 -3.1114259362220764e-01</leafValues></_>
    <_>
      <internalNodes>
        0 -1 184353 -9.5001012086868286e-02</internalNodes>
      <leafValues>
        -3.3725330233573914e-01 3.2080419361591339e-02</leafValues></_>
    <_>
      <internalNodes>
        0 -1 195033 2.0225448533892632e-03</internalNodes>
      <leafValues>
        4.9798086285591125e-02 -2.1430715918540955e-01</leafValues></_>
    <_>
      <internalNodes>
        0 -1 229889 1.6139900311827660e-02</internalNodes>
      <leafValues>
        1.8322836607694626e-02 -6.0947704315185547e-01</leafValues></_>
    <_>
      <internalNodes>
        0 -1 258091 2.8294443836784922e-05</internalNodes>
      <leafValues>
        -1.0888776183128357e-01 9.9857188761234283e-02</leafValues></_>
    <_>
      <internalNodes>
        0 -1 171893 -8.5889361798763275e-03</internalNodes>
      <leafValues>
        1.9909186661243439e-01 -5.6714471429586411e-02</leafValues></_>
    <_>
      <internalNodes>
        0 -1 1378 1.3879477977752686e-02</internalNodes>
      <leafValues>
        -5.7589203119277954e-02 1.9703403115272522e-01</leafValues></_>
    <_>
      <internalNodes>
        0 -1 181603 4.9321004189550877e-04</internalNodes>
      <leafValues>
        6.7316681146621704e-02 -1.6504162549972534e-01</leafValues></_>
    <_>
      <internalNodes>
        0 -1 181603 3.4965411759912968e-03</internalNodes>
      <leafValues>
        -3.2190412282943726e-02 3.5953176021575928e-01</leafValues></_>
    <_>
      <internalNodes>
        0 -1 153447 3.2251365482807159e-02</internalNodes>
      <leafValues>
        -3.8045078516006470e-02 2.6713016629219055e-01</leafValues></_>
    <_>
      <internalNodes>
        0 -1 181382 1.0581929236650467e-02</internalNodes>
      <leafValues>
        3.0056606978178024e-02 -3.5847267508506775e-01</leafValues></_>
    <_>
      <internalNodes>
        0 -1 15052 2.0427957642823458e-03</internalNodes>
      <leafValues>
        -3.7080265581607819e-02 3.0248925089836121e-01</leafValues></_>
    <_>
      <internalNodes>
        0 -1 61374 -2.0058739930391312e-02</internalNodes>
      <leafValues>
        2.4255746603012085e-01 -4.2511589825153351e-02</leafValues></_>
    <_>
      <internalNodes>
        0 -1 242808 3.0043665319681168e-03</internalNodes>
      <leafValues>
        -7.6935037970542908e-02 1.3092742860317230e-01</leafValues></_>
    <_>
      <internalNodes>
        0 -1 249250 -1.4012516476213932e-03</internalNodes>
      <leafValues>
        1.7825663089752197e-01 -5.7384073734283447e-02</leafValues></_>
    <_>
      <internalNodes>
        0 -1 252675 -2.6022665202617645e-02</internalNodes>
      <leafValues>
        -2.6450282335281372e-01 3.9930760860443115e-02</leafValues></_>
    <_>
      <internalNodes>
        0 -1 85015 -2.2630715742707253e-02</internalNodes>
      <leafValues>
        1.2940950691699982e-01 -7.6079852879047394e-02</leafValues></_>
    <_>
      <internalNodes>
        0 -1 172892 4.2000554502010345e-02</internalNodes>
      <leafValues>
        -3.0812133103609085e-02 3.6699286103248596e-01</leafValues></_>
    <_>
      <internalNodes>
        0 -1 141513 1.1605054140090942e-02</internalNodes>
      <leafValues>
        -5.7131249457597733e-02 1.7196203768253326e-01</leafValues></_>
    <_>
      <internalNodes>
        0 -1 140698 -1.4867341145873070e-02</internalNodes>
      <leafValues>
        1.8559454381465912e-01 -6.1834681779146194e-02</leafValues></_>
    <_>
      <internalNodes>
        0 -1 168408 -2.3628113791346550e-02</internalNodes>
      <leafValues>
        1.9274766743183136e-01 -5.7047162204980850e-02</leafValues></_>
    <_>
      <internalNodes>
        0 -1 95659 2.8279866091907024e-03</internalNodes>
      <leafValues>
        5.4754104465246201e-02 -1.8175366520881653e-01</leafValues></_>
    <_>
      <internalNodes>
        0 -1 150536 -3.1957440078258514e-03</internalNodes>
      <leafValues>
        1.3659648597240448e-01 -7.1452163159847260e-02</leafValues></_>
    <_>
      <internalNodes>
        0 -1 164557 -1.3884453801438212e-03</internalNodes>
      <leafValues>
        1.4045566320419312e-01 -8.1713221967220306e-02</leafValues></_>
    <_>
      <internalNodes>
        0 -1 202051 -1.0204801801592112e-03</internalNodes>
      <leafValues>
        -2.2235231101512909e-01 4.7511421144008636e-02</leafValues></_>
    <_>
      <internalNodes>
        0 -1 113646 5.5492199026048183e-03</internalNodes>
      <leafValues>
        -6.2148220837116241e-02 1.6063301265239716e-01</leafValues></_>
    <_>
      <internalNodes>
        0 -1 72107 -3.3532191067934036e-02</internalNodes>
      <leafValues>
        1.9905854761600494e-01 -4.9305323511362076e-02</leafValues></_>
    <_>
      <internalNodes>
        0 -1 47572 -9.9169905297458172e-04</internalNodes>
      <leafValues>
        -1.7368786036968231e-01 6.0740306973457336e-02</leafValues></_>
    <_>
      <internalNodes>
        0 -1 15570 -3.2379652839154005e-03</internalNodes>
      <leafValues>
        3.0749404430389404e-01 -3.5804688930511475e-02</leafValues></_>
    <_>
      <internalNodes>
        0 -1 99658 -2.3870725184679031e-02</internalNodes>
      <leafValues>
        2.5192815065383911e-01 -4.1822440922260284e-02</leafValues></_>
    <_>
      <internalNodes>
        0 -1 66620 1.4167988672852516e-02</internalNodes>
      <leafValues>
        -2.1200655028223991e-02 4.9459534883499146e-01</leafValues></_>
    <_>
      <internalNodes>
        0 -1 39079 3.1561302021145821e-03</internalNodes>
      <leafValues>
        7.0448286831378937e-02 -1.4460292458534241e-01</leafValues></_>
    <_>
      <internalNodes>
        0 -1 260856 -7.7494308352470398e-03</internalNodes>
      <leafValues>
        4.3969839811325073e-01 -2.3802034556865692e-02</leafValues></_>
    <_>
      <internalNodes>
        0 -1 260381 6.5024951472878456e-03</internalNodes>
      <leafValues>
        -4.3041262775659561e-02 2.3264946043491364e-01</leafValues></_>
    <_>
      <internalNodes>
        0 -1 258135 -2.8990753926336765e-03</internalNodes>
      <leafValues>
        -1.4808963239192963e-01 7.9211823642253876e-02</leafValues></_>
    <_>
      <internalNodes>
        0 -1 261417 2.3494951892644167e-03</internalNodes>
      <leafValues>
        4.4868107885122299e-02 -2.5615984201431274e-01</leafValues></_>
    <_>
      <internalNodes>
        0 -1 251104 2.8120538219809532e-02</internalNodes>
      <leafValues>
        2.6570389047265053e-02 -3.6046952009201050e-01</leafValues></_>
    <_>
      <internalNodes>
        0 -1 261052 6.2014758586883545e-03</internalNodes>
      <leafValues>
        -8.1493504345417023e-02 1.2598997354507446e-01</leafValues></_>
    <_>
      <internalNodes>
        0 -1 256465 -8.5955718532204628e-04</internalNodes>
      <leafValues>
        -2.3558178544044495e-01 4.8920184373855591e-02</leafValues></_>
    <_>
      <internalNodes>
        0 -1 182518 1.9699302315711975e-01</internalNodes>
      <leafValues>
        1.8938360735774040e-02 -4.9115079641342163e-01</leafValues></_>
    <_>
      <internalNodes>
        0 -1 94096 -5.4318852722644806e-02</internalNodes>
      <leafValues>
        -3.4425675868988037e-01 2.6285374537110329e-02</leafValues></_>
    <_>
      <internalNodes>
        0 -1 12445 1.4395501464605331e-02</internalNodes>
      <leafValues>
        1.6997965052723885e-02 -5.5499315261840820e-01</leafValues></_>
    <_>
      <internalNodes>
        0 -1 244357 1.7978842370212078e-03</internalNodes>
      <leafValues>
        -4.7731287777423859e-02 2.1525022387504578e-01</leafValues></_>
    <_>
      <internalNodes>
        0 -1 45777 -1.0992264375090599e-02</internalNodes>
      <leafValues>
        1.1891342699527740e-01 -8.0104820430278778e-02</leafValues></_>
    <_>
      <internalNodes>
        0 -1 78347 7.4600260704755783e-03</internalNodes>
      <leafValues>
        -6.4476698637008667e-02 1.6943182051181793e-01</leafValues></_>
    <_>
      <internalNodes>
        0 -1 158549 8.9807866606861353e-04</internalNodes>
      <leafValues>
        6.2395710498094559e-02 -1.6064727306365967e-01</leafValues></_>
    <_>
      <internalNodes>
        0 -1 157539 -3.6755935288965702e-03</internalNodes>
      <leafValues>
        -2.6705899834632874e-01 4.2635485529899597e-02</leafValues></_>
    <_>
      <internalNodes>
        0 -1 150924 5.8797314763069153e-02</internalNodes>
      <leafValues>
        2.4118993431329727e-02 -4.1081315279006958e-01</leafValues></_>
    <_>
      <internalNodes>
        0 -1 142407 6.2629759311676025e-02</internalNodes>
      <leafValues>
        1.2990435585379601e-02 -6.9892632961273193e-01</leafValues></_>
    <_>
      <internalNodes>
        0 -1 7792 -1.2843339703977108e-02</internalNodes>
      <leafValues>
        1.7774961888790131e-01 -5.6674819439649582e-02</leafValues></_>
    <_>
      <internalNodes>
        0 -1 80877 1.0491674765944481e-02</internalNodes>
      <leafValues>
        -7.5801104307174683e-02 1.3912665843963623e-01</leafValues></_>
    <_>
      <internalNodes>
        0 -1 163020 -2.2453288547694683e-03</internalNodes>
      <leafValues>
        2.8280749917030334e-01 -3.5946212708950043e-02</leafValues></_>
    <_>
      <internalNodes>
        0 -1 124718 -6.8026327062398195e-04</internalNodes>
      <leafValues>
        -1.7993937432765961e-01 5.8584377169609070e-02</leafValues></_>
    <_>
      <internalNodes>
        0 -1 124718 6.0330145061016083e-04</internalNodes>
      <leafValues>
        5.4424006491899490e-02 -1.9312737882137299e-01</leafValues></_>
    <_>
      <internalNodes>
        0 -1 83544 2.7223542332649231e-02</internalNodes>
      <leafValues>
        -3.2258324325084686e-02 3.4575596451759338e-01</leafValues></_>
    <_>
      <internalNodes>
        0 -1 117131 -2.3863704409450293e-03</internalNodes>
      <leafValues>
        1.5185551345348358e-01 -6.2793649733066559e-02</leafValues></_>
    <_>
      <internalNodes>
        0 -1 119309 4.5908298343420029e-03</internalNodes>
      <leafValues>
        -7.7412419021129608e-02 1.4289878308773041e-01</leafValues></_>
    <_>
      <internalNodes>
        0 -1 128359 -1.9385975599288940e-01</internalNodes>
      <leafValues>
        -3.2721331715583801e-01 2.9538728296756744e-02</leafValues></_>
    <_>
      <internalNodes>
        0 -1 49082 -2.3433347232639790e-03</internalNodes>
      <leafValues>
        -2.6011630892753601e-01 3.8395203649997711e-02</leafValues></_>
    <_>
      <internalNodes>
        0 -1 64453 -1.8344749696552753e-03</internalNodes>
      <leafValues>
        2.7475744485855103e-01 -3.6440949887037277e-02</leafValues></_>
    <_>
      <internalNodes>
        0 -1 127057 -5.3912214934825897e-03</internalNodes>
      <leafValues>
        -6.1359268426895142e-01 1.7135435715317726e-02</leafValues></_>
    <_>
      <internalNodes>
        0 -1 260921 2.0681200840044767e-04</internalNodes>
      <leafValues>
        -9.0718477964401245e-02 1.0494054853916168e-01</leafValues></_>
    <_>
      <internalNodes>
        0 -1 257867 -8.3520095795392990e-03</internalNodes>
      <leafValues>
        -3.1824994087219238e-01 3.1036049127578735e-02</leafValues></_>
    <_>
      <internalNodes>
        0 -1 257866 -1.6367787611670792e-04</internalNodes>
      <leafValues>
        9.9343754351139069e-02 -1.0176170617341995e-01</leafValues></_>
    <_>
      <internalNodes>
        0 -1 257923 -5.1929149776697159e-03</internalNodes>
      <leafValues>
        6.1527782678604126e-01 -1.5823397785425186e-02</leafValues></_>
    <_>
      <internalNodes>
        0 -1 258503 -5.3489865968003869e-04</internalNodes>
      <leafValues>
        7.9032354056835175e-02 -1.2884631752967834e-01</leafValues></_>
    <_>
      <internalNodes>
        0 -1 15095 -1.8964789342135191e-03</internalNodes>
      <leafValues>
        1.9958075881004333e-01 -4.9969695508480072e-02</leafValues></_>
    <_>
      <internalNodes>
        0 -1 261555 -2.1649994887411594e-03</internalNodes>
      <leafValues>
        -1.6144546866416931e-01 6.0816042125225067e-02</leafValues></_>
    <_>
      <internalNodes>
        0 -1 190940 4.1251745074987411e-02</internalNodes>
      <leafValues>
        -4.3346062302589417e-02 2.9132264852523804e-01</leafValues></_>
    <_>
      <internalNodes>
        0 -1 245365 -1.1314927600324154e-02</internalNodes>
      <leafValues>
        1.7077746987342834e-01 -6.2060367316007614e-02</leafValues></_>
    <_>
      <internalNodes>
        0 -1 199299 -1.9289769697934389e-03</internalNodes>
      <leafValues>
        1.8543538451194763e-01 -5.5672030895948410e-02</leafValues></_></weakClassifiers></stage10>
</opencv_storage>
