<?xml version="1.0"?>
<opencv_storage>
<stage18>
  <maxWeakCount>100</maxWeakCount>
  <stageThreshold>-1.1090769767761230e+00</stageThreshold>
  <weakClassifiers>
    <_>
      <internalNodes>
        0 -1 29279 -1.2868192046880722e-02</internalNodes>
      <leafValues>
        8.3573490381240845e-02 -2.3327305912971497e-01</leafValues></_>
    <_>
      <internalNodes>
        0 -1 1433 2.2199286147952080e-02</internalNodes>
      <leafValues>
        -1.0419327765703201e-01 1.6623301804065704e-01</leafValues></_>
    <_>
      <internalNodes>
        0 -1 258829 -9.4253513962030411e-03</internalNodes>
      <leafValues>
        1.2093158066272736e-01 -1.1882313340902328e-01</leafValues></_>
    <_>
      <internalNodes>
        0 -1 727 -6.5225288271903992e-02</internalNodes>
      <leafValues>
        3.3967790007591248e-01 -3.1066434457898140e-02</leafValues></_>
    <_>
      <internalNodes>
        0 -1 197496 -1.6890576481819153e-01</internalNodes>
      <leafValues>
        1.9690471887588501e-01 -5.5153619498014450e-02</leafValues></_>
    <_>
      <internalNodes>
        0 -1 8764 -2.8410253580659628e-03</internalNodes>
      <leafValues>
        1.5517407655715942e-01 -6.2265664339065552e-02</leafValues></_>
    <_>
      <internalNodes>
        0 -1 9757 5.5775651708245277e-03</internalNodes>
      <leafValues>
        -4.4063262641429901e-02 2.1691155433654785e-01</leafValues></_>
    <_>
      <internalNodes>
        0 -1 259001 -1.6545610269531608e-03</internalNodes>
      <leafValues>
        -1.4308333396911621e-01 1.0509003698825836e-01</leafValues></_>
    <_>
      <internalNodes>
        0 -1 61390 1.3616836629807949e-02</internalNodes>
      <leafValues>
        -8.0074362456798553e-02 1.5553443133831024e-01</leafValues></_>
    <_>
      <internalNodes>
        0 -1 94564 -1.3752784579992294e-02</internalNodes>
      <leafValues>
        2.5236305594444275e-01 -1.1290118098258972e-02</leafValues></_>
    <_>
      <internalNodes>
        0 -1 233744 -3.1691240146756172e-03</internalNodes>
      <leafValues>
        2.4218024313449860e-01 -5.5677730590105057e-02</leafValues></_>
    <_>
      <internalNodes>
        0 -1 261152 3.4993819892406464e-02</internalNodes>
      <leafValues>
        -4.7397237271070480e-02 2.0809836685657501e-01</leafValues></_>
    <_>
      <internalNodes>
        0 -1 159 -1.3483669608831406e-02</internalNodes>
      <leafValues>
        1.7954692244529724e-01 -6.3416689634323120e-02</leafValues></_>
    <_>
      <internalNodes>
        0 -1 128101 5.2222264930605888e-03</internalNodes>
      <leafValues>
        -4.8059992492198944e-02 1.7112295329570770e-01</leafValues></_>
    <_>
      <internalNodes>
        0 -1 16040 -6.7382669076323509e-03</internalNodes>
      <leafValues>
        5.7755678892135620e-01 -2.4401711300015450e-02</leafValues></_>
    <_>
      <internalNodes>
        0 -1 50707 6.0222551226615906e-02</internalNodes>
      <leafValues>
        -4.3534431606531143e-02 1.9688223302364349e-01</leafValues></_>
    <_>
      <internalNodes>
        0 -1 61976 1.3754717074334621e-03</internalNodes>
      <leafValues>
        5.5777877569198608e-02 -1.7200045287609100e-01</leafValues></_>
    <_>
      <internalNodes>
        0 -1 27879 1.4664429472759366e-03</internalNodes>
      <leafValues>
        -1.1146533489227295e-01 8.7606422603130341e-02</leafValues></_>
    <_>
      <internalNodes>
        0 -1 34387 6.3504457473754883e-02</internalNodes>
      <leafValues>
        4.0627252310514450e-02 -4.5450904965400696e-01</leafValues></_>
    <_>
      <internalNodes>
        0 -1 189546 -3.8935623597353697e-03</internalNodes>
      <leafValues>
        1.2137714773416519e-01 -7.7481769025325775e-02</leafValues></_>
    <_>
      <internalNodes>
        0 -1 228477 2.3251049220561981e-02</internalNodes>
      <leafValues>
        -5.9806540608406067e-02 1.6542284190654755e-01</leafValues></_>
    <_>
      <internalNodes>
        0 -1 141491 -8.6808484047651291e-03</internalNodes>
      <leafValues>
        1.2953799962997437e-01 -7.0581167936325073e-02</leafValues></_>
    <_>
      <internalNodes>
        0 -1 258090 4.5118713751435280e-03</internalNodes>
      <leafValues>
        -3.7934172898530960e-02 2.8993532061576843e-01</leafValues></_>
    <_>
      <internalNodes>
        0 -1 260344 -2.5957308243960142e-03</internalNodes>
      <leafValues>
        -2.4465753138065338e-01 4.3940119445323944e-02</leafValues></_>
    <_>
      <internalNodes>
        0 -1 98144 -8.1308074295520782e-03</internalNodes>
      <leafValues>
        1.8893067538738251e-01 -4.8050243407487869e-02</leafValues></_>
    <_>
      <internalNodes>
        0 -1 238766 -1.2218492105603218e-02</internalNodes>
      <leafValues>
        1.7044588923454285e-01 -4.7464694827795029e-02</leafValues></_>
    <_>
      <internalNodes>
        0 -1 166733 7.9882085323333740e-02</internalNodes>
      <leafValues>
        2.1881451830267906e-02 -4.6668145060539246e-01</leafValues></_>
    <_>
      <internalNodes>
        0 -1 34501 -4.6931998804211617e-03</internalNodes>
      <leafValues>
        1.2273611873388290e-01 -7.3041297495365143e-02</leafValues></_>
    <_>
      <internalNodes>
        0 -1 100865 1.9959026947617531e-02</internalNodes>
      <leafValues>
        -5.8341506868600845e-02 1.7663204669952393e-01</leafValues></_>
    <_>
      <internalNodes>
        0 -1 18968 -1.2091316282749176e-02</internalNodes>
      <leafValues>
        -3.4352296590805054e-01 2.2257728502154350e-02</leafValues></_>
    <_>
      <internalNodes>
        0 -1 122147 7.3733270168304443e-02</internalNodes>
      <leafValues>
        1.6053754836320877e-02 -4.9781852960586548e-01</leafValues></_>
    <_>
      <internalNodes>
        0 -1 38283 1.2686708569526672e-01</internalNodes>
      <leafValues>
        -2.7366887778043747e-02 3.2678174972534180e-01</leafValues></_>
    <_>
      <internalNodes>
        0 -1 148837 -3.3019711263477802e-03</internalNodes>
      <leafValues>
        1.0675587505102158e-01 -8.4732659161090851e-02</leafValues></_>
    <_>
      <internalNodes>
        0 -1 137457 -2.9141625855118036e-03</internalNodes>
      <leafValues>
        1.3354718685150146e-01 -6.8431861698627472e-02</leafValues></_>
    <_>
      <internalNodes>
        0 -1 141463 1.2312363833189011e-02</internalNodes>
      <leafValues>
        -5.7803045958280563e-02 1.5333433449268341e-01</leafValues></_>
    <_>
      <internalNodes>
        0 -1 20161 -2.5883340276777744e-03</internalNodes>
      <leafValues>
        1.6123540699481964e-01 -5.3915902972221375e-02</leafValues></_>
    <_>
      <internalNodes>
        0 -1 252698 -5.3152735345065594e-03</internalNodes>
      <leafValues>
        5.3468316793441772e-01 -1.7010902985930443e-02</leafValues></_>
    <_>
      <internalNodes>
        0 -1 164133 3.2497853972017765e-03</internalNodes>
      <leafValues>
        -6.3716344535350800e-02 1.3597585260868073e-01</leafValues></_>
    <_>
      <internalNodes>
        0 -1 38396 1.5814118087291718e-02</internalNodes>
      <leafValues>
        1.6504751518368721e-02 -4.4762355089187622e-01</leafValues></_>
    <_>
      <internalNodes>
        0 -1 189391 1.9719637930393219e-02</internalNodes>
      <leafValues>
        2.1207930520176888e-02 -3.9911735057830811e-01</leafValues></_>
    <_>
      <internalNodes>
        0 -1 243605 -3.5907032433897257e-03</internalNodes>
      <leafValues>
        1.7020000517368317e-01 -5.3524345159530640e-02</leafValues></_>
    <_>
      <internalNodes>
        0 -1 257562 2.6785455702338368e-05</internalNodes>
      <leafValues>
        -9.0953931212425232e-02 9.3892462551593781e-02</leafValues></_>
    <_>
      <internalNodes>
        0 -1 231217 -1.8269307911396027e-02</internalNodes>
      <leafValues>
        -5.4240161180496216e-01 1.5981849282979965e-02</leafValues></_>
    <_>
      <internalNodes>
        0 -1 193813 -4.8587779747322202e-04</internalNodes>
      <leafValues>
        -1.7400145530700684e-01 4.6272389590740204e-02</leafValues></_>
    <_>
      <internalNodes>
        0 -1 18910 3.8346676155924797e-03</internalNodes>
      <leafValues>
        -4.9733463674783707e-02 1.7860557138919830e-01</leafValues></_>
    <_>
      <internalNodes>
        0 -1 221554 -2.5583518436178565e-04</internalNodes>
      <leafValues>
        -1.3350804150104523e-01 6.3893824815750122e-02</leafValues></_>
    <_>
      <internalNodes>
        0 -1 221554 4.3306796578690410e-04</internalNodes>
      <leafValues>
        6.3183993101119995e-02 -1.6527613997459412e-01</leafValues></_>
    <_>
      <internalNodes>
        0 -1 9882 -1.2629282427951694e-03</internalNodes>
      <leafValues>
        1.2844024598598480e-01 -6.7956581711769104e-02</leafValues></_>
    <_>
      <internalNodes>
        0 -1 257392 -1.3346002670004964e-03</internalNodes>
      <leafValues>
        1.3520765304565430e-01 -6.4995408058166504e-02</leafValues></_>
    <_>
      <internalNodes>
        0 -1 42157 1.4538997784256935e-03</internalNodes>
      <leafValues>
        5.2495002746582031e-02 -1.8365927040576935e-01</leafValues></_>
    <_>
      <internalNodes>
        0 -1 259903 2.1867968607693911e-03</internalNodes>
      <leafValues>
        3.8265328854322433e-02 -2.1161827445030212e-01</leafValues></_>
    <_>
      <internalNodes>
        0 -1 255998 -2.8476156294345856e-03</internalNodes>
      <leafValues>
        3.2366701960563660e-01 -2.6993928477168083e-02</leafValues></_>
    <_>
      <internalNodes>
        0 -1 184576 2.8475560247898102e-03</internalNodes>
      <leafValues>
        -3.8511812686920166e-02 2.0656526088714600e-01</leafValues></_>
    <_>
      <internalNodes>
        0 -1 243605 2.8764531016349792e-03</internalNodes>
      <leafValues>
        -5.8384176343679428e-02 1.4032916724681854e-01</leafValues></_>
    <_>
      <internalNodes>
        0 -1 207002 -1.7312229610979557e-03</internalNodes>
      <leafValues>
        -1.8383638560771942e-01 4.6650771051645279e-02</leafValues></_>
    <_>
      <internalNodes>
        0 -1 247480 3.0907026957720518e-03</internalNodes>
      <leafValues>
        4.8403713852167130e-02 -1.7093217372894287e-01</leafValues></_>
    <_>
      <internalNodes>
        0 -1 34588 1.8518332391977310e-02</internalNodes>
      <leafValues>
        -5.4132953286170959e-02 1.6669006645679474e-01</leafValues></_>
    <_>
      <internalNodes>
        0 -1 251594 -1.1901380494236946e-03</internalNodes>
      <leafValues>
        1.5024815499782562e-01 -6.7073225975036621e-02</leafValues></_>
    <_>
      <internalNodes>
        0 -1 193710 -1.2590261176228523e-03</internalNodes>
      <leafValues>
        -1.5438783168792725e-01 5.2128758281469345e-02</leafValues></_>
    <_>
      <internalNodes>
        0 -1 204157 2.7971869712928310e-05</internalNodes>
      <leafValues>
        -1.0469029098749161e-01 9.2500656843185425e-02</leafValues></_>
    <_>
      <internalNodes>
        0 -1 99491 -7.9850084148347378e-05</internalNodes>
      <leafValues>
        1.0103067755699158e-01 -8.1607073545455933e-02</leafValues></_>
    <_>
      <internalNodes>
        0 -1 259140 -4.1293976828455925e-03</internalNodes>
      <leafValues>
        3.0796521902084351e-01 -2.5842014700174332e-02</leafValues></_>
    <_>
      <internalNodes>
        0 -1 259138 -3.2581712002865970e-04</internalNodes>
      <leafValues>
        -1.3059341907501221e-01 6.6436290740966797e-02</leafValues></_>
    <_>
      <internalNodes>
        0 -1 214343 3.3881387207657099e-03</internalNodes>
      <leafValues>
        4.1308708488941193e-02 -1.9266501069068909e-01</leafValues></_>
    <_>
      <internalNodes>
        0 -1 251238 4.8006689175963402e-03</internalNodes>
      <leafValues>
        -5.4932486265897751e-02 1.4661286771297455e-01</leafValues></_>
    <_>
      <internalNodes>
        0 -1 50420 -1.5079370932653546e-03</internalNodes>
      <leafValues>
        -2.2185567021369934e-01 3.8005571812391281e-02</leafValues></_>
    <_>
      <internalNodes>
        0 -1 82923 -1.2000937946140766e-02</internalNodes>
      <leafValues>
        -5.0461518764495850e-01 1.4023222960531712e-02</leafValues></_>
    <_>
      <internalNodes>
        0 -1 65392 -1.1898223310709000e-02</internalNodes>
      <leafValues>
        -4.8066952824592590e-01 1.5070136636495590e-02</leafValues></_>
    <_>
      <internalNodes>
        0 -1 81280 5.5209384299814701e-03</internalNodes>
      <leafValues>
        -6.1573538929224014e-02 1.3755212724208832e-01</leafValues></_>
    <_>
      <internalNodes>
        0 -1 96328 9.2034805566072464e-03</internalNodes>
      <leafValues>
        -8.0455459654331207e-02 1.4413040876388550e-01</leafValues></_>
    <_>
      <internalNodes>
        0 -1 41338 -9.2818429693579674e-03</internalNodes>
      <leafValues>
        -1.9107174873352051e-01 4.4803842902183533e-02</leafValues></_>
    <_>
      <internalNodes>
        0 -1 29786 6.4191111596301198e-04</internalNodes>
      <leafValues>
        -9.5524080097675323e-02 9.1707654297351837e-02</leafValues></_>
    <_>
      <internalNodes>
        0 -1 41146 -1.8031970830634236e-04</internalNodes>
      <leafValues>
        9.9602550268173218e-02 -9.5015123486518860e-02</leafValues></_>
    <_>
      <internalNodes>
        0 -1 24681 -1.0263072326779366e-03</internalNodes>
      <leafValues>
        1.6180053353309631e-01 -6.5743111073970795e-02</leafValues></_>
    <_>
      <internalNodes>
        0 -1 97493 -2.9895167797803879e-02</internalNodes>
      <leafValues>
        2.0347233116626740e-01 -3.8383379578590393e-02</leafValues></_>
    <_>
      <internalNodes>
        0 -1 258850 -1.6671366756781936e-03</internalNodes>
      <leafValues>
        -1.4646114408969879e-01 5.6582413613796234e-02</leafValues></_>
    <_>
      <internalNodes>
        0 -1 97052 -1.5797533094882965e-02</internalNodes>
      <leafValues>
        -3.2034882903099060e-01 2.3540005087852478e-02</leafValues></_>
    <_>
      <internalNodes>
        0 -1 50895 -6.9129288196563721e-02</internalNodes>
      <leafValues>
        2.7741017937660217e-01 -3.1280230730772018e-02</leafValues></_>
    <_>
      <internalNodes>
        0 -1 25431 6.0544967651367188e-02</internalNodes>
      <leafValues>
        4.4094651937484741e-02 -1.8156933784484863e-01</leafValues></_>
    <_>
      <internalNodes>
        0 -1 8353 -2.0105065405368805e-01</internalNodes>
      <leafValues>
        -6.4739847183227539e-01 1.1379018425941467e-02</leafValues></_>
    <_>
      <internalNodes>
        0 -1 181552 -1.3548422139137983e-03</internalNodes>
      <leafValues>
        -1.9358760118484497e-01 4.0498100221157074e-02</leafValues></_>
    <_>
      <internalNodes>
        0 -1 258095 -5.7493674103170633e-04</internalNodes>
      <leafValues>
        -1.2332265079021454e-01 7.0168025791645050e-02</leafValues></_>
    <_>
      <internalNodes>
        0 -1 254812 -3.6023138090968132e-04</internalNodes>
      <leafValues>
        -1.4399579167366028e-01 7.4342325329780579e-02</leafValues></_>
    <_>
      <internalNodes>
        0 -1 176569 -5.4663922637701035e-03</internalNodes>
      <leafValues>
        1.2686353921890259e-01 -6.9748841226100922e-02</leafValues></_>
    <_>
      <internalNodes>
        0 -1 178438 2.0242403261363506e-03</internalNodes>
      <leafValues>
        -7.9445801675319672e-02 1.3517946004867554e-01</leafValues></_>
    <_>
      <internalNodes>
        0 -1 257564 -3.0913352966308594e-03</internalNodes>
      <leafValues>
        2.5133901834487915e-01 -3.4982297569513321e-02</leafValues></_>
    <_>
      <internalNodes>
        0 -1 183620 3.0840637627989054e-03</internalNodes>
      <leafValues>
        -4.0110647678375244e-02 2.1305407583713531e-01</leafValues></_>
    <_>
      <internalNodes>
        0 -1 258243 3.0698713089805096e-05</internalNodes>
      <leafValues>
        -9.2348285019397736e-02 8.7594598531723022e-02</leafValues></_>
    <_>
      <internalNodes>
        0 -1 191156 -1.1578786186873913e-02</internalNodes>
      <leafValues>
        -6.4756578207015991e-01 1.0926878079771996e-02</leafValues></_>
    <_>
      <internalNodes>
        0 -1 256704 -5.5702170357108116e-03</internalNodes>
      <leafValues>
        5.2681505680084229e-01 -1.6520792618393898e-02</leafValues></_>
    <_>
      <internalNodes>
        0 -1 259637 1.8832512432709336e-04</internalNodes>
      <leafValues>
        6.9744549691677094e-02 -1.1936920881271362e-01</leafValues></_>
    <_>
      <internalNodes>
        0 -1 190623 -2.3293684353120625e-04</internalNodes>
      <leafValues>
        -1.2720847129821777e-01 6.4731463789939880e-02</leafValues></_>
    <_>
      <internalNodes>
        0 -1 190623 9.4764749519526958e-04</internalNodes>
      <leafValues>
        4.3914787471294403e-02 -2.1769590675830841e-01</leafValues></_>
    <_>
      <internalNodes>
        0 -1 122105 -5.2420119754970074e-03</internalNodes>
      <leafValues>
        1.5297509729862213e-01 -5.7799194008111954e-02</leafValues></_>
    <_>
      <internalNodes>
        0 -1 47123 3.8155551999807358e-02</internalNodes>
      <leafValues>
        2.5164596736431122e-02 -3.3474352955818176e-01</leafValues></_>
    <_>
      <internalNodes>
        0 -1 7203 1.0058508813381195e-01</internalNodes>
      <leafValues>
        2.8077639639377594e-02 -2.9627653956413269e-01</leafValues></_>
    <_>
      <internalNodes>
        0 -1 33858 4.8456983640789986e-03</internalNodes>
      <leafValues>
        -6.6440768539905548e-02 1.3342718780040741e-01</leafValues></_>
    <_>
      <internalNodes>
        0 -1 9319 -4.9677737057209015e-02</internalNodes>
      <leafValues>
        -1.9447696208953857e-01 4.3213304132223129e-02</leafValues></_>
    <_>
      <internalNodes>
        0 -1 9964 2.2088516503572464e-02</internalNodes>
      <leafValues>
        -4.4975124299526215e-02 1.9568519294261932e-01</leafValues></_>
    <_>
      <internalNodes>
        0 -1 31578 2.4390793405473232e-03</internalNodes>
      <leafValues>
        -2.8058819472789764e-02 3.1756442785263062e-01</leafValues></_></weakClassifiers></stage18>
</opencv_storage>
