<?xml version="1.0"?>
<opencv_storage>
<stage17>
  <maxWeakCount>100</maxWeakCount>
  <stageThreshold>-1.1667661666870117e+00</stageThreshold>
  <weakClassifiers>
    <_>
      <internalNodes>
        0 -1 8163 -1.5869802236557007e-01</internalNodes>
      <leafValues>
        1.2637190520763397e-01 -2.4143865704536438e-01</leafValues></_>
    <_>
      <internalNodes>
        0 -1 251866 -1.5470504760742188e-02</internalNodes>
      <leafValues>
        1.7086735367774963e-01 -1.1835775524377823e-01</leafValues></_>
    <_>
      <internalNodes>
        0 -1 259329 2.1720241755247116e-02</internalNodes>
      <leafValues>
        -7.9565122723579407e-02 1.7526149749755859e-01</leafValues></_>
    <_>
      <internalNodes>
        0 -1 211213 -8.2261012867093086e-03</internalNodes>
      <leafValues>
        1.2587225437164307e-01 -1.2414924800395966e-01</leafValues></_>
    <_>
      <internalNodes>
        0 -1 5535 6.7612524144351482e-03</internalNodes>
      <leafValues>
        -7.3889613151550293e-02 1.4473365247249603e-01</leafValues></_>
    <_>
      <internalNodes>
        0 -1 256704 -3.8846142706461251e-04</internalNodes>
      <leafValues>
        -1.3907726109027863e-01 1.0119826346635818e-01</leafValues></_>
    <_>
      <internalNodes>
        0 -1 219545 1.4566386118531227e-02</internalNodes>
      <leafValues>
        -7.6212070882320404e-02 2.1153712272644043e-01</leafValues></_>
    <_>
      <internalNodes>
        0 -1 200558 -3.0932219233363867e-03</internalNodes>
      <leafValues>
        2.1362425386905670e-01 -3.1775321811437607e-02</leafValues></_>
    <_>
      <internalNodes>
        0 -1 189613 -1.4349331147968769e-02</internalNodes>
      <leafValues>
        1.4381819963455200e-01 -7.8896626830101013e-02</leafValues></_>
    <_>
      <internalNodes>
        0 -1 210597 6.0236211866140366e-03</internalNodes>
      <leafValues>
        -9.8303943872451782e-02 1.1360072344541550e-01</leafValues></_>
    <_>
      <internalNodes>
        0 -1 158405 3.1245592981576920e-03</internalNodes>
      <leafValues>
        -2.1999251097440720e-02 2.5127750635147095e-01</leafValues></_>
    <_>
      <internalNodes>
        0 -1 155817 1.0376623831689358e-03</internalNodes>
      <leafValues>
        -1.0244048386812210e-01 9.9920079112052917e-02</leafValues></_>
    <_>
      <internalNodes>
        0 -1 168886 -2.7022720314562321e-03</internalNodes>
      <leafValues>
        2.8461819887161255e-01 -3.8006883114576340e-02</leafValues></_>
    <_>
      <internalNodes>
        0 -1 43996 -1.0639098472893238e-03</internalNodes>
      <leafValues>
        -1.8061013519763947e-01 5.4287832230329514e-02</leafValues></_>
    <_>
      <internalNodes>
        0 -1 27503 9.1743888333439827e-04</internalNodes>
      <leafValues>
        -1.0064224153757095e-01 1.1552215367555618e-01</leafValues></_>
    <_>
      <internalNodes>
        0 -1 256704 -4.5529259368777275e-03</internalNodes>
      <leafValues>
        4.6288004517555237e-01 -2.9172612354159355e-02</leafValues></_>
    <_>
      <internalNodes>
        0 -1 261211 1.2291953898966312e-03</internalNodes>
      <leafValues>
        5.9519633650779724e-02 -1.5226706862449646e-01</leafValues></_>
    <_>
      <internalNodes>
        0 -1 254161 2.8498186729848385e-03</internalNodes>
      <leafValues>
        -8.0073885619640350e-02 1.1714111268520355e-01</leafValues></_>
    <_>
      <internalNodes>
        0 -1 257599 -5.4747909307479858e-03</internalNodes>
      <leafValues>
        -2.4777372181415558e-01 2.5931222364306450e-02</leafValues></_>
    <_>
      <internalNodes>
        0 -1 255601 2.0301882177591324e-02</internalNodes>
      <leafValues>
        -2.1759562194347382e-02 3.4778037667274475e-01</leafValues></_>
    <_>
      <internalNodes>
        0 -1 258703 -2.4235760793089867e-03</internalNodes>
      <leafValues>
        -1.6386367380619049e-01 5.4658237844705582e-02</leafValues></_>
    <_>
      <internalNodes>
        0 -1 167276 1.2045234441757202e-01</internalNodes>
      <leafValues>
        2.6159694418311119e-02 -4.1290113329887390e-01</leafValues></_>
    <_>
      <internalNodes>
        0 -1 50180 -2.4216724559664726e-02</internalNodes>
      <leafValues>
        1.3224253058433533e-01 -6.7579872906208038e-02</leafValues></_>
    <_>
      <internalNodes>
        0 -1 168558 -7.1758823469281197e-03</internalNodes>
      <leafValues>
        1.5948121249675751e-01 -6.6874504089355469e-02</leafValues></_>
    <_>
      <internalNodes>
        0 -1 142152 8.2423014100641012e-04</internalNodes>
      <leafValues>
        -9.3384981155395508e-02 9.5692068338394165e-02</leafValues></_>
    <_>
      <internalNodes>
        0 -1 10319 3.4511305391788483e-02</internalNodes>
      <leafValues>
        2.2386940196156502e-02 -4.7171884775161743e-01</leafValues></_>
    <_>
      <internalNodes>
        0 -1 44818 3.7466248613782227e-05</internalNodes>
      <leafValues>
        -1.0017089545726776e-01 8.9377947151660919e-02</leafValues></_>
    <_>
      <internalNodes>
        0 -1 33411 -3.8413587026298046e-04</internalNodes>
      <leafValues>
        -1.4432476460933685e-01 5.9219636023044586e-02</leafValues></_>
    <_>
      <internalNodes>
        0 -1 11554 -1.9167197751812637e-04</internalNodes>
      <leafValues>
        1.3432244956493378e-01 -6.5161429345607758e-02</leafValues></_>
    <_>
      <internalNodes>
        0 -1 109514 1.7065918073058128e-02</internalNodes>
      <leafValues>
        -4.8709429800510406e-02 1.7458671331405640e-01</leafValues></_>
    <_>
      <internalNodes>
        0 -1 29230 -1.1562927067279816e-01</internalNodes>
      <leafValues>
        3.0728054046630859e-01 -2.8538124635815620e-02</leafValues></_>
    <_>
      <internalNodes>
        0 -1 46398 -2.2193524986505508e-02</internalNodes>
      <leafValues>
        -5.2323788404464722e-01 1.9101815298199654e-02</leafValues></_>
    <_>
      <internalNodes>
        0 -1 193069 -1.3287575915455818e-02</internalNodes>
      <leafValues>
        -5.3515547513961792e-01 1.4810043387115002e-02</leafValues></_>
    <_>
      <internalNodes>
        0 -1 110251 3.6621559411287308e-03</internalNodes>
      <leafValues>
        -7.8558862209320068e-02 1.0568563640117645e-01</leafValues></_>
    <_>
      <internalNodes>
        0 -1 90948 -1.3879093527793884e-01</internalNodes>
      <leafValues>
        -1.9837161898612976e-01 4.0316525846719742e-02</leafValues></_>
    <_>
      <internalNodes>
        0 -1 210397 -1.1966928839683533e-02</internalNodes>
      <leafValues>
        2.0294108986854553e-01 -4.1949775069952011e-02</leafValues></_>
    <_>
      <internalNodes>
        0 -1 152699 -2.4997610598802567e-03</internalNodes>
      <leafValues>
        1.2619529664516449e-01 -7.0310562849044800e-02</leafValues></_>
    <_>
      <internalNodes>
        0 -1 246485 -9.9351480603218079e-03</internalNodes>
      <leafValues>
        5.5176132917404175e-01 -1.5900626778602600e-02</leafValues></_>
    <_>
      <internalNodes>
        0 -1 102126 1.7701499164104462e-03</internalNodes>
      <leafValues>
        5.3260549902915955e-02 -1.5853944420814514e-01</leafValues></_>
    <_>
      <internalNodes>
        0 -1 2215 2.2106930613517761e-02</internalNodes>
      <leafValues>
        -4.4689353555440903e-02 2.4237282574176788e-01</leafValues></_>
    <_>
      <internalNodes>
        0 -1 131232 -4.4591734185814857e-03</internalNodes>
      <leafValues>
        1.4688062667846680e-01 -6.5175451338291168e-02</leafValues></_>
    <_>
      <internalNodes>
        0 -1 195578 8.7305866181850433e-03</internalNodes>
      <leafValues>
        -5.7842187583446503e-02 1.4421503245830536e-01</leafValues></_>
    <_>
      <internalNodes>
        0 -1 24948 4.4848069548606873e-02</internalNodes>
      <leafValues>
        -4.0450386703014374e-02 2.4810388684272766e-01</leafValues></_>
    <_>
      <internalNodes>
        0 -1 250198 1.9535287283360958e-03</internalNodes>
      <leafValues>
        -4.4748671352863312e-02 1.7513190209865570e-01</leafValues></_>
    <_>
      <internalNodes>
        0 -1 248916 2.8615638613700867e-02</internalNodes>
      <leafValues>
        1.9063608720898628e-02 -4.6131971478462219e-01</leafValues></_>
    <_>
      <internalNodes>
        0 -1 137987 4.4149282621219754e-04</internalNodes>
      <leafValues>
        5.2531391382217407e-02 -1.5668489038944244e-01</leafValues></_>
    <_>
      <internalNodes>
        0 -1 137987 -3.1626821146346629e-04</internalNodes>
      <leafValues>
        -1.4486055076122284e-01 6.5830022096633911e-02</leafValues></_>
    <_>
      <internalNodes>
        0 -1 260597 1.9217963563278317e-04</internalNodes>
      <leafValues>
        -8.0823786556720734e-02 1.0358488559722900e-01</leafValues></_>
    <_>
      <internalNodes>
        0 -1 259833 7.7254734933376312e-03</internalNodes>
      <leafValues>
        -4.9429163336753845e-02 1.6945472359657288e-01</leafValues></_>
    <_>
      <internalNodes>
        0 -1 255113 -3.1307801604270935e-02</internalNodes>
      <leafValues>
        2.3843829333782196e-01 -3.6635231226682663e-02</leafValues></_>
    <_>
      <internalNodes>
        0 -1 261493 -2.2827386856079102e-03</internalNodes>
      <leafValues>
        -3.0437973141670227e-01 3.8512688130140305e-02</leafValues></_>
    <_>
      <internalNodes>
        0 -1 258901 -2.5161276571452618e-03</internalNodes>
      <leafValues>
        1.5906991064548492e-01 -5.1038060337305069e-02</leafValues></_>
    <_>
      <internalNodes>
        0 -1 166215 4.6156584285199642e-03</internalNodes>
      <leafValues>
        -7.4702933430671692e-02 1.1121434718370438e-01</leafValues></_>
    <_>
      <internalNodes>
        0 -1 223193 2.1172172273509204e-04</internalNodes>
      <leafValues>
        6.7829705774784088e-02 -1.2176004052162170e-01</leafValues></_>
    <_>
      <internalNodes>
        0 -1 223193 -4.7706760233268142e-04</internalNodes>
      <leafValues>
        -1.5731257200241089e-01 5.5236712098121643e-02</leafValues></_>
    <_>
      <internalNodes>
        0 -1 175832 -3.1215297058224678e-02</internalNodes>
      <leafValues>
        -3.5197496414184570e-01 2.2551959380507469e-02</leafValues></_>
    <_>
      <internalNodes>
        0 -1 258901 1.1695249704644084e-03</internalNodes>
      <leafValues>
        -6.4236819744110107e-02 1.3482053577899933e-01</leafValues></_>
    <_>
      <internalNodes>
        0 -1 29789 -8.4813078865408897e-03</internalNodes>
      <leafValues>
        -5.3796279430389404e-01 1.6577972099184990e-02</leafValues></_>
    <_>
      <internalNodes>
        0 -1 14023 5.2862614393234253e-02</internalNodes>
      <leafValues>
        -2.1174024790525436e-02 4.0193361043930054e-01</leafValues></_>
    <_>
      <internalNodes>
        0 -1 48117 2.7802449039882049e-05</internalNodes>
      <leafValues>
        -9.6710577607154846e-02 9.3008466064929962e-02</leafValues></_>
    <_>
      <internalNodes>
        0 -1 13146 6.7548141814768314e-03</internalNodes>
      <leafValues>
        -2.8428414836525917e-02 3.3119937777519226e-01</leafValues></_>
    <_>
      <internalNodes>
        0 -1 64450 7.9111123341135681e-05</internalNodes>
      <leafValues>
        -9.2664971947669983e-02 9.4404488801956177e-02</leafValues></_>
    <_>
      <internalNodes>
        0 -1 194171 -9.8949950188398361e-03</internalNodes>
      <leafValues>
        4.5178788900375366e-01 -1.9379675388336182e-02</leafValues></_>
    <_>
      <internalNodes>
        0 -1 187607 -1.4089930057525635e-01</internalNodes>
      <leafValues>
        3.4232917428016663e-01 -2.3182550445199013e-02</leafValues></_>
    <_>
      <internalNodes>
        0 -1 257186 -8.6432998068630695e-04</internalNodes>
      <leafValues>
        1.2730370461940765e-01 -6.9025963544845581e-02</leafValues></_>
    <_>
      <internalNodes>
        0 -1 47053 -1.8115884158760309e-03</internalNodes>
      <leafValues>
        -1.5075941383838654e-01 5.6452497839927673e-02</leafValues></_>
    <_>
      <internalNodes>
        0 -1 12802 2.4991583079099655e-02</internalNodes>
      <leafValues>
        2.6146177202463150e-02 -2.8643363714218140e-01</leafValues></_>
    <_>
      <internalNodes>
        0 -1 96821 -9.6051609143614769e-03</internalNodes>
      <leafValues>
        1.4931674301624298e-01 -5.6626141071319580e-02</leafValues></_>
    <_>
      <internalNodes>
        0 -1 66498 -2.2244686260819435e-03</internalNodes>
      <leafValues>
        -1.6157129406929016e-01 5.8138199150562286e-02</leafValues></_>
    <_>
      <internalNodes>
        0 -1 141898 1.3282722793519497e-03</internalNodes>
      <leafValues>
        -8.0867379903793335e-02 1.0029330104589462e-01</leafValues></_>
    <_>
      <internalNodes>
        0 -1 249080 1.1258555576205254e-02</internalNodes>
      <leafValues>
        3.5238150507211685e-02 -2.1705368161201477e-01</leafValues></_>
    <_>
      <internalNodes>
        0 -1 259264 2.6490315794944763e-02</internalNodes>
      <leafValues>
        -3.5641439259052277e-02 2.5717428326606750e-01</leafValues></_>
    <_>
      <internalNodes>
        0 -1 129846 1.0760284215211868e-01</internalNodes>
      <leafValues>
        1.3901344500482082e-02 -6.0782605409622192e-01</leafValues></_>
    <_>
      <internalNodes>
        0 -1 228494 8.7922230362892151e-02</internalNodes>
      <leafValues>
        1.8443262204527855e-02 -3.9306664466857910e-01</leafValues></_>
    <_>
      <internalNodes>
        0 -1 260186 1.6138631850481033e-02</internalNodes>
      <leafValues>
        -2.4404972791671753e-02 3.9703205227851868e-01</leafValues></_>
    <_>
      <internalNodes>
        0 -1 260780 4.8295441083610058e-03</internalNodes>
      <leafValues>
        3.5433117300271988e-02 -2.5678029656410217e-01</leafValues></_>
    <_>
      <internalNodes>
        0 -1 255355 9.7358261700719595e-04</internalNodes>
      <leafValues>
        -8.4688104689121246e-02 1.0604808479547501e-01</leafValues></_>
    <_>
      <internalNodes>
        0 -1 255515 1.8024423625320196e-03</internalNodes>
      <leafValues>
        -3.7763059139251709e-02 2.6471653580665588e-01</leafValues></_>
    <_>
      <internalNodes>
        0 -1 256705 1.0984112304868177e-04</internalNodes>
      <leafValues>
        7.5692594051361084e-02 -1.1773931980133057e-01</leafValues></_>
    <_>
      <internalNodes>
        0 -1 260437 -1.7012022435665131e-03</internalNodes>
      <leafValues>
        -2.2223342955112457e-01 3.9116166532039642e-02</leafValues></_>
    <_>
      <internalNodes>
        0 -1 99768 2.4354074150323868e-02</internalNodes>
      <leafValues>
        1.8287887796759605e-02 -4.3430298566818237e-01</leafValues></_>
    <_>
      <internalNodes>
        0 -1 257366 -4.0683345869183540e-03</internalNodes>
      <leafValues>
        3.5118556022644043e-01 -2.5279490277171135e-02</leafValues></_>
    <_>
      <internalNodes>
        0 -1 260344 1.8606003141030669e-03</internalNodes>
      <leafValues>
        3.8631003350019455e-02 -2.2433616220951080e-01</leafValues></_>
    <_>
      <internalNodes>
        0 -1 27101 -7.1840494871139526e-02</internalNodes>
      <leafValues>
        -3.6633169651031494e-01 2.1665567532181740e-02</leafValues></_>
    <_>
      <internalNodes>
        0 -1 249673 1.6537405550479889e-02</internalNodes>
      <leafValues>
        2.6433603838086128e-02 -3.0815121531486511e-01</leafValues></_>
    <_>
      <internalNodes>
        0 -1 254795 1.0309945791959763e-03</internalNodes>
      <leafValues>
        6.2833845615386963e-02 -1.2708498537540436e-01</leafValues></_>
    <_>
      <internalNodes>
        0 -1 255512 3.1060233595781028e-05</internalNodes>
      <leafValues>
        -9.6013210713863373e-02 9.2425048351287842e-02</leafValues></_>
    <_>
      <internalNodes>
        0 -1 260853 1.6385114286094904e-03</internalNodes>
      <leafValues>
        4.8155441880226135e-02 -1.8733252584934235e-01</leafValues></_>
    <_>
      <internalNodes>
        0 -1 255903 2.6624617166817188e-03</internalNodes>
      <leafValues>
        -3.9277348667383194e-02 2.5973892211914062e-01</leafValues></_>
    <_>
      <internalNodes>
        0 -1 9750 -1.8008723855018616e-03</internalNodes>
      <leafValues>
        1.3112922012805939e-01 -6.6913574934005737e-02</leafValues></_>
    <_>
      <internalNodes>
        0 -1 7691 4.1932812891900539e-03</internalNodes>
      <leafValues>
        -6.1827197670936584e-02 1.8454632163047791e-01</leafValues></_>
    <_>
      <internalNodes>
        0 -1 47609 -7.2579444386065006e-03</internalNodes>
      <leafValues>
        -2.4141761660575867e-01 3.6580838263034821e-02</leafValues></_>
    <_>
      <internalNodes>
        0 -1 70522 4.4656856334768236e-04</internalNodes>
      <leafValues>
        5.2283879369497299e-02 -1.5343113243579865e-01</leafValues></_>
    <_>
      <internalNodes>
        0 -1 87615 1.3802417088299990e-03</internalNodes>
      <leafValues>
        -8.1936322152614594e-02 1.0259342193603516e-01</leafValues></_>
    <_>
      <internalNodes>
        0 -1 70528 1.5374665381386876e-03</internalNodes>
      <leafValues>
        -8.0257110297679901e-02 1.0927464812994003e-01</leafValues></_>
    <_>
      <internalNodes>
        0 -1 3035 -3.3729501068592072e-02</internalNodes>
      <leafValues>
        -3.4610661864280701e-01 2.3252064362168312e-02</leafValues></_>
    <_>
      <internalNodes>
        0 -1 17560 -2.1335652098059654e-02</internalNodes>
      <leafValues>
        2.9267171025276184e-01 -2.8965465724468231e-02</leafValues></_>
    <_>
      <internalNodes>
        0 -1 122018 -1.9030304625630379e-02</internalNodes>
      <leafValues>
        1.3434304296970367e-01 -6.2023986130952835e-02</leafValues></_>
    <_>
      <internalNodes>
        0 -1 153909 -5.5765192955732346e-03</internalNodes>
      <leafValues>
        1.4568686485290527e-01 -6.7206874489784241e-02</leafValues></_>
    <_>
      <internalNodes>
        0 -1 219523 -2.2546523250639439e-03</internalNodes>
      <leafValues>
        1.9561593234539032e-01 -4.3580655008554459e-02</leafValues></_></weakClassifiers></stage17>
</opencv_storage>
