<?xml version="1.0"?>
<opencv_storage>
<stage1>
  <maxWeakCount>31</maxWeakCount>
  <stageThreshold>-1.3614190816879272e+00</stageThreshold>
  <weakClassifiers>
    <_>
      <internalNodes>
        0 -1 42459 -2.7953650802373886e-02</internalNodes>
      <leafValues>
        4.2043551802635193e-01 -3.7489607930183411e-01</leafValues></_>
    <_>
      <internalNodes>
        0 -1 224532 3.0608925968408585e-02</internalNodes>
      <leafValues>
        -2.2648093104362488e-01 4.3126150965690613e-01</leafValues></_>
    <_>
      <internalNodes>
        0 -1 131240 -1.1066556908190250e-02</internalNodes>
      <leafValues>
        3.8901391625404358e-01 -1.5126755833625793e-01</leafValues></_>
    <_>
      <internalNodes>
        0 -1 133373 -9.2897098511457443e-03</internalNodes>
      <leafValues>
        4.2315670847892761e-01 -2.2406296432018280e-01</leafValues></_>
    <_>
      <internalNodes>
        0 -1 76019 1.5312621369957924e-02</internalNodes>
      <leafValues>
        -1.8500426411628723e-01 3.4911733865737915e-01</leafValues></_>
    <_>
      <internalNodes>
        0 -1 260430 -8.2363244146108627e-03</internalNodes>
      <leafValues>
        3.2836431264877319e-01 -1.7516405880451202e-01</leafValues></_>
    <_>
      <internalNodes>
        0 -1 168035 -1.2834490276873112e-02</internalNodes>
      <leafValues>
        4.2399156093597412e-01 -9.9590308964252472e-02</leafValues></_>
    <_>
      <internalNodes>
        0 -1 154934 1.0835142806172371e-02</internalNodes>
      <leafValues>
        -1.6296052932739258e-01 3.3423280715942383e-01</leafValues></_>
    <_>
      <internalNodes>
        0 -1 235162 -1.7370570451021194e-02</internalNodes>
      <leafValues>
        4.3678754568099976e-01 -1.2572096288204193e-01</leafValues></_>
    <_>
      <internalNodes>
        0 -1 84334 2.6519652456045151e-02</internalNodes>
      <leafValues>
        -1.0653202980756760e-01 4.0490141510963440e-01</leafValues></_>
    <_>
      <internalNodes>
        0 -1 128936 -1.6635116189718246e-02</internalNodes>
      <leafValues>
        4.4427192211151123e-01 -8.2260295748710632e-02</leafValues></_>
    <_>
      <internalNodes>
        0 -1 1404 4.6791085042059422e-03</internalNodes>
      <leafValues>
        -1.6287891566753387e-01 2.7449157834053040e-01</leafValues></_>
    <_>
      <internalNodes>
        0 -1 235702 -8.9744795113801956e-03</internalNodes>
      <leafValues>
        3.7918099761009216e-01 -1.0604133456945419e-01</leafValues></_>
    <_>
      <internalNodes>
        0 -1 112772 2.1312130615115166e-02</internalNodes>
      <leafValues>
        -1.1390759795904160e-01 3.4977951645851135e-01</leafValues></_>
    <_>
      <internalNodes>
        0 -1 117302 3.5676021128892899e-02</internalNodes>
      <leafValues>
        -8.5518658161163330e-02 4.7153362631797791e-01</leafValues></_>
    <_>
      <internalNodes>
        0 -1 171968 -1.2278992682695389e-02</internalNodes>
      <leafValues>
        3.0937927961349487e-01 -1.0747943073511124e-01</leafValues></_>
    <_>
      <internalNodes>
        0 -1 50578 1.9733490422368050e-02</internalNodes>
      <leafValues>
        -1.0339069366455078e-01 3.4157603979110718e-01</leafValues></_>
    <_>
      <internalNodes>
        0 -1 165950 9.7081605345010757e-03</internalNodes>
      <leafValues>
        -8.4969222545623779e-02 3.7608495354652405e-01</leafValues></_>
    <_>
      <internalNodes>
        0 -1 165950 -5.2431635558605194e-03</internalNodes>
      <leafValues>
        2.9671213030815125e-01 -1.2699413299560547e-01</leafValues></_>
    <_>
      <internalNodes>
        0 -1 260056 5.4843435063958168e-03</internalNodes>
      <leafValues>
        -8.1822305917739868e-02 3.6310589313507080e-01</leafValues></_>
    <_>
      <internalNodes>
        0 -1 78619 8.0109722912311554e-03</internalNodes>
      <leafValues>
        -1.3180004060268402e-01 2.3839546740055084e-01</leafValues></_>
    <_>
      <internalNodes>
        0 -1 27699 -2.6852633804082870e-02</internalNodes>
      <leafValues>
        2.8414011001586914e-01 -1.1109545081853867e-01</leafValues></_>
    <_>
      <internalNodes>
        0 -1 184099 1.0005116462707520e-02</internalNodes>
      <leafValues>
        -9.7116999328136444e-02 3.1223392486572266e-01</leafValues></_>
    <_>
      <internalNodes>
        0 -1 49872 1.1700036004185677e-02</internalNodes>
      <leafValues>
        -9.2290267348289490e-02 3.0913373827934265e-01</leafValues></_>
    <_>
      <internalNodes>
        0 -1 82584 -1.0935121215879917e-02</internalNodes>
      <leafValues>
        3.2460072636604309e-01 -1.0945319384336472e-01</leafValues></_>
    <_>
      <internalNodes>
        0 -1 254481 -2.1552575752139091e-02</internalNodes>
      <leafValues>
        -7.5515341758728027e-01 4.1369207203388214e-02</leafValues></_>
    <_>
      <internalNodes>
        0 -1 227365 -2.2528143599629402e-03</internalNodes>
      <leafValues>
        3.6817020177841187e-01 -8.8672824203968048e-02</leafValues></_>
    <_>
      <internalNodes>
        0 -1 254487 2.4757154285907745e-02</internalNodes>
      <leafValues>
        5.8832205832004547e-02 -5.1139777898788452e-01</leafValues></_>
    <_>
      <internalNodes>
        0 -1 159711 -5.3893774747848511e-03</internalNodes>
      <leafValues>
        2.4650049209594727e-01 -1.1497259885072708e-01</leafValues></_>
    <_>
      <internalNodes>
        0 -1 258363 -1.0019276291131973e-02</internalNodes>
      <leafValues>
        -4.8183900117874146e-01 5.9592373669147491e-02</leafValues></_>
    <_>
      <internalNodes>
        0 -1 260177 -5.0534941256046295e-03</internalNodes>
      <leafValues>
        2.8708806633949280e-01 -1.0252846777439117e-01</leafValues></_></weakClassifiers></stage1>
</opencv_storage>
