<?xml version="1.0"?>
<opencv_storage>
<stage3>
  <maxWeakCount>64</maxWeakCount>
  <stageThreshold>-1.3443770408630371e+00</stageThreshold>
  <weakClassifiers>
    <_>
      <internalNodes>
        0 -1 27754 -2.1813977509737015e-02</internalNodes>
      <leafValues>
        3.0260649323463440e-01 -3.3344721794128418e-01</leafValues></_>
    <_>
      <internalNodes>
        0 -1 241657 1.7935007810592651e-02</internalNodes>
      <leafValues>
        -2.0314820110797882e-01 3.1752955913543701e-01</leafValues></_>
    <_>
      <internalNodes>
        0 -1 66861 3.2563772052526474e-02</internalNodes>
      <leafValues>
        -9.4201609492301941e-02 3.9983171224594116e-01</leafValues></_>
    <_>
      <internalNodes>
        0 -1 261152 2.4251235648989677e-02</internalNodes>
      <leafValues>
        -1.1256107687950134e-01 3.1350225210189819e-01</leafValues></_>
    <_>
      <internalNodes>
        0 -1 62148 1.1658008210361004e-02</internalNodes>
      <leafValues>
        -1.6102516651153564e-01 2.8391739726066589e-01</leafValues></_>
    <_>
      <internalNodes>
        0 -1 78432 -2.2139498963952065e-02</internalNodes>
      <leafValues>
        3.2887673377990723e-01 -7.8072063624858856e-02</leafValues></_>
    <_>
      <internalNodes>
        0 -1 18508 3.2835267484188080e-02</internalNodes>
      <leafValues>
        -8.3609849214553833e-02 4.0031549334526062e-01</leafValues></_>
    <_>
      <internalNodes>
        0 -1 163938 -6.1395848169922829e-03</internalNodes>
      <leafValues>
        3.1208574771881104e-01 -7.8756071627140045e-02</leafValues></_>
    <_>
      <internalNodes>
        0 -1 38615 9.3206569552421570e-02</internalNodes>
      <leafValues>
        5.8861237019300461e-02 -4.9201563000679016e-01</leafValues></_>
    <_>
      <internalNodes>
        0 -1 6235 -1.5288898348808289e-01</internalNodes>
      <leafValues>
        -4.5327287912368774e-01 7.5347021222114563e-02</leafValues></_>
    <_>
      <internalNodes>
        0 -1 158115 -2.5665966793894768e-02</internalNodes>
      <leafValues>
        2.8704169392585754e-01 -9.7723245620727539e-02</leafValues></_>
    <_>
      <internalNodes>
        0 -1 37188 1.8676422536373138e-02</internalNodes>
      <leafValues>
        -8.1038542091846466e-02 3.9789924025535583e-01</leafValues></_>
    <_>
      <internalNodes>
        0 -1 192589 -3.4477810841053724e-03</internalNodes>
      <leafValues>
        2.8432914614677429e-01 -8.6991190910339355e-02</leafValues></_>
    <_>
      <internalNodes>
        0 -1 167979 3.2491306774318218e-03</internalNodes>
      <leafValues>
        -1.0324694961309433e-01 3.0456382036209106e-01</leafValues></_>
    <_>
      <internalNodes>
        0 -1 136774 -3.9678551256656647e-03</internalNodes>
      <leafValues>
        2.1767330169677734e-01 -1.2062748521566391e-01</leafValues></_>
    <_>
      <internalNodes>
        0 -1 201827 2.7538718655705452e-02</internalNodes>
      <leafValues>
        -6.3788101077079773e-02 3.8786107301712036e-01</leafValues></_>
    <_>
      <internalNodes>
        0 -1 237301 -4.7917626798152924e-02</internalNodes>
      <leafValues>
        4.9738925695419312e-01 -4.8764500766992569e-02</leafValues></_>
    <_>
      <internalNodes>
        0 -1 132839 -2.3060597479343414e-02</internalNodes>
      <leafValues>
        3.9201956987380981e-01 -5.5790785700082779e-02</leafValues></_>
    <_>
      <internalNodes>
        0 -1 174050 2.9425050597637892e-03</internalNodes>
      <leafValues>
        -6.0806702822446823e-02 3.6690697073936462e-01</leafValues></_>
    <_>
      <internalNodes>
        0 -1 174050 -2.0633989479392767e-03</internalNodes>
      <leafValues>
        3.2759955525398254e-01 -8.9649826288223267e-02</leafValues></_>
    <_>
      <internalNodes>
        0 -1 126929 1.9980689510703087e-02</internalNodes>
      <leafValues>
        -7.4151016771793365e-02 3.0950650572776794e-01</leafValues></_>
    <_>
      <internalNodes>
        0 -1 155739 -2.0410809665918350e-02</internalNodes>
      <leafValues>
        3.6389604210853577e-01 -6.5593764185905457e-02</leafValues></_>
    <_>
      <internalNodes>
        0 -1 256903 -2.7277497574687004e-02</internalNodes>
      <leafValues>
        4.4041508436203003e-01 -4.8292189836502075e-02</leafValues></_>
    <_>
      <internalNodes>
        0 -1 254172 2.6362966746091843e-03</internalNodes>
      <leafValues>
        -1.5541757643222809e-01 1.6283643245697021e-01</leafValues></_>
    <_>
      <internalNodes>
        0 -1 126948 -1.9196514040231705e-02</internalNodes>
      <leafValues>
        2.8240296244621277e-01 -7.5233027338981628e-02</leafValues></_>
    <_>
      <internalNodes>
        0 -1 199586 -1.1254390329122543e-01</internalNodes>
      <leafValues>
        4.3461978435516357e-01 -4.2486310005187988e-02</leafValues></_>
    <_>
      <internalNodes>
        0 -1 254457 -1.5581794083118439e-02</internalNodes>
      <leafValues>
        -4.1462916135787964e-01 5.3863614797592163e-02</leafValues></_>
    <_>
      <internalNodes>
        0 -1 254721 1.3627803884446621e-02</internalNodes>
      <leafValues>
        2.7589891105890274e-02 -6.9941139221191406e-01</leafValues></_>
    <_>
      <internalNodes>
        0 -1 257752 3.4327344037592411e-03</internalNodes>
      <leafValues>
        -6.0116838663816452e-02 3.8107174634933472e-01</leafValues></_>
    <_>
      <internalNodes>
        0 -1 128088 -6.9410447031259537e-03</internalNodes>
      <leafValues>
        3.4548807144165039e-01 -5.7495489716529846e-02</leafValues></_>
    <_>
      <internalNodes>
        0 -1 116191 3.3805493265390396e-02</internalNodes>
      <leafValues>
        -5.5614203214645386e-02 3.6151611804962158e-01</leafValues></_>
    <_>
      <internalNodes>
        0 -1 9306 -4.6771071851253510e-02</internalNodes>
      <leafValues>
        -5.2281796932220459e-01 4.5901678502559662e-02</leafValues></_>
    <_>
      <internalNodes>
        0 -1 66681 4.0684876148588955e-04</internalNodes>
      <leafValues>
        7.8649662435054779e-02 -2.5563424825668335e-01</leafValues></_>
    <_>
      <internalNodes>
        0 -1 141966 2.4744711816310883e-02</internalNodes>
      <leafValues>
        3.1121145933866501e-02 -6.7295217514038086e-01</leafValues></_>
    <_>
      <internalNodes>
        0 -1 130927 -1.1546659283339977e-02</internalNodes>
      <leafValues>
        2.9177287220954895e-01 -7.6095625758171082e-02</leafValues></_>
    <_>
      <internalNodes>
        0 -1 260864 -6.3924416899681091e-03</internalNodes>
      <leafValues>
        4.6448323130607605e-01 -4.3224018067121506e-02</leafValues></_>
    <_>
      <internalNodes>
        0 -1 47683 7.5412150472402573e-03</internalNodes>
      <leafValues>
        -5.6732680648565292e-02 3.5482031106948853e-01</leafValues></_>
    <_>
      <internalNodes>
        0 -1 7125 7.5552225112915039e-02</internalNodes>
      <leafValues>
        5.0425007939338684e-02 -4.7342550754547119e-01</leafValues></_>
    <_>
      <internalNodes>
        0 -1 127417 -1.3801839202642441e-02</internalNodes>
      <leafValues>
        -3.2956567406654358e-01 5.5506452918052673e-02</leafValues></_>
    <_>
      <internalNodes>
        0 -1 7704 -5.2472185343503952e-03</internalNodes>
      <leafValues>
        2.4639540910720825e-01 -8.4399931132793427e-02</leafValues></_>
    <_>
      <internalNodes>
        0 -1 177326 -6.2939394265413284e-03</internalNodes>
      <leafValues>
        2.6236197352409363e-01 -7.8596249222755432e-02</leafValues></_>
    <_>
      <internalNodes>
        0 -1 165233 1.5225340612232685e-03</internalNodes>
      <leafValues>
        -1.0326374322175980e-01 2.2730395197868347e-01</leafValues></_>
    <_>
      <internalNodes>
        0 -1 29151 -8.4677301347255707e-03</internalNodes>
      <leafValues>
        -5.7378810644149780e-01 3.7531673908233643e-02</leafValues></_>
    <_>
      <internalNodes>
        0 -1 191048 1.5730401873588562e-01</internalNodes>
      <leafValues>
        2.0042020827531815e-02 -7.4067336320877075e-01</leafValues></_>
    <_>
      <internalNodes>
        0 -1 211686 1.6455169767141342e-02</internalNodes>
      <leafValues>
        -5.9580542147159576e-02 3.4260717034339905e-01</leafValues></_>
    <_>
      <internalNodes>
        0 -1 243600 -4.6856489032506943e-02</internalNodes>
      <leafValues>
        -4.2187812924385071e-01 5.0638727843761444e-02</leafValues></_>
    <_>
      <internalNodes>
        0 -1 242707 -8.2545876502990723e-03</internalNodes>
      <leafValues>
        2.3163163661956787e-01 -8.5788868367671967e-02</leafValues></_>
    <_>
      <internalNodes>
        0 -1 260358 1.6570549923926592e-03</internalNodes>
      <leafValues>
        8.1287793815135956e-02 -2.4341534078121185e-01</leafValues></_>
    <_>
      <internalNodes>
        0 -1 188964 4.5788581483066082e-03</internalNodes>
      <leafValues>
        -8.7106280028820038e-02 2.3705834150314331e-01</leafValues></_>
    <_>
      <internalNodes>
        0 -1 33839 4.5760493958368897e-04</internalNodes>
      <leafValues>
        8.1758372485637665e-02 -2.3836444318294525e-01</leafValues></_>
    <_>
      <internalNodes>
        0 -1 85517 -2.8782485052943230e-02</internalNodes>
      <leafValues>
        3.1532743573188782e-01 -6.3517212867736816e-02</leafValues></_>
    <_>
      <internalNodes>
        0 -1 11072 2.2106043994426727e-02</internalNodes>
      <leafValues>
        6.9188542664051056e-02 -3.0327576398849487e-01</leafValues></_>
    <_>
      <internalNodes>
        0 -1 3835 1.3036170974373817e-02</internalNodes>
      <leafValues>
        -1.0849083214998245e-01 1.8022517859935760e-01</leafValues></_>
    <_>
      <internalNodes>
        0 -1 80868 7.5573916547000408e-03</internalNodes>
      <leafValues>
        -7.9841002821922302e-02 2.2769968211650848e-01</leafValues></_>
    <_>
      <internalNodes>
        0 -1 110783 4.8515824601054192e-03</internalNodes>
      <leafValues>
        -9.7677282989025116e-02 2.3879003524780273e-01</leafValues></_>
    <_>
      <internalNodes>
        0 -1 11015 -4.5076459646224976e-02</internalNodes>
      <leafValues>
        3.2742655277252197e-01 -6.0425627976655960e-02</leafValues></_>
    <_>
      <internalNodes>
        0 -1 48186 1.8174825236201286e-02</internalNodes>
      <leafValues>
        5.6054122745990753e-02 -3.9285624027252197e-01</leafValues></_>
    <_>
      <internalNodes>
        0 -1 182343 5.0678998231887817e-02</internalNodes>
      <leafValues>
        -4.3913189321756363e-02 4.5584192872047424e-01</leafValues></_>
    <_>
      <internalNodes>
        0 -1 223577 1.3411385007202625e-03</internalNodes>
      <leafValues>
        -8.1898510456085205e-02 2.4155543744564056e-01</leafValues></_>
    <_>
      <internalNodes>
        0 -1 203766 4.3189795687794685e-03</internalNodes>
      <leafValues>
        -6.6203407943248749e-02 2.7755549550056458e-01</leafValues></_>
    <_>
      <internalNodes>
        0 -1 157541 -9.4749946147203445e-03</internalNodes>
      <leafValues>
        -4.3708461523056030e-01 4.3584261089563370e-02</leafValues></_>
    <_>
      <internalNodes>
        0 -1 256207 5.9804238844662905e-04</internalNodes>
      <leafValues>
        6.6897645592689514e-02 -2.6180472970008850e-01</leafValues></_>
    <_>
      <internalNodes>
        0 -1 167954 -1.0818500071763992e-02</internalNodes>
      <leafValues>
        3.1281465291976929e-01 -6.2979899346828461e-02</leafValues></_>
    <_>
      <internalNodes>
        0 -1 243125 7.5915474444627762e-03</internalNodes>
      <leafValues>
        -1.2539291381835938e-01 1.3752520084381104e-01</leafValues></_></weakClassifiers></stage3>
</opencv_storage>
