<?xml version="1.0"?>
<opencv_storage>
<cascade>
  <stageType>BOOST</stageType>
  <featureType>HAAR</featureType>
  <height>24</height>
  <width>24</width>
  <stageParams>
    <boostType>GAB</boostType>
    <minHitRate>9.9500000476837158e-01</minHitRate>
    <maxFalseAlarm>5.0000000000000000e-01</maxFalseAlarm>
    <weightTrimRate>9.4999999999999996e-01</weightTrimRate>
    <maxDepth>1</maxDepth>
    <maxWeakCount>100</maxWeakCount></stageParams>
  <featureParams>
    <maxCatCount>0</maxCatCount>
    <featSize>1</featSize>
    <mode>ALL</mode></featureParams>
  <stageNum>20</stageNum>
  <stages>
    <!-- stage 0 -->
    <_>
      <maxWeakCount>23</maxWeakCount>
      <stageThreshold>-1.4680578708648682e+00</stageThreshold>
      <weakClassifiers>
        <_>
          <internalNodes>
            0 -1 89 -7.1734771132469177e-02</internalNodes>
          <leafValues>
            4.9600490927696228e-01 -4.5492517948150635e-01</leafValues></_>
        <_>
          <internalNodes>
            0 -1 44 1.9989266991615295e-02</internalNodes>
          <leafValues>
            -2.1847650408744812e-01 4.6898496150970459e-01</leafValues></_>
        <_>
          <internalNodes>
            0 -1 1194 -2.5743588805198669e-02</internalNodes>
          <leafValues>
            5.6324023008346558e-01 -1.3970902562141418e-01</leafValues></_>
        <_>
          <internalNodes>
            0 -1 354 3.5668931901454926e-02</internalNodes>
          <leafValues>
            -1.6842186450958252e-01 5.7098770141601562e-01</leafValues></_>
        <_>
          <internalNodes>
            0 -1 1547 3.3147040754556656e-02</internalNodes>
          <leafValues>
            -9.6595212817192078e-02 6.4745324850082397e-01</leafValues></_>
        <_>
          <internalNodes>
            0 -1 1187 3.2716996967792511e-02</internalNodes>
          <leafValues>
            -1.0870087146759033e-01 5.8185672760009766e-01</leafValues></_>
        <_>
          <internalNodes>
            0 -1 1365 1.0286446660757065e-02</internalNodes>
          <leafValues>
            -8.1309624016284943e-02 5.8650654554367065e-01</leafValues></_>
        <_>
          <internalNodes>
            0 -1 540 1.4231825247406960e-02</internalNodes>
          <leafValues>
            -1.4730615913867950e-01 3.7138685584068298e-01</leafValues></_>
        <_>
          <internalNodes>
            0 -1 635 -2.3847738280892372e-02</internalNodes>
          <leafValues>
            4.7025552392005920e-01 -1.2486689537763596e-01</leafValues></_>
        <_>
          <internalNodes>
            0 -1 401 2.4514142423868179e-02</internalNodes>
          <leafValues>
            -1.3286182284355164e-01 4.6524319052696228e-01</leafValues></_>
        <_>
          <internalNodes>
            0 -1 1138 -9.4582047313451767e-03</internalNodes>
          <leafValues>
            3.2953825592994690e-01 -1.7465847730636597e-01</leafValues></_>
        <_>
          <internalNodes>
            0 -1 715 3.1554296612739563e-02</internalNodes>
          <leafValues>
            -4.2487669736146927e-02 5.1060539484024048e-01</leafValues></_>
        <_>
          <internalNodes>
            0 -1 511 2.7219625189900398e-02</internalNodes>
          <leafValues>
            -1.5699118375778198e-01 3.7565404176712036e-01</leafValues></_>
        <_>
          <internalNodes>
            0 -1 74 -1.0613283514976501e-01</internalNodes>
          <leafValues>
            -5.3236949443817139e-01 1.1011301726102829e-01</leafValues></_>
        <_>
          <internalNodes>
            0 -1 1198 2.4824354797601700e-02</internalNodes>
          <leafValues>
            -1.4159817993640900e-01 3.7965616583824158e-01</leafValues></_>
        <_>
          <internalNodes>
            0 -1 1218 -1.5230782330036163e-02</internalNodes>
          <leafValues>
            5.5351823568344116e-01 -4.9084477126598358e-02</leafValues></_>
        <_>
          <internalNodes>
            0 -1 629 2.4264594539999962e-02</internalNodes>
          <leafValues>
            -8.5592240095138550e-02 4.5894300937652588e-01</leafValues></_>
        <_>
          <internalNodes>
            0 -1 752 -1.0802485980093479e-02</internalNodes>
          <leafValues>
            2.7596279978752136e-01 -1.5681143105030060e-01</leafValues></_>
        <_>
          <internalNodes>
            0 -1 75 5.4479904472827911e-02</internalNodes>
          <leafValues>
            6.7346982657909393e-02 -5.9895271062850952e-01</leafValues></_>
        <_>
          <internalNodes>
            0 -1 670 -1.9431941211223602e-02</internalNodes>
          <leafValues>
            4.8150008916854858e-01 -9.4349943101406097e-02</leafValues></_>
        <_>
          <internalNodes>
            0 -1 1160 -1.2281315028667450e-01</internalNodes>
          <leafValues>
            -7.5254708528518677e-01 5.7675484567880630e-02</leafValues></_>
        <_>
          <internalNodes>
            0 -1 1418 2.0426367409527302e-03</internalNodes>
          <leafValues>
            9.2759504914283752e-02 -3.6847284436225891e-01</leafValues></_>
        <_>
          <internalNodes>
            0 -1 1300 -2.7041204273700714e-02</internalNodes>
          <leafValues>
            4.2221021652221680e-01 -8.9982420206069946e-02</leafValues></_></weakClassifiers></_>
    <!-- stage 1 -->
    <_>
      <maxWeakCount>31</maxWeakCount>
      <stageThreshold>-1.3614190816879272e+00</stageThreshold>
      <weakClassifiers>
        <_>
          <internalNodes>
            0 -1 283 -2.7953650802373886e-02</internalNodes>
          <leafValues>
            4.2043551802635193e-01 -3.7489607930183411e-01</leafValues></_>
        <_>
          <internalNodes>
            0 -1 1120 3.0608925968408585e-02</internalNodes>
          <leafValues>
            -2.2648093104362488e-01 4.3126150965690613e-01</leafValues></_>
        <_>
          <internalNodes>
            0 -1 698 -1.1066556908190250e-02</internalNodes>
          <leafValues>
            3.8901391625404358e-01 -1.5126755833625793e-01</leafValues></_>
        <_>
          <internalNodes>
            0 -1 706 -9.2897098511457443e-03</internalNodes>
          <leafValues>
            4.2315670847892761e-01 -2.2406296432018280e-01</leafValues></_>
        <_>
          <internalNodes>
            0 -1 433 1.5312621369957924e-02</internalNodes>
          <leafValues>
            -1.8500426411628723e-01 3.4911733865737915e-01</leafValues></_>
        <_>
          <internalNodes>
            0 -1 1509 -8.2363244146108627e-03</internalNodes>
          <leafValues>
            3.2836431264877319e-01 -1.7516405880451202e-01</leafValues></_>
        <_>
          <internalNodes>
            0 -1 880 -1.2834490276873112e-02</internalNodes>
          <leafValues>
            4.2399156093597412e-01 -9.9590308964252472e-02</leafValues></_>
        <_>
          <internalNodes>
            0 -1 794 1.0835142806172371e-02</internalNodes>
          <leafValues>
            -1.6296052932739258e-01 3.3423280715942383e-01</leafValues></_>
        <_>
          <internalNodes>
            0 -1 1164 -1.7370570451021194e-02</internalNodes>
          <leafValues>
            4.3678754568099976e-01 -1.2572096288204193e-01</leafValues></_>
        <_>
          <internalNodes>
            0 -1 487 2.6519652456045151e-02</internalNodes>
          <leafValues>
            -1.0653202980756760e-01 4.0490141510963440e-01</leafValues></_>
        <_>
          <internalNodes>
            0 -1 686 -1.6635116189718246e-02</internalNodes>
          <leafValues>
            4.4427192211151123e-01 -8.2260295748710632e-02</leafValues></_>
        <_>
          <internalNodes>
            0 -1 17 4.6791085042059422e-03</internalNodes>
          <leafValues>
            -1.6287891566753387e-01 2.7449157834053040e-01</leafValues></_>
        <_>
          <internalNodes>
            0 -1 1166 -8.9744795113801956e-03</internalNodes>
          <leafValues>
            3.7918099761009216e-01 -1.0604133456945419e-01</leafValues></_>
        <_>
          <internalNodes>
            0 -1 602 2.1312130615115166e-02</internalNodes>
          <leafValues>
            -1.1390759795904160e-01 3.4977951645851135e-01</leafValues></_>
        <_>
          <internalNodes>
            0 -1 638 3.5676021128892899e-02</internalNodes>
          <leafValues>
            -8.5518658161163330e-02 4.7153362631797791e-01</leafValues></_>
        <_>
          <internalNodes>
            0 -1 901 -1.2278992682695389e-02</internalNodes>
          <leafValues>
            3.0937927961349487e-01 -1.0747943073511124e-01</leafValues></_>
        <_>
          <internalNodes>
            0 -1 331 1.9733490422368050e-02</internalNodes>
          <leafValues>
            -1.0339069366455078e-01 3.4157603979110718e-01</leafValues></_>
        <_>
          <internalNodes>
            0 -1 860 9.7081605345010757e-03</internalNodes>
          <leafValues>
            -8.4969222545623779e-02 3.7608495354652405e-01</leafValues></_>
        <_>
          <internalNodes>
            0 -1 860 -5.2431635558605194e-03</internalNodes>
          <leafValues>
            2.9671213030815125e-01 -1.2699413299560547e-01</leafValues></_>
        <_>
          <internalNodes>
            0 -1 1491 5.4843435063958168e-03</internalNodes>
          <leafValues>
            -8.1822305917739868e-02 3.6310589313507080e-01</leafValues></_>
        <_>
          <internalNodes>
            0 -1 445 8.0109722912311554e-03</internalNodes>
          <leafValues>
            -1.3180004060268402e-01 2.3839546740055084e-01</leafValues></_>
        <_>
          <internalNodes>
            0 -1 212 -2.6852633804082870e-02</internalNodes>
          <leafValues>
            2.8414011001586914e-01 -1.1109545081853867e-01</leafValues></_>
        <_>
          <internalNodes>
            0 -1 960 1.0005116462707520e-02</internalNodes>
          <leafValues>
            -9.7116999328136444e-02 3.1223392486572266e-01</leafValues></_>
        <_>
          <internalNodes>
            0 -1 324 1.1700036004185677e-02</internalNodes>
          <leafValues>
            -9.2290267348289490e-02 3.0913373827934265e-01</leafValues></_>
        <_>
          <internalNodes>
            0 -1 478 -1.0935121215879917e-02</internalNodes>
          <leafValues>
            3.2460072636604309e-01 -1.0945319384336472e-01</leafValues></_>
        <_>
          <internalNodes>
            0 -1 1322 -2.1552575752139091e-02</internalNodes>
          <leafValues>
            -7.5515341758728027e-01 4.1369207203388214e-02</leafValues></_>
        <_>
          <internalNodes>
            0 -1 1130 -2.2528143599629402e-03</internalNodes>
          <leafValues>
            3.6817020177841187e-01 -8.8672824203968048e-02</leafValues></_>
        <_>
          <internalNodes>
            0 -1 1323 2.4757154285907745e-02</internalNodes>
          <leafValues>
            5.8832205832004547e-02 -5.1139777898788452e-01</leafValues></_>
        <_>
          <internalNodes>
            0 -1 827 -5.3893774747848511e-03</internalNodes>
          <leafValues>
            2.4650049209594727e-01 -1.1497259885072708e-01</leafValues></_>
        <_>
          <internalNodes>
            0 -1 1423 -1.0019276291131973e-02</internalNodes>
          <leafValues>
            -4.8183900117874146e-01 5.9592373669147491e-02</leafValues></_>
        <_>
          <internalNodes>
            0 -1 1495 -5.0534941256046295e-03</internalNodes>
          <leafValues>
            2.8708806633949280e-01 -1.0252846777439117e-01</leafValues></_></weakClassifiers></_>
    <!-- stage 2 -->
    <_>
      <maxWeakCount>51</maxWeakCount>
      <stageThreshold>-1.3677284717559814e+00</stageThreshold>
      <weakClassifiers>
        <_>
          <internalNodes>
            0 -1 108 -9.6041202545166016e-02</internalNodes>
          <leafValues>
            4.2747560143470764e-01 -3.6301368474960327e-01</leafValues></_>
        <_>
          <internalNodes>
            0 -1 1142 -4.1139744222164154e-02</internalNodes>
          <leafValues>
            4.2746856808662415e-01 -1.4056929945945740e-01</leafValues></_>
        <_>
          <internalNodes>
            0 -1 433 -4.4693294912576675e-02</internalNodes>
          <leafValues>
            4.8631703853607178e-01 -1.0400251299142838e-01</leafValues></_>
        <_>
          <internalNodes>
            0 -1 358 1.3601565733551979e-02</internalNodes>
          <leafValues>
            -1.7496939003467560e-01 3.6512562632560730e-01</leafValues></_>
        <_>
          <internalNodes>
            0 -1 1462 -1.7708573490381241e-02</internalNodes>
          <leafValues>
            5.6823736429214478e-01 -5.5350948125123978e-02</leafValues></_>
        <_>
          <internalNodes>
            0 -1 1135 2.3064613342285156e-02</internalNodes>
          <leafValues>
            -1.2894399464130402e-01 3.8289570808410645e-01</leafValues></_>
        <_>
          <internalNodes>
            0 -1 1490 -6.4116972498595715e-03</internalNodes>
          <leafValues>
            7.1978235244750977e-01 -4.4812906533479691e-02</leafValues></_>
        <_>
          <internalNodes>
            0 -1 1295 -2.7376571670174599e-02</internalNodes>
          <leafValues>
            6.2862080335617065e-01 -4.0159594267606735e-02</leafValues></_>
        <_>
          <internalNodes>
            0 -1 5 1.3988967984914780e-02</internalNodes>
          <leafValues>
            -1.2520273029804230e-01 2.5917410850524902e-01</leafValues></_>
        <_>
          <internalNodes>
            0 -1 1120 -3.2386932522058487e-02</internalNodes>
          <leafValues>
            3.3795338869094849e-01 -8.9263267815113068e-02</leafValues></_>
        <_>
          <internalNodes>
            0 -1 1045 -3.7554584443569183e-02</internalNodes>
          <leafValues>
            3.2911553978919983e-01 -8.1317335367202759e-02</leafValues></_>
        <_>
          <internalNodes>
            0 -1 694 -3.2008297741413116e-02</internalNodes>
          <leafValues>
            3.2858729362487793e-01 -9.3527086079120636e-02</leafValues></_>
        <_>
          <internalNodes>
            0 -1 603 -3.6353331059217453e-02</internalNodes>
          <leafValues>
            3.9006114006042480e-01 -6.0534309595823288e-02</leafValues></_>
        <_>
          <internalNodes>
            0 -1 731 -1.4932870864868164e-02</internalNodes>
          <leafValues>
            2.9549118876457214e-01 -1.3923555612564087e-01</leafValues></_>
        <_>
          <internalNodes>
            0 -1 692 2.5292888283729553e-02</internalNodes>
          <leafValues>
            -8.5777275264263153e-02 3.4284076094627380e-01</leafValues></_>
        <_>
          <internalNodes>
            0 -1 228 8.3846058696508408e-03</internalNodes>
          <leafValues>
            6.7404702305793762e-02 -4.0812039375305176e-01</leafValues></_>
        <_>
          <internalNodes>
            0 -1 415 2.5002567097544670e-02</internalNodes>
          <leafValues>
            -7.8375197947025299e-02 3.6449331045150757e-01</leafValues></_>
        <_>
          <internalNodes>
            0 -1 1089 7.2054280899465084e-03</internalNodes>
          <leafValues>
            -7.0347905158996582e-02 3.3460351824760437e-01</leafValues></_>
        <_>
          <internalNodes>
            0 -1 1030 -3.6746093537658453e-03</internalNodes>
          <leafValues>
            4.4478252530097961e-01 -5.2862610667943954e-02</leafValues></_>
        <_>
          <internalNodes>
            0 -1 493 4.2650274932384491e-02</internalNodes>
          <leafValues>
            -4.7440972179174423e-02 4.7708740830421448e-01</leafValues></_>
        <_>
          <internalNodes>
            0 -1 798 -2.4511467665433884e-02</internalNodes>
          <leafValues>
            3.5417062044143677e-01 -6.9807864725589752e-02</leafValues></_>
        <_>
          <internalNodes>
            0 -1 796 3.0479928478598595e-02</internalNodes>
          <leafValues>
            -8.4824703633785248e-02 3.6111006140708923e-01</leafValues></_>
        <_>
          <internalNodes>
            0 -1 833 4.6235993504524231e-03</internalNodes>
          <leafValues>
            -9.3737229704856873e-02 2.6691538095474243e-01</leafValues></_>
        <_>
          <internalNodes>
            0 -1 125 1.4550149440765381e-02</internalNodes>
          <leafValues>
            3.6365795880556107e-02 -6.1538428068161011e-01</leafValues></_>
        <_>
          <internalNodes>
            0 -1 105 1.4659406617283821e-02</internalNodes>
          <leafValues>
            4.4114496558904648e-02 -5.7970488071441650e-01</leafValues></_>
        <_>
          <internalNodes>
            0 -1 1546 2.1560747176408768e-02</internalNodes>
          <leafValues>
            -6.5928518772125244e-02 3.7113267183303833e-01</leafValues></_>
        <_>
          <internalNodes>
            0 -1 1304 5.1973853260278702e-03</internalNodes>
          <leafValues>
            1.0431028157472610e-01 -2.5048822164535522e-01</leafValues></_>
        <_>
          <internalNodes>
            0 -1 1336 8.6176162585616112e-03</internalNodes>
          <leafValues>
            4.8553358763456345e-02 -4.9212679266929626e-01</leafValues></_>
        <_>
          <internalNodes>
            0 -1 1536 -3.3363520633429289e-03</internalNodes>
          <leafValues>
            5.4767888784408569e-01 -5.2548520267009735e-02</leafValues></_>
        <_>
          <internalNodes>
            0 -1 741 -3.8705155253410339e-02</internalNodes>
          <leafValues>
            3.7157335877418518e-01 -6.0367662459611893e-02</leafValues></_>
        <_>
          <internalNodes>
            0 -1 1391 -4.1371677070856094e-03</internalNodes>
          <leafValues>
            7.1094244718551636e-01 -2.5712117552757263e-02</leafValues></_>
        <_>
          <internalNodes>
            0 -1 938 -4.8826420679688454e-03</internalNodes>
          <leafValues>
            -4.0761741995811462e-01 5.7621009647846222e-02</leafValues></_>
        <_>
          <internalNodes>
            0 -1 292 -1.7532432451844215e-02</internalNodes>
          <leafValues>
            2.2115015983581543e-01 -1.0002738982439041e-01</leafValues></_>
        <_>
          <internalNodes>
            0 -1 1421 -5.7345614768564701e-03</internalNodes>
          <leafValues>
            -3.1345459818840027e-01 7.3109544813632965e-02</leafValues></_>
        <_>
          <internalNodes>
            0 -1 1413 5.6835012510418892e-03</internalNodes>
          <leafValues>
            7.2469823062419891e-02 -3.1869813799858093e-01</leafValues></_>
        <_>
          <internalNodes>
            0 -1 769 2.3470439016819000e-02</internalNodes>
          <leafValues>
            -1.1336259543895721e-01 2.0588074624538422e-01</leafValues></_>
        <_>
          <internalNodes>
            0 -1 809 8.8504124432802200e-03</internalNodes>
          <leafValues>
            -7.8314669430255890e-02 2.7874970436096191e-01</leafValues></_>
        <_>
          <internalNodes>
            0 -1 834 2.0555625669658184e-03</internalNodes>
          <leafValues>
            -7.5678177177906036e-02 2.8152093291282654e-01</leafValues></_>
        <_>
          <internalNodes>
            0 -1 20 -1.2652995064854622e-03</internalNodes>
          <leafValues>
            -4.4348207116127014e-01 5.2280049771070480e-02</leafValues></_>
        <_>
          <internalNodes>
            0 -1 1211 1.1032592505216599e-02</internalNodes>
          <leafValues>
            -1.2577413022518158e-01 1.9111119210720062e-01</leafValues></_>
        <_>
          <internalNodes>
            0 -1 1140 2.5152038782835007e-02</internalNodes>
          <leafValues>
            -7.0611022412776947e-02 3.6436203122138977e-01</leafValues></_>
        <_>
          <internalNodes>
            0 -1 1197 -1.4241519384086132e-02</internalNodes>
          <leafValues>
            2.3161877691745758e-01 -9.5061384141445160e-02</leafValues></_>
        <_>
          <internalNodes>
            0 -1 591 3.2998979091644287e-02</internalNodes>
          <leafValues>
            -6.6159643232822418e-02 3.5917139053344727e-01</leafValues></_>
        <_>
          <internalNodes>
            0 -1 466 1.0428780689835548e-02</internalNodes>
          <leafValues>
            -6.6159799695014954e-02 3.1507918238639832e-01</leafValues></_>
        <_>
          <internalNodes>
            0 -1 424 1.2175807356834412e-01</internalNodes>
          <leafValues>
            3.3371776342391968e-02 -6.4788305759429932e-01</leafValues></_>
        <_>
          <internalNodes>
            0 -1 414 -5.6913789361715317e-02</internalNodes>
          <leafValues>
            -3.6219239234924316e-01 5.3161304444074631e-02</leafValues></_>
        <_>
          <internalNodes>
            0 -1 210 -5.2214888855814934e-03</internalNodes>
          <leafValues>
            -3.3675065636634827e-01 6.5348476171493530e-02</leafValues></_>
        <_>
          <internalNodes>
            0 -1 137 -3.2695032656192780e-02</internalNodes>
          <leafValues>
            3.2585516571998596e-01 -6.4262837171554565e-02</leafValues></_>
        <_>
          <internalNodes>
            0 -1 388 -1.1707924306392670e-02</internalNodes>
          <leafValues>
            -4.2728045582771301e-01 5.4977912455797195e-02</leafValues></_>
        <_>
          <internalNodes>
            0 -1 725 2.0125368610024452e-03</internalNodes>
          <leafValues>
            -9.0282380580902100e-02 2.5641310214996338e-01</leafValues></_>
        <_>
          <internalNodes>
            0 -1 1067 1.7718591261655092e-03</internalNodes>
          <leafValues>
            7.2997465729713440e-02 -2.9345047473907471e-01</leafValues></_></weakClassifiers></_>
    <!-- stage 3 -->
    <_>
      <maxWeakCount>64</maxWeakCount>
      <stageThreshold>-1.3443770408630371e+00</stageThreshold>
      <weakClassifiers>
        <_>
          <internalNodes>
            0 -1 213 -2.1813977509737015e-02</internalNodes>
          <leafValues>
            3.0260649323463440e-01 -3.3344721794128418e-01</leafValues></_>
        <_>
          <internalNodes>
            0 -1 1191 1.7935007810592651e-02</internalNodes>
          <leafValues>
            -2.0314820110797882e-01 3.1752955913543701e-01</leafValues></_>
        <_>
          <internalNodes>
            0 -1 393 3.2563772052526474e-02</internalNodes>
          <leafValues>
            -9.4201609492301941e-02 3.9983171224594116e-01</leafValues></_>
        <_>
          <internalNodes>
            0 -1 1550 2.4251235648989677e-02</internalNodes>
          <leafValues>
            -1.1256107687950134e-01 3.1350225210189819e-01</leafValues></_>
        <_>
          <internalNodes>
            0 -1 365 1.1658008210361004e-02</internalNodes>
          <leafValues>
            -1.6102516651153564e-01 2.8391739726066589e-01</leafValues></_>
        <_>
          <internalNodes>
            0 -1 444 -2.2139498963952065e-02</internalNodes>
          <leafValues>
            3.2887673377990723e-01 -7.8072063624858856e-02</leafValues></_>
        <_>
          <internalNodes>
            0 -1 176 3.2835267484188080e-02</internalNodes>
          <leafValues>
            -8.3609849214553833e-02 4.0031549334526062e-01</leafValues></_>
        <_>
          <internalNodes>
            0 -1 844 -6.1395848169922829e-03</internalNodes>
          <leafValues>
            3.1208574771881104e-01 -7.8756071627140045e-02</leafValues></_>
        <_>
          <internalNodes>
            0 -1 268 9.3206569552421570e-02</internalNodes>
          <leafValues>
            5.8861237019300461e-02 -4.9201563000679016e-01</leafValues></_>
        <_>
          <internalNodes>
            0 -1 47 -1.5288898348808289e-01</internalNodes>
          <leafValues>
            -4.5327287912368774e-01 7.5347021222114563e-02</leafValues></_>
        <_>
          <internalNodes>
            0 -1 817 -2.5665966793894768e-02</internalNodes>
          <leafValues>
            2.8704169392585754e-01 -9.7723245620727539e-02</leafValues></_>
        <_>
          <internalNodes>
            0 -1 264 1.8676422536373138e-02</internalNodes>
          <leafValues>
            -8.1038542091846466e-02 3.9789924025535583e-01</leafValues></_>
        <_>
          <internalNodes>
            0 -1 1006 -3.4477810841053724e-03</internalNodes>
          <leafValues>
            2.8432914614677429e-01 -8.6991190910339355e-02</leafValues></_>
        <_>
          <internalNodes>
            0 -1 879 3.2491306774318218e-03</internalNodes>
          <leafValues>
            -1.0324694961309433e-01 3.0456382036209106e-01</leafValues></_>
        <_>
          <internalNodes>
            0 -1 716 -3.9678551256656647e-03</internalNodes>
          <leafValues>
            2.1767330169677734e-01 -1.2062748521566391e-01</leafValues></_>
        <_>
          <internalNodes>
            0 -1 1050 2.7538718655705452e-02</internalNodes>
          <leafValues>
            -6.3788101077079773e-02 3.8786107301712036e-01</leafValues></_>
        <_>
          <internalNodes>
            0 -1 1170 -4.7917626798152924e-02</internalNodes>
          <leafValues>
            4.9738925695419312e-01 -4.8764500766992569e-02</leafValues></_>
        <_>
          <internalNodes>
            0 -1 705 -2.3060597479343414e-02</internalNodes>
          <leafValues>
            3.9201956987380981e-01 -5.5790785700082779e-02</leafValues></_>
        <_>
          <internalNodes>
            0 -1 904 2.9425050597637892e-03</internalNodes>
          <leafValues>
            -6.0806702822446823e-02 3.6690697073936462e-01</leafValues></_>
        <_>
          <internalNodes>
            0 -1 904 -2.0633989479392767e-03</internalNodes>
          <leafValues>
            3.2759955525398254e-01 -8.9649826288223267e-02</leafValues></_>
        <_>
          <internalNodes>
            0 -1 663 1.9980689510703087e-02</internalNodes>
          <leafValues>
            -7.4151016771793365e-02 3.0950650572776794e-01</leafValues></_>
        <_>
          <internalNodes>
            0 -1 800 -2.0410809665918350e-02</internalNodes>
          <leafValues>
            3.6389604210853577e-01 -6.5593764185905457e-02</leafValues></_>
        <_>
          <internalNodes>
            0 -1 1370 -2.7277497574687004e-02</internalNodes>
          <leafValues>
            4.4041508436203003e-01 -4.8292189836502075e-02</leafValues></_>
        <_>
          <internalNodes>
            0 -1 1314 2.6362966746091843e-03</internalNodes>
          <leafValues>
            -1.5541757643222809e-01 1.6283643245697021e-01</leafValues></_>
        <_>
          <internalNodes>
            0 -1 664 -1.9196514040231705e-02</internalNodes>
          <leafValues>
            2.8240296244621277e-01 -7.5233027338981628e-02</leafValues></_>
        <_>
          <internalNodes>
            0 -1 1037 -1.1254390329122543e-01</internalNodes>
          <leafValues>
            4.3461978435516357e-01 -4.2486310005187988e-02</leafValues></_>
        <_>
          <internalNodes>
            0 -1 1321 -1.5581794083118439e-02</internalNodes>
          <leafValues>
            -4.1462916135787964e-01 5.3863614797592163e-02</leafValues></_>
        <_>
          <internalNodes>
            0 -1 1327 1.3627803884446621e-02</internalNodes>
          <leafValues>
            2.7589891105890274e-02 -6.9941139221191406e-01</leafValues></_>
        <_>
          <internalNodes>
            0 -1 1392 3.4327344037592411e-03</internalNodes>
          <leafValues>
            -6.0116838663816452e-02 3.8107174634933472e-01</leafValues></_>
        <_>
          <internalNodes>
            0 -1 679 -6.9410447031259537e-03</internalNodes>
          <leafValues>
            3.4548807144165039e-01 -5.7495489716529846e-02</leafValues></_>
        <_>
          <internalNodes>
            0 -1 632 3.3805493265390396e-02</internalNodes>
          <leafValues>
            -5.5614203214645386e-02 3.6151611804962158e-01</leafValues></_>
        <_>
          <internalNodes>
            0 -1 92 -4.6771071851253510e-02</internalNodes>
          <leafValues>
            -5.2281796932220459e-01 4.5901678502559662e-02</leafValues></_>
        <_>
          <internalNodes>
            0 -1 392 4.0684876148588955e-04</internalNodes>
          <leafValues>
            7.8649662435054779e-02 -2.5563424825668335e-01</leafValues></_>
        <_>
          <internalNodes>
            0 -1 740 2.4744711816310883e-02</internalNodes>
          <leafValues>
            3.1121145933866501e-02 -6.7295217514038086e-01</leafValues></_>
        <_>
          <internalNodes>
            0 -1 696 -1.1546659283339977e-02</internalNodes>
          <leafValues>
            2.9177287220954895e-01 -7.6095625758171082e-02</leafValues></_>
        <_>
          <internalNodes>
            0 -1 1539 -6.3924416899681091e-03</internalNodes>
          <leafValues>
            4.6448323130607605e-01 -4.3224018067121506e-02</leafValues></_>
        <_>
          <internalNodes>
            0 -1 313 7.5412150472402573e-03</internalNodes>
          <leafValues>
            -5.6732680648565292e-02 3.5482031106948853e-01</leafValues></_>
        <_>
          <internalNodes>
            0 -1 55 7.5552225112915039e-02</internalNodes>
          <leafValues>
            5.0425007939338684e-02 -4.7342550754547119e-01</leafValues></_>
        <_>
          <internalNodes>
            0 -1 673 -1.3801839202642441e-02</internalNodes>
          <leafValues>
            -3.2956567406654358e-01 5.5506452918052673e-02</leafValues></_>
        <_>
          <internalNodes>
            0 -1 64 -5.2472185343503952e-03</internalNodes>
          <leafValues>
            2.4639540910720825e-01 -8.4399931132793427e-02</leafValues></_>
        <_>
          <internalNodes>
            0 -1 914 -6.2939394265413284e-03</internalNodes>
          <leafValues>
            2.6236197352409363e-01 -7.8596249222755432e-02</leafValues></_>
        <_>
          <internalNodes>
            0 -1 855 1.5225340612232685e-03</internalNodes>
          <leafValues>
            -1.0326374322175980e-01 2.2730395197868347e-01</leafValues></_>
        <_>
          <internalNodes>
            0 -1 227 -8.4677301347255707e-03</internalNodes>
          <leafValues>
            -5.7378810644149780e-01 3.7531673908233643e-02</leafValues></_>
        <_>
          <internalNodes>
            0 -1 999 1.5730401873588562e-01</internalNodes>
          <leafValues>
            2.0042020827531815e-02 -7.4067336320877075e-01</leafValues></_>
        <_>
          <internalNodes>
            0 -1 1090 1.6455169767141342e-02</internalNodes>
          <leafValues>
            -5.9580542147159576e-02 3.4260717034339905e-01</leafValues></_>
        <_>
          <internalNodes>
            0 -1 1212 -4.6856489032506943e-02</internalNodes>
          <leafValues>
            -4.2187812924385071e-01 5.0638727843761444e-02</leafValues></_>
        <_>
          <internalNodes>
            0 -1 1201 -8.2545876502990723e-03</internalNodes>
          <leafValues>
            2.3163163661956787e-01 -8.5788868367671967e-02</leafValues></_>
        <_>
          <internalNodes>
            0 -1 1506 1.6570549923926592e-03</internalNodes>
          <leafValues>
            8.1287793815135956e-02 -2.4341534078121185e-01</leafValues></_>
        <_>
          <internalNodes>
            0 -1 980 4.5788581483066082e-03</internalNodes>
          <leafValues>
            -8.7106280028820038e-02 2.3705834150314331e-01</leafValues></_>
        <_>
          <internalNodes>
            0 -1 247 4.5760493958368897e-04</internalNodes>
          <leafValues>
            8.1758372485637665e-02 -2.3836444318294525e-01</leafValues></_>
        <_>
          <internalNodes>
            0 -1 495 -2.8782485052943230e-02</internalNodes>
          <leafValues>
            3.1532743573188782e-01 -6.3517212867736816e-02</leafValues></_>
        <_>
          <internalNodes>
            0 -1 119 2.2106043994426727e-02</internalNodes>
          <leafValues>
            6.9188542664051056e-02 -3.0327576398849487e-01</leafValues></_>
        <_>
          <internalNodes>
            0 -1 34 1.3036170974373817e-02</internalNodes>
          <leafValues>
            -1.0849083214998245e-01 1.8022517859935760e-01</leafValues></_>
        <_>
          <internalNodes>
            0 -1 459 7.5573916547000408e-03</internalNodes>
          <leafValues>
            -7.9841002821922302e-02 2.2769968211650848e-01</leafValues></_>
        <_>
          <internalNodes>
            0 -1 593 4.8515824601054192e-03</internalNodes>
          <leafValues>
            -9.7677282989025116e-02 2.3879003524780273e-01</leafValues></_>
        <_>
          <internalNodes>
            0 -1 118 -4.5076459646224976e-02</internalNodes>
          <leafValues>
            3.2742655277252197e-01 -6.0425627976655960e-02</leafValues></_>
        <_>
          <internalNodes>
            0 -1 316 1.8174825236201286e-02</internalNodes>
          <leafValues>
            5.6054122745990753e-02 -3.9285624027252197e-01</leafValues></_>
        <_>
          <internalNodes>
            0 -1 948 5.0678998231887817e-02</internalNodes>
          <leafValues>
            -4.3913189321756363e-02 4.5584192872047424e-01</leafValues></_>
        <_>
          <internalNodes>
            0 -1 1117 1.3411385007202625e-03</internalNodes>
          <leafValues>
            -8.1898510456085205e-02 2.4155543744564056e-01</leafValues></_>
        <_>
          <internalNodes>
            0 -1 1055 4.3189795687794685e-03</internalNodes>
          <leafValues>
            -6.6203407943248749e-02 2.7755549550056458e-01</leafValues></_>
        <_>
          <internalNodes>
            0 -1 812 -9.4749946147203445e-03</internalNodes>
          <leafValues>
            -4.3708461523056030e-01 4.3584261089563370e-02</leafValues></_>
        <_>
          <internalNodes>
            0 -1 1361 5.9804238844662905e-04</internalNodes>
          <leafValues>
            6.6897645592689514e-02 -2.6180472970008850e-01</leafValues></_>
        <_>
          <internalNodes>
            0 -1 878 -1.0818500071763992e-02</internalNodes>
          <leafValues>
            3.1281465291976929e-01 -6.2979899346828461e-02</leafValues></_>
        <_>
          <internalNodes>
            0 -1 1208 7.5915474444627762e-03</internalNodes>
          <leafValues>
            -1.2539291381835938e-01 1.3752520084381104e-01</leafValues></_></weakClassifiers></_>
    <!-- stage 4 -->
    <_>
      <maxWeakCount>76</maxWeakCount>
      <stageThreshold>-1.3524513244628906e+00</stageThreshold>
      <weakClassifiers>
        <_>
          <internalNodes>
            0 -1 9 -4.5292481780052185e-02</internalNodes>
          <leafValues>
            3.2319390773773193e-01 -3.1684952974319458e-01</leafValues></_>
        <_>
          <internalNodes>
            0 -1 1120 3.9332091808319092e-02</internalNodes>
          <leafValues>
            -1.6873818635940552e-01 3.2849738001823425e-01</leafValues></_>
        <_>
          <internalNodes>
            0 -1 1476 -6.9923633709549904e-03</internalNodes>
          <leafValues>
            2.6419132947921753e-01 -1.2154153734445572e-01</leafValues></_>
        <_>
          <internalNodes>
            0 -1 1518 -5.3367303917184472e-04</internalNodes>
          <leafValues>
            -2.5926524400711060e-01 8.2251742482185364e-02</leafValues></_>
        <_>
          <internalNodes>
            0 -1 220 1.9193524494767189e-03</internalNodes>
          <leafValues>
            9.9784225225448608e-02 -2.8506946563720703e-01</leafValues></_>
        <_>
          <internalNodes>
            0 -1 157 2.9035359621047974e-02</internalNodes>
          <leafValues>
            -6.2954209744930267e-02 3.6719989776611328e-01</leafValues></_>
        <_>
          <internalNodes>
            0 -1 18 3.6997567862272263e-02</internalNodes>
          <leafValues>
            -8.3616226911544800e-02 2.8336915373802185e-01</leafValues></_>
        <_>
          <internalNodes>
            0 -1 435 2.2522330284118652e-02</internalNodes>
          <leafValues>
            -5.1156871020793915e-02 3.8773155212402344e-01</leafValues></_>
        <_>
          <internalNodes>
            0 -1 634 -2.6936341077089310e-02</internalNodes>
          <leafValues>
            3.3795365691184998e-01 -5.0834137946367264e-02</leafValues></_>
        <_>
          <internalNodes>
            0 -1 63 5.5030295625329018e-03</internalNodes>
          <leafValues>
            -7.5841203331947327e-02 3.4283602237701416e-01</leafValues></_>
        <_>
          <internalNodes>
            0 -1 969 -3.0197126325219870e-03</internalNodes>
          <leafValues>
            3.2231017947196960e-01 -7.5325027108192444e-02</leafValues></_>
        <_>
          <internalNodes>
            0 -1 376 1.0724212974309921e-02</internalNodes>
          <leafValues>
            5.0946079194545746e-02 -3.7861186265945435e-01</leafValues></_>
        <_>
          <internalNodes>
            0 -1 427 -2.2309465333819389e-02</internalNodes>
          <leafValues>
            2.2532272338867188e-01 -9.4195604324340820e-02</leafValues></_>
        <_>
          <internalNodes>
            0 -1 660 -4.8198990523815155e-02</internalNodes>
          <leafValues>
            3.8283014297485352e-01 -7.7506341040134430e-02</leafValues></_>
        <_>
          <internalNodes>
            0 -1 1293 -2.4506395682692528e-02</internalNodes>
          <leafValues>
            3.0590263009071350e-01 -6.7201890051364899e-02</leafValues></_>
        <_>
          <internalNodes>
            0 -1 937 -1.5864644199609756e-02</internalNodes>
          <leafValues>
            -3.3845722675323486e-01 6.6123276948928833e-02</leafValues></_>
        <_>
          <internalNodes>
            0 -1 886 -1.3999789021909237e-02</internalNodes>
          <leafValues>
            -4.4628936052322388e-01 4.6616423875093460e-02</leafValues></_>
        <_>
          <internalNodes>
            0 -1 867 -8.1041101366281509e-03</internalNodes>
          <leafValues>
            3.1561169028282166e-01 -6.9114625453948975e-02</leafValues></_>
        <_>
          <internalNodes>
            0 -1 856 9.9024064838886261e-03</internalNodes>
          <leafValues>
            -1.0280667990446091e-01 2.1597811579704285e-01</leafValues></_>
        <_>
          <internalNodes>
            0 -1 911 -8.6412057280540466e-03</internalNodes>
          <leafValues>
            2.3793002963066101e-01 -8.4422588348388672e-02</leafValues></_>
        <_>
          <internalNodes>
            0 -1 887 9.8801869899034500e-03</internalNodes>
          <leafValues>
            5.3189221769571304e-02 -4.1589173674583435e-01</leafValues></_>
        <_>
          <internalNodes>
            0 -1 1316 2.6650227606296539e-02</internalNodes>
          <leafValues>
            2.7898265048861504e-02 -6.1576467752456665e-01</leafValues></_>
        <_>
          <internalNodes>
            0 -1 112 -5.5982973426580429e-02</internalNodes>
          <leafValues>
            -3.5432621836662292e-01 5.3896538913249969e-02</leafValues></_>
        <_>
          <internalNodes>
            0 -1 481 4.9305800348520279e-04</internalNodes>
          <leafValues>
            7.7226251363754272e-02 -2.5537943840026855e-01</leafValues></_>
        <_>
          <internalNodes>
            0 -1 482 -4.3999915942549706e-04</internalNodes>
          <leafValues>
            -2.3217783868312836e-01 9.6176266670227051e-02</leafValues></_>
        <_>
          <internalNodes>
            0 -1 969 2.4232023861259222e-03</internalNodes>
          <leafValues>
            -7.8607663512229919e-02 2.8748294711112976e-01</leafValues></_>
        <_>
          <internalNodes>
            0 -1 744 -1.6294673085212708e-02</internalNodes>
          <leafValues>
            2.6687902212142944e-01 -7.3626145720481873e-02</leafValues></_>
        <_>
          <internalNodes>
            0 -1 1194 -2.6175625622272491e-02</internalNodes>
          <leafValues>
            2.4056778848171234e-01 -8.4780544042587280e-02</leafValues></_>
        <_>
          <internalNodes>
            0 -1 1468 -1.1115765199065208e-02</internalNodes>
          <leafValues>
            5.3639787435531616e-01 -4.2685508728027344e-02</leafValues></_>
        <_>
          <internalNodes>
            0 -1 1567 -1.5961138997226954e-03</internalNodes>
          <leafValues>
            -3.0844363570213318e-01 6.7659065127372742e-02</leafValues></_>
        <_>
          <internalNodes>
            0 -1 792 -8.0334246158599854e-03</internalNodes>
          <leafValues>
            3.2321754097938538e-01 -7.0570781826972961e-02</leafValues></_>
        <_>
          <internalNodes>
            0 -1 1401 -2.9275587294250727e-03</internalNodes>
          <leafValues>
            3.8202613592147827e-01 -5.3535226732492447e-02</leafValues></_>
        <_>
          <internalNodes>
            0 -1 11 -8.7353168055415154e-03</internalNodes>
          <leafValues>
            3.3021616935729980e-01 -5.3845211863517761e-02</leafValues></_>
        <_>
          <internalNodes>
            0 -1 1244 3.2884526997804642e-02</internalNodes>
          <leafValues>
            -4.6241283416748047e-02 3.8362422585487366e-01</leafValues></_>
        <_>
          <internalNodes>
            0 -1 116 -1.8488651141524315e-02</internalNodes>
          <leafValues>
            2.6432603597640991e-01 -6.9082468748092651e-02</leafValues></_>
        <_>
          <internalNodes>
            0 -1 539 2.5090718641877174e-02</internalNodes>
          <leafValues>
            -6.8827331066131592e-02 2.6967546343803406e-01</leafValues></_>
        <_>
          <internalNodes>
            0 -1 1490 -6.4730066806077957e-03</internalNodes>
          <leafValues>
            4.6707412600517273e-01 -3.7596557289361954e-02</leafValues></_>
        <_>
          <internalNodes>
            0 -1 754 9.8413955420255661e-03</internalNodes>
          <leafValues>
            4.1525274515151978e-02 -4.3028607964515686e-01</leafValues></_>
        <_>
          <internalNodes>
            0 -1 1352 1.6297165304422379e-02</internalNodes>
          <leafValues>
            6.1133164912462234e-02 -2.9466304183006287e-01</leafValues></_>
        <_>
          <internalNodes>
            0 -1 1280 -3.6122521851211786e-04</internalNodes>
          <leafValues>
            -1.8927253782749176e-01 9.3604721128940582e-02</leafValues></_>
        <_>
          <internalNodes>
            0 -1 608 1.1204525362700224e-03</internalNodes>
          <leafValues>
            -1.1712346971035004e-01 1.4553289115428925e-01</leafValues></_>
        <_>
          <internalNodes>
            0 -1 1225 -3.3669467084109783e-03</internalNodes>
          <leafValues>
            3.9441835880279541e-01 -4.5597139745950699e-02</leafValues></_>
        <_>
          <internalNodes>
            0 -1 1456 -3.6699371412396431e-04</internalNodes>
          <leafValues>
            -2.1307289600372314e-01 8.4173865616321564e-02</leafValues></_>
        <_>
          <internalNodes>
            0 -1 1095 -1.4574142172932625e-02</internalNodes>
          <leafValues>
            2.6129618287086487e-01 -6.7243024706840515e-02</leafValues></_>
        <_>
          <internalNodes>
            0 -1 646 -5.4020151495933533e-02</internalNodes>
          <leafValues>
            -2.9940548539161682e-01 5.6061327457427979e-02</leafValues></_>
        <_>
          <internalNodes>
            0 -1 810 3.4376088296994567e-04</internalNodes>
          <leafValues>
            9.2198714613914490e-02 -1.8292002379894257e-01</leafValues></_>
        <_>
          <internalNodes>
            0 -1 701 2.8234138153493404e-03</internalNodes>
          <leafValues>
            -5.5447861552238464e-02 3.0884370207786560e-01</leafValues></_>
        <_>
          <internalNodes>
            0 -1 755 -9.1967862099409103e-03</internalNodes>
          <leafValues>
            -3.5759091377258301e-01 5.2278593182563782e-02</leafValues></_>
        <_>
          <internalNodes>
            0 -1 1415 -8.5428319871425629e-03</internalNodes>
          <leafValues>
            -3.4123978018760681e-01 5.0011873245239258e-02</leafValues></_>
        <_>
          <internalNodes>
            0 -1 1221 -2.4948907084763050e-03</internalNodes>
          <leafValues>
            3.8709452748298645e-01 -4.6064056456089020e-02</leafValues></_>
        <_>
          <internalNodes>
            0 -1 236 7.7717518433928490e-03</internalNodes>
          <leafValues>
            3.6903705447912216e-02 -4.7774896025657654e-01</leafValues></_>
        <_>
          <internalNodes>
            0 -1 233 8.9813058730214834e-04</internalNodes>
          <leafValues>
            -1.2980110943317413e-01 1.5206679701805115e-01</leafValues></_>
        <_>
          <internalNodes>
            0 -1 187 5.7060755789279938e-02</internalNodes>
          <leafValues>
            3.6676894873380661e-02 -4.5748481154441833e-01</leafValues></_>
        <_>
          <internalNodes>
            0 -1 123 -9.7564011812210083e-03</internalNodes>
          <leafValues>
            3.2174345850944519e-01 -5.8311890810728073e-02</leafValues></_>
        <_>
          <internalNodes>
            0 -1 1222 4.3348064646124840e-03</internalNodes>
          <leafValues>
            -8.6337529122829437e-02 1.9993552565574646e-01</leafValues></_>
        <_>
          <internalNodes>
            0 -1 802 1.7200838774442673e-02</internalNodes>
          <leafValues>
            -8.3320125937461853e-02 1.9693338871002197e-01</leafValues></_>
        <_>
          <internalNodes>
            0 -1 1040 2.3697316646575928e-03</internalNodes>
          <leafValues>
            -5.8397907763719559e-02 3.0001157522201538e-01</leafValues></_>
        <_>
          <internalNodes>
            0 -1 1063 4.0809353231452405e-04</internalNodes>
          <leafValues>
            9.8829232156276703e-02 -1.6899792850017548e-01</leafValues></_>
        <_>
          <internalNodes>
            0 -1 395 6.3080564141273499e-03</internalNodes>
          <leafValues>
            -7.0278406143188477e-02 2.7803918719291687e-01</leafValues></_>
        <_>
          <internalNodes>
            0 -1 1151 -4.9461959861218929e-04</internalNodes>
          <leafValues>
            -2.3443885147571564e-01 7.6231680810451508e-02</leafValues></_>
        <_>
          <internalNodes>
            0 -1 1502 3.2984004355967045e-03</internalNodes>
          <leafValues>
            -7.5913809239864349e-02 2.3077908158302307e-01</leafValues></_>
        <_>
          <internalNodes>
            0 -1 1467 -8.9788564946502447e-04</internalNodes>
          <leafValues>
            -2.7418956160545349e-01 6.2079973518848419e-02</leafValues></_>
        <_>
          <internalNodes>
            0 -1 763 -7.8524053096771240e-03</internalNodes>
          <leafValues>
            2.3107357323169708e-01 -7.3658488690853119e-02</leafValues></_>
        <_>
          <internalNodes>
            0 -1 1461 -5.1332626026123762e-04</internalNodes>
          <leafValues>
            -1.7641034722328186e-01 9.4039924442768097e-02</leafValues></_>
        <_>
          <internalNodes>
            0 -1 770 2.8287877794355154e-03</internalNodes>
          <leafValues>
            -5.9251647442579269e-02 2.6228779554367065e-01</leafValues></_>
        <_>
          <internalNodes>
            0 -1 640 6.8818563595414162e-03</internalNodes>
          <leafValues>
            -4.5604497194290161e-02 3.6052125692367554e-01</leafValues></_>
        <_>
          <internalNodes>
            0 -1 702 -6.0484241694211960e-02</internalNodes>
          <leafValues>
            3.7851223349571228e-01 -4.0767110884189606e-02</leafValues></_>
        <_>
          <internalNodes>
            0 -1 447 2.6931561529636383e-02</internalNodes>
          <leafValues>
            -5.5204235017299652e-02 3.3065360784530640e-01</leafValues></_>
        <_>
          <internalNodes>
            0 -1 494 -3.5011149942874908e-02</internalNodes>
          <leafValues>
            4.3552348017692566e-01 -4.1678082197904587e-02</leafValues></_>
        <_>
          <internalNodes>
            0 -1 489 3.0924133956432343e-02</internalNodes>
          <leafValues>
            3.0835814774036407e-02 -6.4515554904937744e-01</leafValues></_>
        <_>
          <internalNodes>
            0 -1 1078 -2.1770978346467018e-02</internalNodes>
          <leafValues>
            2.1086104214191437e-01 -8.0715112388134003e-02</leafValues></_>
        <_>
          <internalNodes>
            0 -1 1114 -2.1677907556295395e-02</internalNodes>
          <leafValues>
            2.0162451267242432e-01 -1.0335563123226166e-01</leafValues></_>
        <_>
          <internalNodes>
            0 -1 545 -7.3957946151494980e-03</internalNodes>
          <leafValues>
            -3.0325016379356384e-01 5.4930616170167923e-02</leafValues></_>
        <_>
          <internalNodes>
            0 -1 77 -1.0325863957405090e-01</internalNodes>
          <leafValues>
            -6.3957571983337402e-01 2.3803219199180603e-02</leafValues></_>
        <_>
          <internalNodes>
            0 -1 285 1.6929648118093610e-03</internalNodes>
          <leafValues>
            6.8292953073978424e-02 -2.2704799473285675e-01</leafValues></_>
        <_>
          <internalNodes>
            0 -1 209 -4.5641837641596794e-03</internalNodes>
          <leafValues>
            -3.7792992591857910e-01 4.9684032797813416e-02</leafValues></_></weakClassifiers></_>
    <!-- stage 5 -->
    <_>
      <maxWeakCount>89</maxWeakCount>
      <stageThreshold>-1.2812936305999756e+00</stageThreshold>
      <weakClassifiers>
        <_>
          <internalNodes>
            0 -1 110 -9.6889600157737732e-02</internalNodes>
          <leafValues>
            2.4845418334007263e-01 -3.4619626402854919e-01</leafValues></_>
        <_>
          <internalNodes>
            0 -1 42 4.7125108540058136e-03</internalNodes>
          <leafValues>
            -1.5984226763248444e-01 2.6104280352592468e-01</leafValues></_>
        <_>
          <internalNodes>
            0 -1 1285 1.1931565590202808e-02</internalNodes>
          <leafValues>
            -9.3366980552673340e-02 3.2887044548988342e-01</leafValues></_>
        <_>
          <internalNodes>
            0 -1 337 2.9335554689168930e-02</internalNodes>
          <leafValues>
            -1.0468132793903351e-01 3.0154970288276672e-01</leafValues></_>
        <_>
          <internalNodes>
            0 -1 1039 -1.6165181994438171e-02</internalNodes>
          <leafValues>
            2.4012129008769989e-01 -8.6223088204860687e-02</leafValues></_>
        <_>
          <internalNodes>
            0 -1 1549 3.0909024178981781e-02</internalNodes>
          <leafValues>
            -5.2671916782855988e-02 3.1699371337890625e-01</leafValues></_>
        <_>
          <internalNodes>
            0 -1 214 3.6449719220399857e-02</internalNodes>
          <leafValues>
            -7.9025603830814362e-02 3.1505471467971802e-01</leafValues></_>
        <_>
          <internalNodes>
            0 -1 403 -2.7511322498321533e-01</internalNodes>
          <leafValues>
            4.3016406893730164e-01 -4.8359502106904984e-02</leafValues></_>
        <_>
          <internalNodes>
            0 -1 621 -2.3925146088004112e-02</internalNodes>
          <leafValues>
            2.1424713730812073e-01 -9.0359248220920563e-02</leafValues></_>
        <_>
          <internalNodes>
            0 -1 1187 3.2259896397590637e-02</internalNodes>
          <leafValues>
            -5.0306074321269989e-02 3.2634758949279785e-01</leafValues></_>
        <_>
          <internalNodes>
            0 -1 830 -6.6454904153943062e-03</internalNodes>
          <leafValues>
            1.5549933910369873e-01 -1.2578807771205902e-01</leafValues></_>
        <_>
          <internalNodes>
            0 -1 973 -1.2458376586437225e-01</internalNodes>
          <leafValues>
            -6.6839379072189331e-01 3.1164715066552162e-02</leafValues></_>
        <_>
          <internalNodes>
            0 -1 776 -6.5271165221929550e-03</internalNodes>
          <leafValues>
            2.3702800273895264e-01 -8.8980250060558319e-02</leafValues></_>
        <_>
          <internalNodes>
            0 -1 1231 2.5024488568305969e-02</internalNodes>
          <leafValues>
            -4.4576622545719147e-02 2.8794640302658081e-01</leafValues></_>
        <_>
          <internalNodes>
            0 -1 1096 -2.0469978451728821e-02</internalNodes>
          <leafValues>
            2.8403562307357788e-01 -7.2257719933986664e-02</leafValues></_>
        <_>
          <internalNodes>
            0 -1 849 -4.7393073327839375e-03</internalNodes>
          <leafValues>
            3.5246539115905762e-01 -4.2533122003078461e-02</leafValues></_>
        <_>
          <internalNodes>
            0 -1 806 -1.4157300814986229e-02</internalNodes>
          <leafValues>
            -3.5565885901451111e-01 5.1126156002283096e-02</leafValues></_>
        <_>
          <internalNodes>
            0 -1 1493 -4.1603860445320606e-03</internalNodes>
          <leafValues>
            4.9816054105758667e-01 -3.9798088371753693e-02</leafValues></_>
        <_>
          <internalNodes>
            0 -1 1426 -4.4487216509878635e-03</internalNodes>
          <leafValues>
            -2.2575238347053528e-01 7.8670203685760498e-02</leafValues></_>
        <_>
          <internalNodes>
            0 -1 1419 2.2645569406449795e-03</internalNodes>
          <leafValues>
            6.2246896326541901e-02 -2.7729091048240662e-01</leafValues></_>
        <_>
          <internalNodes>
            0 -1 1102 -3.2605449669063091e-03</internalNodes>
          <leafValues>
            3.1030797958374023e-01 -5.2116341888904572e-02</leafValues></_>
        <_>
          <internalNodes>
            0 -1 345 4.1605770587921143e-02</internalNodes>
          <leafValues>
            -4.5926351100206375e-02 3.6957067251205444e-01</leafValues></_>
        <_>
          <internalNodes>
            0 -1 1103 -3.5825395025312901e-03</internalNodes>
          <leafValues>
            3.6445298790931702e-01 -4.5545373111963272e-02</leafValues></_>
        <_>
          <internalNodes>
            0 -1 1556 -1.8743209540843964e-02</internalNodes>
          <leafValues>
            4.0245500206947327e-01 -3.8471985608339310e-02</leafValues></_>
        <_>
          <internalNodes>
            0 -1 1513 -2.1779637318104506e-03</internalNodes>
          <leafValues>
            -2.9824164509773254e-01 5.9133891016244888e-02</leafValues></_>
        <_>
          <internalNodes>
            0 -1 1530 9.7225434728898108e-05</internalNodes>
          <leafValues>
            -1.2364086508750916e-01 1.3371218740940094e-01</leafValues></_>
        <_>
          <internalNodes>
            0 -1 558 -9.6310460940003395e-03</internalNodes>
          <leafValues>
            3.1937360763549805e-01 -4.5828759670257568e-02</leafValues></_>
        <_>
          <internalNodes>
            0 -1 1118 4.0736999362707138e-03</internalNodes>
          <leafValues>
            -2.8857721015810966e-02 5.3960841894149780e-01</leafValues></_>
        <_>
          <internalNodes>
            0 -1 617 1.5290579758584499e-02</internalNodes>
          <leafValues>
            4.2245458811521530e-02 -4.3227857351303101e-01</leafValues></_>
        <_>
          <internalNodes>
            0 -1 681 -2.7057835832238197e-03</internalNodes>
          <leafValues>
            -2.1444875001907349e-01 8.5898727178573608e-02</leafValues></_>
        <_>
          <internalNodes>
            0 -1 145 -3.4911995753645897e-03</internalNodes>
          <leafValues>
            3.0505007505416870e-01 -5.4241582751274109e-02</leafValues></_>
        <_>
          <internalNodes>
            0 -1 130 1.1096229776740074e-02</internalNodes>
          <leafValues>
            3.3006567507982254e-02 -5.2121925354003906e-01</leafValues></_>
        <_>
          <internalNodes>
            0 -1 524 -2.4571193382143974e-02</internalNodes>
          <leafValues>
            2.7967894077301025e-01 -5.7567920535802841e-02</leafValues></_>
        <_>
          <internalNodes>
            0 -1 323 5.0213515758514404e-02</internalNodes>
          <leafValues>
            4.4903416186571121e-02 -3.7864294648170471e-01</leafValues></_>
        <_>
          <internalNodes>
            0 -1 88 -2.5084808468818665e-02</internalNodes>
          <leafValues>
            -4.3246102333068848e-01 3.5833686590194702e-02</leafValues></_>
        <_>
          <internalNodes>
            0 -1 513 2.1173777058720589e-02</internalNodes>
          <leafValues>
            -7.6656393706798553e-02 2.0390090346336365e-01</leafValues></_>
        <_>
          <internalNodes>
            0 -1 656 -7.2827879339456558e-03</internalNodes>
          <leafValues>
            1.8381202220916748e-01 -8.4990009665489197e-02</leafValues></_>
        <_>
          <internalNodes>
            0 -1 677 -2.8568513225764036e-03</internalNodes>
          <leafValues>
            -2.8381481766700745e-01 5.7194422930479050e-02</leafValues></_>
        <_>
          <internalNodes>
            0 -1 804 -8.7104476988315582e-03</internalNodes>
          <leafValues>
            -3.1911844015121460e-01 4.9781758338212967e-02</leafValues></_>
        <_>
          <internalNodes>
            0 -1 1178 -5.5598705075681210e-03</internalNodes>
          <leafValues>
            1.4797352254390717e-01 -1.0981654375791550e-01</leafValues></_>
        <_>
          <internalNodes>
            0 -1 825 2.8213714249432087e-03</internalNodes>
          <leafValues>
            -5.4027590900659561e-02 2.9816234111785889e-01</leafValues></_>
        <_>
          <internalNodes>
            0 -1 1287 2.3503270000219345e-02</internalNodes>
          <leafValues>
            4.2568944394588470e-02 -3.6004453897476196e-01</leafValues></_>
        <_>
          <internalNodes>
            0 -1 581 1.6803172230720520e-01</internalNodes>
          <leafValues>
            2.8029395267367363e-02 -5.5147629976272583e-01</leafValues></_>
        <_>
          <internalNodes>
            0 -1 48 8.8976681232452393e-02</internalNodes>
          <leafValues>
            4.1741792112588882e-02 -4.0551650524139404e-01</leafValues></_>
        <_>
          <internalNodes>
            0 -1 1390 -1.4048095792531967e-02</internalNodes>
          <leafValues>
            -4.0424257516860962e-01 3.7568155676126480e-02</leafValues></_>
        <_>
          <internalNodes>
            0 -1 1388 6.8307033507153392e-04</internalNodes>
          <leafValues>
            8.7661474943161011e-02 -1.7151015996932983e-01</leafValues></_>
        <_>
          <internalNodes>
            0 -1 1203 -7.1993380784988403e-02</internalNodes>
          <leafValues>
            -5.7506728172302246e-01 2.7398435398936272e-02</leafValues></_>
        <_>
          <internalNodes>
            0 -1 687 1.2823009863495827e-02</internalNodes>
          <leafValues>
            3.9703726768493652e-02 -3.6436587572097778e-01</leafValues></_>
        <_>
          <internalNodes>
            0 -1 1324 1.3265846064314246e-04</internalNodes>
          <leafValues>
            -1.1363038420677185e-01 1.3097174465656281e-01</leafValues></_>
        <_>
          <internalNodes>
            0 -1 766 -6.2805199995636940e-03</internalNodes>
          <leafValues>
            2.1977496147155762e-01 -6.8563915789127350e-02</leafValues></_>
        <_>
          <internalNodes>
            0 -1 1023 3.7016056478023529e-02</internalNodes>
          <leafValues>
            -6.2647961080074310e-02 2.5957259535789490e-01</leafValues></_>
        <_>
          <internalNodes>
            0 -1 777 -8.4222787991166115e-03</internalNodes>
          <leafValues>
            2.9257792234420776e-01 -5.7160668075084686e-02</leafValues></_>
        <_>
          <internalNodes>
            0 -1 1156 3.2900795340538025e-02</internalNodes>
          <leafValues>
            -6.4627110958099365e-02 2.3278561234474182e-01</leafValues></_>
        <_>
          <internalNodes>
            0 -1 1066 -7.7340281568467617e-03</internalNodes>
          <leafValues>
            -5.3695237636566162e-01 2.5890020653605461e-02</leafValues></_>
        <_>
          <internalNodes>
            0 -1 928 -1.5734824119135737e-03</internalNodes>
          <leafValues>
            2.7104470133781433e-01 -5.5588956922292709e-02</leafValues></_>
        <_>
          <internalNodes>
            0 -1 227 2.5620816741138697e-03</internalNodes>
          <leafValues>
            5.6581478565931320e-02 -2.6736760139465332e-01</leafValues></_>
        <_>
          <internalNodes>
            0 -1 438 4.5873140916228294e-03</internalNodes>
          <leafValues>
            5.4836131632328033e-02 -2.8416162729263306e-01</leafValues></_>
        <_>
          <internalNodes>
            0 -1 4 -2.1826384589076042e-02</internalNodes>
          <leafValues>
            2.3202483355998993e-01 -6.5183058381080627e-02</leafValues></_>
        <_>
          <internalNodes>
            0 -1 21 1.3631035573780537e-02</internalNodes>
          <leafValues>
            -7.7810354530811310e-02 2.2230923175811768e-01</leafValues></_>
        <_>
          <internalNodes>
            0 -1 382 1.0025002062320709e-02</internalNodes>
          <leafValues>
            3.3065482974052429e-02 -4.7770300507545471e-01</leafValues></_>
        <_>
          <internalNodes>
            0 -1 874 -3.5173168871551752e-03</internalNodes>
          <leafValues>
            1.7427834868431091e-01 -8.8601037859916687e-02</leafValues></_>
        <_>
          <internalNodes>
            0 -1 504 -7.2794994339346886e-03</internalNodes>
          <leafValues>
            2.2810590267181396e-01 -6.3461557030677795e-02</leafValues></_>
        <_>
          <internalNodes>
            0 -1 1495 -5.5762045085430145e-03</internalNodes>
          <leafValues>
            2.1472553908824921e-01 -6.3344098627567291e-02</leafValues></_>
        <_>
          <internalNodes>
            0 -1 729 -1.9157819449901581e-02</internalNodes>
          <leafValues>
            2.5599125027656555e-01 -5.6992422789335251e-02</leafValues></_>
        <_>
          <internalNodes>
            0 -1 1491 3.4491955302655697e-03</internalNodes>
          <leafValues>
            -7.9123750329017639e-02 1.7883132398128510e-01</leafValues></_>
        <_>
          <internalNodes>
            0 -1 1481 3.6332843592390418e-04</internalNodes>
          <leafValues>
            8.7152510881423950e-02 -1.9675156474113464e-01</leafValues></_>
        <_>
          <internalNodes>
            0 -1 527 1.5960684977471828e-03</internalNodes>
          <leafValues>
            -1.1004138737916946e-01 1.4093254506587982e-01</leafValues></_>
        <_>
          <internalNodes>
            0 -1 312 1.6890123486518860e-02</internalNodes>
          <leafValues>
            4.7338269650936127e-02 -3.5511687397956848e-01</leafValues></_>
        <_>
          <internalNodes>
            0 -1 528 -1.1679962881316897e-05</internalNodes>
          <leafValues>
            1.1665806919336319e-01 -1.2791749835014343e-01</leafValues></_>
        <_>
          <internalNodes>
            0 -1 532 8.6389612406492233e-03</internalNodes>
          <leafValues>
            4.7406647354364395e-02 -3.1010594964027405e-01</leafValues></_>
        <_>
          <internalNodes>
            0 -1 470 2.4345468729734421e-02</internalNodes>
          <leafValues>
            -4.5559655874967575e-02 3.6094942688941956e-01</leafValues></_>
        <_>
          <internalNodes>
            0 -1 159 -2.6687700301408768e-02</internalNodes>
          <leafValues>
            3.1828582286834717e-01 -4.8529174178838730e-02</leafValues></_>
        <_>
          <internalNodes>
            0 -1 819 2.5489046238362789e-03</internalNodes>
          <leafValues>
            -5.4675709456205368e-02 2.6214304566383362e-01</leafValues></_>
        <_>
          <internalNodes>
            0 -1 1057 8.5691385902464390e-04</internalNodes>
          <leafValues>
            -1.1159421503543854e-01 1.3175107538700104e-01</leafValues></_>
        <_>
          <internalNodes>
            0 -1 166 -7.6059519778937101e-04</internalNodes>
          <leafValues>
            -2.7720001339912415e-01 5.5902592837810516e-02</leafValues></_>
        <_>
          <internalNodes>
            0 -1 166 6.5684982109814882e-04</internalNodes>
          <leafValues>
            6.8465456366539001e-02 -2.5953790545463562e-01</leafValues></_>
        <_>
          <internalNodes>
            0 -1 875 1.2667640112340450e-03</internalNodes>
          <leafValues>
            -1.0400633513927460e-01 1.5595696866512299e-01</leafValues></_>
        <_>
          <internalNodes>
            0 -1 113 1.1534863710403442e-01</internalNodes>
          <leafValues>
            1.9482398405671120e-02 -7.5864201784133911e-01</leafValues></_>
        <_>
          <internalNodes>
            0 -1 96 7.6151732355356216e-04</internalNodes>
          <leafValues>
            -1.2125422060489655e-01 1.2308890372514725e-01</leafValues></_>
        <_>
          <internalNodes>
            0 -1 351 -2.3213385138660669e-03</internalNodes>
          <leafValues>
            -2.9951143264770508e-01 5.0475500524044037e-02</leafValues></_>
        <_>
          <internalNodes>
            0 -1 95 1.3801159802824259e-03</internalNodes>
          <leafValues>
            -7.5762264430522919e-02 2.1367281675338745e-01</leafValues></_>
        <_>
          <internalNodes>
            0 -1 98 -2.6693327818065882e-03</internalNodes>
          <leafValues>
            2.1986939013004303e-01 -6.2962673604488373e-02</leafValues></_>
        <_>
          <internalNodes>
            0 -1 1455 -8.0885499482974410e-04</internalNodes>
          <leafValues>
            -2.5250276923179626e-01 5.9212125837802887e-02</leafValues></_>
        <_>
          <internalNodes>
            0 -1 531 3.4849304938688874e-05</internalNodes>
          <leafValues>
            -1.2483587861061096e-01 1.1308912187814713e-01</leafValues></_>
        <_>
          <internalNodes>
            0 -1 368 4.8376489430665970e-03</internalNodes>
          <leafValues>
            4.0917664766311646e-02 -3.2497072219848633e-01</leafValues></_>
        <_>
          <internalNodes>
            0 -1 437 2.1654707379639149e-03</internalNodes>
          <leafValues>
            -9.3115650117397308e-02 1.4701634645462036e-01</leafValues></_>
        <_>
          <internalNodes>
            0 -1 1303 3.3852169290184975e-03</internalNodes>
          <leafValues>
            6.2900863587856293e-02 -2.1702849864959717e-01</leafValues></_>
        <_>
          <internalNodes>
            0 -1 1200 -2.3395242169499397e-02</internalNodes>
          <leafValues>
            4.0540218353271484e-01 -4.8056498169898987e-02</leafValues></_>
        <_>
          <internalNodes>
            0 -1 876 2.0410234108567238e-02</internalNodes>
          <leafValues>
            -5.2627462893724442e-02 2.6611709594726562e-01</leafValues></_></weakClassifiers></_>
    <!-- stage 6 -->
    <_>
      <maxWeakCount>94</maxWeakCount>
      <stageThreshold>-1.2166354656219482e+00</stageThreshold>
      <weakClassifiers>
        <_>
          <internalNodes>
            0 -1 279 -3.0447809025645256e-02</internalNodes>
          <leafValues>
            2.4480578303337097e-01 -3.1924635171890259e-01</leafValues></_>
        <_>
          <internalNodes>
            0 -1 1186 2.4070259183645248e-02</internalNodes>
          <leafValues>
            -1.4884422719478607e-01 2.2991269826889038e-01</leafValues></_>
        <_>
          <internalNodes>
            0 -1 1159 -3.7989221513271332e-02</internalNodes>
          <leafValues>
            4.0215960144996643e-01 -6.8305991590023041e-02</leafValues></_>
        <_>
          <internalNodes>
            0 -1 1228 2.2164376452565193e-02</internalNodes>
          <leafValues>
            -1.0832907259464264e-01 2.5080299377441406e-01</leafValues></_>
        <_>
          <internalNodes>
            0 -1 1409 -1.0563953546807170e-03</internalNodes>
          <leafValues>
            -2.7837538719177246e-01 6.7978419363498688e-02</leafValues></_>
        <_>
          <internalNodes>
            0 -1 1544 -1.1313221417367458e-02</internalNodes>
          <leafValues>
            3.0869385600090027e-01 -3.8164723664522171e-02</leafValues></_>
        <_>
          <internalNodes>
            0 -1 647 -2.2157361730933189e-02</internalNodes>
          <leafValues>
            2.4066203832626343e-01 -9.8844788968563080e-02</leafValues></_>
        <_>
          <internalNodes>
            0 -1 568 -3.5086479038000107e-02</internalNodes>
          <leafValues>
            2.2314243018627167e-01 -8.0183133482933044e-02</leafValues></_>
        <_>
          <internalNodes>
            0 -1 490 2.7265794575214386e-02</internalNodes>
          <leafValues>
            -9.2567369341850281e-02 2.8077864646911621e-01</leafValues></_>
        <_>
          <internalNodes>
            0 -1 829 1.9350247457623482e-02</internalNodes>
          <leafValues>
            -3.3683139830827713e-02 2.8093907237052917e-01</leafValues></_>
        <_>
          <internalNodes>
            0 -1 479 2.2338826209306717e-02</internalNodes>
          <leafValues>
            -6.8436197936534882e-02 3.1470009684562683e-01</leafValues></_>
        <_>
          <internalNodes>
            0 -1 1011 1.8545906990766525e-02</internalNodes>
          <leafValues>
            -8.7762542068958282e-02 2.3243063688278198e-01</leafValues></_>
        <_>
          <internalNodes>
            0 -1 1271 1.7834495753049850e-02</internalNodes>
          <leafValues>
            -8.1804044544696808e-02 2.8749817609786987e-01</leafValues></_>
        <_>
          <internalNodes>
            0 -1 1077 -5.8699138462543488e-03</internalNodes>
          <leafValues>
            2.1535648405551910e-01 -8.3403788506984711e-02</leafValues></_>
        <_>
          <internalNodes>
            0 -1 841 -6.8645440042018890e-03</internalNodes>
          <leafValues>
            2.2575740516185760e-01 -7.2483643889427185e-02</leafValues></_>
        <_>
          <internalNodes>
            0 -1 765 -5.1484279334545135e-02</internalNodes>
          <leafValues>
            3.8362032175064087e-01 -5.1384430378675461e-02</leafValues></_>
        <_>
          <internalNodes>
            0 -1 1507 4.0195515612140298e-04</internalNodes>
          <leafValues>
            -1.2887930870056152e-01 1.4358855783939362e-01</leafValues></_>
        <_>
          <internalNodes>
            0 -1 1318 -1.3484789989888668e-02</internalNodes>
          <leafValues>
            -2.6912769675254822e-01 5.8239284902811050e-02</leafValues></_>
        <_>
          <internalNodes>
            0 -1 1557 1.2018725275993347e-02</internalNodes>
          <leafValues>
            -5.1067546010017395e-02 2.7731654047966003e-01</leafValues></_>
        <_>
          <internalNodes>
            0 -1 1294 -2.6775963604450226e-02</internalNodes>
          <leafValues>
            2.6436504721641541e-01 -7.0452176034450531e-02</leafValues></_>
        <_>
          <internalNodes>
            0 -1 1319 3.8663623854517937e-03</internalNodes>
          <leafValues>
            8.0953150987625122e-02 -2.6284563541412354e-01</leafValues></_>
        <_>
          <internalNodes>
            0 -1 253 -1.8788091838359833e-02</internalNodes>
          <leafValues>
            3.3860215544700623e-01 -4.3853078037500381e-02</leafValues></_>
        <_>
          <internalNodes>
            0 -1 251 2.6514378259889781e-04</internalNodes>
          <leafValues>
            8.0190859735012054e-02 -2.0626232028007507e-01</leafValues></_>
        <_>
          <internalNodes>
            0 -1 1529 -2.8336290270090103e-03</internalNodes>
          <leafValues>
            -2.0714333653450012e-01 7.9736165702342987e-02</leafValues></_>
        <_>
          <internalNodes>
            0 -1 1173 -1.9910395145416260e-02</internalNodes>
          <leafValues>
            3.4421971440315247e-01 -5.6949384510517120e-02</leafValues></_>
        <_>
          <internalNodes>
            0 -1 704 -4.4123977422714233e-03</internalNodes>
          <leafValues>
            3.0384615063667297e-01 -4.9199812114238739e-02</leafValues></_>
        <_>
          <internalNodes>
            0 -1 1053 -3.0445742886513472e-03</internalNodes>
          <leafValues>
            3.1712865829467773e-01 -5.0839122384786606e-02</leafValues></_>
        <_>
          <internalNodes>
            0 -1 1054 -2.6435642503201962e-03</internalNodes>
          <leafValues>
            3.1532165408134460e-01 -5.1966179162263870e-02</leafValues></_>
        <_>
          <internalNodes>
            0 -1 251 -4.3840508442372084e-04</internalNodes>
          <leafValues>
            -2.2534833848476410e-01 7.6441161334514618e-02</leafValues></_>
        <_>
          <internalNodes>
            0 -1 183 -1.7813563346862793e-02</internalNodes>
          <leafValues>
            1.1846797913312912e-01 -1.3409459590911865e-01</leafValues></_>
        <_>
          <internalNodes>
            0 -1 331 -2.3793283849954605e-02</internalNodes>
          <leafValues>
            3.2747697830200195e-01 -5.2402041852474213e-02</leafValues></_>
        <_>
          <internalNodes>
            0 -1 1460 -5.8965533971786499e-03</internalNodes>
          <leafValues>
            1.7257127165794373e-01 -9.3820944428443909e-02</leafValues></_>
        <_>
          <internalNodes>
            0 -1 61 2.9803721699863672e-03</internalNodes>
          <leafValues>
            -6.3025735318660736e-02 2.8233194351196289e-01</leafValues></_>
        <_>
          <internalNodes>
            0 -1 348 1.7511397600173950e-01</internalNodes>
          <leafValues>
            -3.6671753972768784e-02 3.5254460573196411e-01</leafValues></_>
        <_>
          <internalNodes>
            0 -1 425 -3.1250968575477600e-02</internalNodes>
          <leafValues>
            2.6296690106391907e-01 -5.8022841811180115e-02</leafValues></_>
        <_>
          <internalNodes>
            0 -1 269 -1.9677826762199402e-01</internalNodes>
          <leafValues>
            -7.0435291528701782e-01 2.0872047170996666e-02</leafValues></_>
        <_>
          <internalNodes>
            0 -1 1059 1.2163800187408924e-02</internalNodes>
          <leafValues>
            4.1310936212539673e-02 -3.1408742070198059e-01</leafValues></_>
        <_>
          <internalNodes>
            0 -1 595 3.5820171236991882e-02</internalNodes>
          <leafValues>
            -4.0784426033496857e-02 3.5935592651367188e-01</leafValues></_>
        <_>
          <internalNodes>
            0 -1 791 1.9833590835332870e-02</internalNodes>
          <leafValues>
            -5.0926182419061661e-02 2.7235305309295654e-01</leafValues></_>
        <_>
          <internalNodes>
            0 -1 230 2.9515465721487999e-03</internalNodes>
          <leafValues>
            7.4509017169475555e-02 -1.9368694722652435e-01</leafValues></_>
        <_>
          <internalNodes>
            0 -1 124 4.2047534137964249e-02</internalNodes>
          <leafValues>
            3.9293155074119568e-02 -3.8273400068283081e-01</leafValues></_>
        <_>
          <internalNodes>
            0 -1 1152 4.1159540414810181e-03</internalNodes>
          <leafValues>
            -2.9440980404615402e-02 4.8438483476638794e-01</leafValues></_>
        <_>
          <internalNodes>
            0 -1 171 -2.9797755181789398e-02</internalNodes>
          <leafValues>
            3.8115677237510681e-01 -3.7277348339557648e-02</leafValues></_>
        <_>
          <internalNodes>
            0 -1 1344 1.4627441763877869e-02</internalNodes>
          <leafValues>
            -4.4236242771148682e-02 3.2436001300811768e-01</leafValues></_>
        <_>
          <internalNodes>
            0 -1 748 1.2146819382905960e-02</internalNodes>
          <leafValues>
            3.7115614861249924e-02 -3.9721935987472534e-01</leafValues></_>
        <_>
          <internalNodes>
            0 -1 1044 -3.5669403150677681e-03</internalNodes>
          <leafValues>
            2.7059540152549744e-01 -5.4832700639963150e-02</leafValues></_>
        <_>
          <internalNodes>
            0 -1 233 3.4233246697112918e-04</internalNodes>
          <leafValues>
            -1.2406507134437561e-01 1.1135800927877426e-01</leafValues></_>
        <_>
          <internalNodes>
            0 -1 1117 2.6126066222786903e-03</internalNodes>
          <leafValues>
            -5.0752803683280945e-02 2.7248400449752808e-01</leafValues></_>
        <_>
          <internalNodes>
            0 -1 1548 1.3114118948578835e-02</internalNodes>
          <leafValues>
            -7.1951970458030701e-02 1.9939142465591431e-01</leafValues></_>
        <_>
          <internalNodes>
            0 -1 1289 1.2472455273382366e-04</internalNodes>
          <leafValues>
            9.9066905677318573e-02 -1.5543161332607269e-01</leafValues></_>
        <_>
          <internalNodes>
            0 -1 1289 3.9800354279577732e-03</internalNodes>
          <leafValues>
            -2.9882598668336868e-02 5.1179105043411255e-01</leafValues></_>
        <_>
          <internalNodes>
            0 -1 1338 2.4543588981032372e-02</internalNodes>
          <leafValues>
            2.5361886247992516e-02 -6.3809013366699219e-01</leafValues></_>
        <_>
          <internalNodes>
            0 -1 1473 -4.3254613410681486e-04</internalNodes>
          <leafValues>
            -2.0057864487171173e-01 7.0649653673171997e-02</leafValues></_>
        <_>
          <internalNodes>
            0 -1 610 -2.5846525095403194e-03</internalNodes>
          <leafValues>
            -1.8463444709777832e-01 7.7741771936416626e-02</leafValues></_>
        <_>
          <internalNodes>
            0 -1 909 -5.4949317127466202e-03</internalNodes>
          <leafValues>
            1.8849815428256989e-01 -7.5483955442905426e-02</leafValues></_>
        <_>
          <internalNodes>
            0 -1 913 2.4158675223588943e-03</internalNodes>
          <leafValues>
            -1.1125204712152481e-01 1.7268633842468262e-01</leafValues></_>
        <_>
          <internalNodes>
            0 -1 366 3.3908692421391606e-04</internalNodes>
          <leafValues>
            -1.1207807064056396e-01 1.2129946053028107e-01</leafValues></_>
        <_>
          <internalNodes>
            0 -1 227 1.2401421554386616e-03</internalNodes>
          <leafValues>
            6.9667875766754150e-02 -1.9695970416069031e-01</leafValues></_>
        <_>
          <internalNodes>
            0 -1 119 -4.9867399036884308e-02</internalNodes>
          <leafValues>
            -3.9867720007896423e-01 3.3101920038461685e-02</leafValues></_>
        <_>
          <internalNodes>
            0 -1 816 -1.3884597457945347e-02</internalNodes>
          <leafValues>
            2.3312571644783020e-01 -5.9283871203660965e-02</leafValues></_>
        <_>
          <internalNodes>
            0 -1 620 2.0065793767571449e-02</internalNodes>
          <leafValues>
            -7.9533673822879791e-02 2.0539191365242004e-01</leafValues></_>
        <_>
          <internalNodes>
            0 -1 688 6.0086476150900126e-04</internalNodes>
          <leafValues>
            9.1214843094348907e-02 -1.8867005407810211e-01</leafValues></_>
        <_>
          <internalNodes>
            0 -1 46 -1.4870804548263550e-01</internalNodes>
          <leafValues>
            -5.7337188720703125e-01 2.4836223572492599e-02</leafValues></_>
        <_>
          <internalNodes>
            0 -1 1414 1.3771282508969307e-02</internalNodes>
          <leafValues>
            2.8390703722834587e-02 -4.4222822785377502e-01</leafValues></_>
        <_>
          <internalNodes>
            0 -1 758 1.5168038662523031e-03</internalNodes>
          <leafValues>
            6.2716677784919739e-02 -2.1968632936477661e-01</leafValues></_>
        <_>
          <internalNodes>
            0 -1 845 7.6281046494841576e-03</internalNodes>
          <leafValues>
            -7.3434337973594666e-02 1.8977314233779907e-01</leafValues></_>
        <_>
          <internalNodes>
            0 -1 62 -6.1545954085886478e-03</internalNodes>
          <leafValues>
            3.6894172430038452e-01 -3.6129675805568695e-02</leafValues></_>
        <_>
          <internalNodes>
            0 -1 872 7.7554443851113319e-03</internalNodes>
          <leafValues>
            -5.9781197458505630e-02 2.3028838634490967e-01</leafValues></_>
        <_>
          <internalNodes>
            0 -1 1301 4.6840542927384377e-04</internalNodes>
          <leafValues>
            7.0651963353157043e-02 -1.8741881847381592e-01</leafValues></_>
        <_>
          <internalNodes>
            0 -1 1306 3.3261417411267757e-03</internalNodes>
          <leafValues>
            -3.3279642462730408e-02 4.2141386866569519e-01</leafValues></_>
        <_>
          <internalNodes>
            0 -1 377 1.3470003381371498e-02</internalNodes>
          <leafValues>
            5.3500041365623474e-02 -2.6903319358825684e-01</leafValues></_>
        <_>
          <internalNodes>
            0 -1 736 -1.6128586605191231e-02</internalNodes>
          <leafValues>
            2.4527405202388763e-01 -6.4821869134902954e-02</leafValues></_>
        <_>
          <internalNodes>
            0 -1 260 -9.0158712118864059e-03</internalNodes>
          <leafValues>
            1.6206927597522736e-01 -8.3697706460952759e-02</leafValues></_>
        <_>
          <internalNodes>
            0 -1 458 -1.7511570826172829e-02</internalNodes>
          <leafValues>
            4.0878847241401672e-01 -3.5619199275970459e-02</leafValues></_>
        <_>
          <internalNodes>
            0 -1 371 1.6733506694436073e-02</internalNodes>
          <leafValues>
            4.2618669569492340e-02 -3.6902588605880737e-01</leafValues></_>
        <_>
          <internalNodes>
            0 -1 153 1.5978924930095673e-02</internalNodes>
          <leafValues>
            -6.9884933531284332e-02 2.0185768604278564e-01</leafValues></_>
        <_>
          <internalNodes>
            0 -1 756 -1.0076897218823433e-02</internalNodes>
          <leafValues>
            -2.7634206414222717e-01 4.7003902494907379e-02</leafValues></_>
        <_>
          <internalNodes>
            0 -1 1026 -8.8916867971420288e-03</internalNodes>
          <leafValues>
            4.9669906497001648e-01 -2.8649762272834778e-02</leafValues></_>
        <_>
          <internalNodes>
            0 -1 497 -6.8011493422091007e-03</internalNodes>
          <leafValues>
            2.1885046362876892e-01 -6.2833406031131744e-02</leafValues></_>
        <_>
          <internalNodes>
            0 -1 188 -9.5893060788512230e-03</internalNodes>
          <leafValues>
            -2.5446760654449463e-01 5.2427098155021667e-02</leafValues></_>
        <_>
          <internalNodes>
            0 -1 465 -7.2593307122588158e-03</internalNodes>
          <leafValues>
            2.2057323157787323e-01 -6.1490789055824280e-02</leafValues></_>
        <_>
          <internalNodes>
            0 -1 225 -1.5966891078278422e-03</internalNodes>
          <leafValues>
            -2.7122911810874939e-01 5.0489965826272964e-02</leafValues></_>
        <_>
          <internalNodes>
            0 -1 1335 3.6821831599809229e-04</internalNodes>
          <leafValues>
            -1.1801885813474655e-01 1.1518735438585281e-01</leafValues></_>
        <_>
          <internalNodes>
            0 -1 1207 3.2071251422166824e-02</internalNodes>
          <leafValues>
            -5.0448365509510040e-02 2.6657462120056152e-01</leafValues></_>
        <_>
          <internalNodes>
            0 -1 644 6.7337276414036751e-03</internalNodes>
          <leafValues>
            -3.9143569767475128e-02 3.3207538723945618e-01</leafValues></_>
        <_>
          <internalNodes>
            0 -1 208 -3.6601014435291290e-03</internalNodes>
          <leafValues>
            -3.9775511622428894e-01 3.4675329923629761e-02</leafValues></_>
        <_>
          <internalNodes>
            0 -1 1224 4.6214577741920948e-03</internalNodes>
          <leafValues>
            -7.2395421564579010e-02 1.8745748698711395e-01</leafValues></_>
        <_>
          <internalNodes>
            0 -1 795 -4.7721196897327900e-03</internalNodes>
          <leafValues>
            2.0108470320701599e-01 -6.0110021382570267e-02</leafValues></_>
        <_>
          <internalNodes>
            0 -1 250 -1.5952162444591522e-02</internalNodes>
          <leafValues>
            2.2306796908378601e-01 -5.7676389813423157e-02</leafValues></_>
        <_>
          <internalNodes>
            0 -1 1570 1.6432296484708786e-02</internalNodes>
          <leafValues>
            4.5547194778919220e-02 -2.9463171958923340e-01</leafValues></_>
        <_>
          <internalNodes>
            0 -1 1543 -3.9047314203344285e-04</internalNodes>
          <leafValues>
            -1.9173023104667664e-01 6.5903969109058380e-02</leafValues></_>
        <_>
          <internalNodes>
            0 -1 1275 3.4636412747204304e-03</internalNodes>
          <leafValues>
            -7.1583099663257599e-02 1.8360634148120880e-01</leafValues></_>
        <_>
          <internalNodes>
            0 -1 550 4.1079506278038025e-02</internalNodes>
          <leafValues>
            -5.4471466690301895e-02 2.2251637279987335e-01</leafValues></_>
        <_>
          <internalNodes>
            0 -1 1056 -2.4815129581838846e-03</internalNodes>
          <leafValues>
            2.4167242646217346e-01 -5.1201779395341873e-02</leafValues></_></weakClassifiers></_>
    <!-- stage 7 -->
    <_>
      <maxWeakCount>100</maxWeakCount>
      <stageThreshold>-1.2311027050018311e+00</stageThreshold>
      <weakClassifiers>
        <_>
          <internalNodes>
            0 -1 71 -9.5771387219429016e-02</internalNodes>
          <leafValues>
            1.8792113661766052e-01 -3.5109153389930725e-01</leafValues></_>
        <_>
          <internalNodes>
            0 -1 129 4.7476585954427719e-02</internalNodes>
          <leafValues>
            -1.1700515449047089e-01 2.5000581145286560e-01</leafValues></_>
        <_>
          <internalNodes>
            0 -1 1471 -9.0479720383882523e-03</internalNodes>
          <leafValues>
            2.3806139826774597e-01 -9.5089673995971680e-02</leafValues></_>
        <_>
          <internalNodes>
            0 -1 1516 1.7785589443519711e-04</internalNodes>
          <leafValues>
            -1.9502659142017365e-01 9.1016583144664764e-02</leafValues></_>
        <_>
          <internalNodes>
            0 -1 15 8.4583871066570282e-03</internalNodes>
          <leafValues>
            -5.9830456972122192e-02 2.4687352776527405e-01</leafValues></_>
        <_>
          <internalNodes>
            0 -1 808 2.6099491119384766e-01</internalNodes>
          <leafValues>
            7.6581008732318878e-02 -5.3561246395111084e-01</leafValues></_>
        <_>
          <internalNodes>
            0 -1 703 2.9923256486654282e-02</internalNodes>
          <leafValues>
            -1.0716050863265991e-01 3.0155700445175171e-01</leafValues></_>
        <_>
          <internalNodes>
            0 -1 1122 -3.8017146289348602e-02</internalNodes>
          <leafValues>
            3.3185833692550659e-01 -1.9085111096501350e-02</leafValues></_>
        <_>
          <internalNodes>
            0 -1 428 6.1469402164220810e-02</internalNodes>
          <leafValues>
            -6.1856575310230255e-02 3.3519065380096436e-01</leafValues></_>
        <_>
          <internalNodes>
            0 -1 10 -4.7685936093330383e-02</internalNodes>
          <leafValues>
            2.9372149705886841e-01 -6.4905516803264618e-02</leafValues></_>
        <_>
          <internalNodes>
            0 -1 814 2.0608346909284592e-02</internalNodes>
          <leafValues>
            -5.2742805331945419e-02 3.8577160239219666e-01</leafValues></_>
        <_>
          <internalNodes>
            0 -1 1061 6.3307373784482479e-03</internalNodes>
          <leafValues>
            3.4611210227012634e-02 -3.9155942201614380e-01</leafValues></_>
        <_>
          <internalNodes>
            0 -1 613 -6.8176984786987305e-03</internalNodes>
          <leafValues>
            2.0158198475837708e-01 -6.0978751629590988e-02</leafValues></_>
        <_>
          <internalNodes>
            0 -1 1569 -9.3983078841120005e-04</internalNodes>
          <leafValues>
            -1.6759672760963440e-01 8.1766180694103241e-02</leafValues></_>
        <_>
          <internalNodes>
            0 -1 1192 -3.3484511077404022e-02</internalNodes>
          <leafValues>
            3.1448960304260254e-01 -5.1310379058122635e-02</leafValues></_>
        <_>
          <internalNodes>
            0 -1 1487 -4.5005595311522484e-03</internalNodes>
          <leafValues>
            4.8016214370727539e-01 -3.1642295420169830e-02</leafValues></_>
        <_>
          <internalNodes>
            0 -1 1269 -1.3372715562582016e-02</internalNodes>
          <leafValues>
            -4.1018888354301453e-01 3.9784487336874008e-02</leafValues></_>
        <_>
          <internalNodes>
            0 -1 1036 -9.8655279725790024e-03</internalNodes>
          <leafValues>
            2.4886727333068848e-01 -5.8241754770278931e-02</leafValues></_>
        <_>
          <internalNodes>
            0 -1 1404 -4.8946570605039597e-03</internalNodes>
          <leafValues>
            -3.0666247010231018e-01 4.2800746858119965e-02</leafValues></_>
        <_>
          <internalNodes>
            0 -1 1041 4.8798900097608566e-03</internalNodes>
          <leafValues>
            -7.9909853637218475e-02 1.7541179060935974e-01</leafValues></_>
        <_>
          <internalNodes>
            0 -1 976 3.9256415329873562e-03</internalNodes>
          <leafValues>
            -8.8526636362075806e-02 1.6332295536994934e-01</leafValues></_>
        <_>
          <internalNodes>
            0 -1 94 -5.5050671100616455e-02</internalNodes>
          <leafValues>
            -2.9372990131378174e-01 4.9697324633598328e-02</leafValues></_>
        <_>
          <internalNodes>
            0 -1 945 -1.0033162310719490e-02</internalNodes>
          <leafValues>
            -6.1136192083358765e-01 1.8008003011345863e-02</leafValues></_>
        <_>
          <internalNodes>
            0 -1 860 6.6283643245697021e-03</internalNodes>
          <leafValues>
            -7.6474145054817200e-02 1.7636811733245850e-01</leafValues></_>
        <_>
          <internalNodes>
            0 -1 857 -3.9854384958744049e-03</internalNodes>
          <leafValues>
            1.6613122820854187e-01 -9.2688716948032379e-02</leafValues></_>
        <_>
          <internalNodes>
            0 -1 822 1.7730478197336197e-02</internalNodes>
          <leafValues>
            3.0342645943164825e-02 -4.4391348958015442e-01</leafValues></_>
        <_>
          <internalNodes>
            0 -1 505 -5.8794148266315460e-02</internalNodes>
          <leafValues>
            -3.2472869753837585e-01 4.0519382804632187e-02</leafValues></_>
        <_>
          <internalNodes>
            0 -1 464 2.7389120310544968e-02</internalNodes>
          <leafValues>
            1.7996370792388916e-02 -6.3807499408721924e-01</leafValues></_>
        <_>
          <internalNodes>
            0 -1 156 -6.2896944582462311e-03</internalNodes>
          <leafValues>
            1.6781422495841980e-01 -7.8989528119564056e-02</leafValues></_>
        <_>
          <internalNodes>
            0 -1 379 2.2846455685794353e-03</internalNodes>
          <leafValues>
            -1.0062011331319809e-01 1.5242877602577209e-01</leafValues></_>
        <_>
          <internalNodes>
            0 -1 209 4.5444285497069359e-03</internalNodes>
          <leafValues>
            3.7955794483423233e-02 -3.4290099143981934e-01</leafValues></_>
        <_>
          <internalNodes>
            0 -1 217 5.4520694538950920e-04</internalNodes>
          <leafValues>
            -1.2549813091754913e-01 1.2392169982194901e-01</leafValues></_>
        <_>
          <internalNodes>
            0 -1 747 1.1122045107185841e-02</internalNodes>
          <leafValues>
            2.2149957716464996e-02 -5.8977282047271729e-01</leafValues></_>
        <_>
          <internalNodes>
            0 -1 220 -4.5258346945047379e-03</internalNodes>
          <leafValues>
            -3.0660748481750488e-01 3.8257338106632233e-02</leafValues></_>
        <_>
          <internalNodes>
            0 -1 51 -4.6483054757118225e-03</internalNodes>
          <leafValues>
            1.8067964911460876e-01 -8.0956958234310150e-02</leafValues></_>
        <_>
          <internalNodes>
            0 -1 63 4.6718707308173180e-03</internalNodes>
          <leafValues>
            -6.1706595122814178e-02 2.4088908731937408e-01</leafValues></_>
        <_>
          <internalNodes>
            0 -1 947 -1.0249977000057697e-02</internalNodes>
          <leafValues>
            2.0506997406482697e-01 -6.1695370823144913e-02</leafValues></_>
        <_>
          <internalNodes>
            0 -1 604 9.1588143259286880e-03</internalNodes>
          <leafValues>
            5.0631087273359299e-02 -2.6016721129417419e-01</leafValues></_>
        <_>
          <internalNodes>
            0 -1 7 -2.0597361028194427e-02</internalNodes>
          <leafValues>
            1.9761256873607635e-01 -6.3448920845985413e-02</leafValues></_>
        <_>
          <internalNodes>
            0 -1 99 -2.1272615995258093e-03</internalNodes>
          <leafValues>
            1.9128169119358063e-01 -6.2364093959331512e-02</leafValues></_>
        <_>
          <internalNodes>
            0 -1 53 -1.7539760097861290e-02</internalNodes>
          <leafValues>
            -4.5040339231491089e-01 2.7620265260338783e-02</leafValues></_>
        <_>
          <internalNodes>
            0 -1 992 -3.4329185727983713e-03</internalNodes>
          <leafValues>
            2.0148827135562897e-01 -6.5553687512874603e-02</leafValues></_>
        <_>
          <internalNodes>
            0 -1 1167 -2.6842476800084114e-03</internalNodes>
          <leafValues>
            2.6546594500541687e-01 -4.7084119170904160e-02</leafValues></_>
        <_>
          <internalNodes>
            0 -1 168 4.2535315151326358e-04</internalNodes>
          <leafValues>
            6.5801575779914856e-02 -1.9925543665885925e-01</leafValues></_>
        <_>
          <internalNodes>
            0 -1 167 5.6477356702089310e-04</internalNodes>
          <leafValues>
            6.3883520662784576e-02 -2.2670796513557434e-01</leafValues></_>
        <_>
          <internalNodes>
            0 -1 1108 1.6467296518385410e-03</internalNodes>
          <leafValues>
            -6.1941377818584442e-02 2.0656313002109528e-01</leafValues></_>
        <_>
          <internalNodes>
            0 -1 1377 -5.1446892321109772e-03</internalNodes>
          <leafValues>
            2.2854396700859070e-01 -5.3460124880075455e-02</leafValues></_>
        <_>
          <internalNodes>
            0 -1 1489 1.7938951496034861e-03</internalNodes>
          <leafValues>
            5.8957144618034363e-02 -2.4173161387443542e-01</leafValues></_>
        <_>
          <internalNodes>
            0 -1 1372 -1.6829298809170723e-02</internalNodes>
          <leafValues>
            -7.2386366128921509e-01 1.6519565135240555e-02</leafValues></_>
        <_>
          <internalNodes>
            0 -1 1260 7.9218181781470776e-04</internalNodes>
          <leafValues>
            -1.1175806075334549e-01 1.1318873614072800e-01</leafValues></_>
        <_>
          <internalNodes>
            0 -1 1311 3.1532967113889754e-05</internalNodes>
          <leafValues>
            -1.3280560076236725e-01 9.4398148357868195e-02</leafValues></_>
        <_>
          <internalNodes>
            0 -1 1147 -1.3869326561689377e-02</internalNodes>
          <leafValues>
            3.2351356744766235e-01 -4.6498976647853851e-02</leafValues></_>
        <_>
          <internalNodes>
            0 -1 1412 -3.7959839683026075e-03</internalNodes>
          <leafValues>
            -1.9250614941120148e-01 6.6945649683475494e-02</leafValues></_>
        <_>
          <internalNodes>
            0 -1 469 1.1642749607563019e-01</internalNodes>
          <leafValues>
            1.7764072865247726e-02 -6.6593635082244873e-01</leafValues></_>
        <_>
          <internalNodes>
            0 -1 475 -2.1577042061835527e-03</internalNodes>
          <leafValues>
            -2.8306961059570312e-01 4.1392445564270020e-02</leafValues></_>
        <_>
          <internalNodes>
            0 -1 344 -2.2729901596903801e-02</internalNodes>
          <leafValues>
            -6.0833418369293213e-01 2.0083602517843246e-02</leafValues></_>
        <_>
          <internalNodes>
            0 -1 974 1.3195937871932983e-01</internalNodes>
          <leafValues>
            1.7826337367296219e-02 -6.0622960329055786e-01</leafValues></_>
        <_>
          <internalNodes>
            0 -1 864 7.5843378901481628e-02</internalNodes>
          <leafValues>
            2.0241847261786461e-02 -5.4492789506912231e-01</leafValues></_>
        <_>
          <internalNodes>
            0 -1 665 2.6213947683572769e-02</internalNodes>
          <leafValues>
            -6.6837713122367859e-02 2.0131655037403107e-01</leafValues></_>
        <_>
          <internalNodes>
            0 -1 1169 3.1475033611059189e-03</internalNodes>
          <leafValues>
            -9.5403701066970825e-02 1.3130347430706024e-01</leafValues></_>
        <_>
          <internalNodes>
            0 -1 175 -1.1757370084524155e-02</internalNodes>
          <leafValues>
            2.9968142509460449e-01 -3.9510101079940796e-02</leafValues></_>
        <_>
          <internalNodes>
            0 -1 626 3.9094708859920502e-02</internalNodes>
          <leafValues>
            -5.6784823536872864e-02 2.2191716730594635e-01</leafValues></_>
        <_>
          <internalNodes>
            0 -1 189 -4.2729107663035393e-03</internalNodes>
          <leafValues>
            1.3876071572303772e-01 -9.3128331005573273e-02</leafValues></_>
        <_>
          <internalNodes>
            0 -1 549 1.2433498166501522e-02</internalNodes>
          <leafValues>
            4.7722835093736649e-02 -2.8463459014892578e-01</leafValues></_>
        <_>
          <internalNodes>
            0 -1 1402 3.7193540483713150e-03</internalNodes>
          <leafValues>
            -3.1770028173923492e-02 4.2778870463371277e-01</leafValues></_>
        <_>
          <internalNodes>
            0 -1 994 -8.3643151447176933e-04</internalNodes>
          <leafValues>
            -2.1855604648590088e-01 6.1062786728143692e-02</leafValues></_>
        <_>
          <internalNodes>
            0 -1 257 1.2268684059381485e-01</internalNodes>
          <leafValues>
            3.3760577440261841e-02 -3.4597688913345337e-01</leafValues></_>
        <_>
          <internalNodes>
            0 -1 1288 -3.7815845571458340e-03</internalNodes>
